{"lstm.weight_ih_l0": [[-0.11336571723222733], [-0.25828883051872253], [0.179493710398674], [0.8796166181564331], [-1.442948818206787], [0.5880473852157593], [0.3046572804450989], [-0.44587650895118713], [0.8732522130012512], [-0.6594268083572388], [0.7768256068229675], [-0.24266980588436127], [-0.31731823086738586], [0.09942694753408432], [3.650186061859131], [0.6262796521186829], [-0.8205397725105286], [-4.773451328277588], [9.321829795837402], [0.4042392075061798], [3.55489182472229], [-0.22166702151298523], [0.8793985247612], [-0.6476631164550781], [0.9592200517654419], [0.34099799394607544], [-0.3833742141723633], [0.489045113325119]], "lstm.weight_hh_l0": [[0.05130098760128021, 0.4016472101211548, 0.021242303773760796, -1.56499183177948, 1.5104376077651978, -0.4207722246646881, 0.5337908267974854], [-0.38794705271720886, 0.04091693088412285, 0.8776894807815552, 0.5463566780090332, -0.7102181315422058, -0.5054998397827148, 0.06616868823766708], [0.7369062900543213, 0.8679212927818298, -0.11519760638475418, -0.8305881023406982, 1.1906375885009766, -0.5939090847969055, 0.3081003725528717], [1.0910588502883911, -0.22164024412631989, -0.1518366038799286, -0.7388337254524231, 1.132969856262207, 0.2044481784105301, 1.3133907318115234], [-3.2076687812805176, 1.4944641590118408, 1.396700143814087, 1.1239960193634033, -1.4878731966018677, 0.6202718019485474, -1.5495259761810303], [-0.5049594640731812, -0.389020174741745, -0.020288629457354546, 0.43665316700935364, -0.11324843764305115, 0.5641458034515381, -1.0552690029144287], [3.6135077476501465, 0.9919184446334839, 0.11104700714349747, 0.29192155599594116, 3.010488510131836, 0.45392006635665894, 3.3942627906799316], [-1.1951977014541626, 0.43965020775794983, -0.0734981819987297, -0.5196871161460876, 0.8870379328727722, -0.48653703927993774, 0.20305711030960083], [-0.2692409157752991, -1.1646323204040527, 0.9300205707550049, -0.3661964237689972, 0.3255136013031006, -0.06948819011449814, 0.3084179162979126], [0.5614864826202393, 1.0868803262710571, 0.6592970490455627, -0.30936098098754883, -0.41866999864578247, -1.118328332901001, 0.12059379369020462], [0.43296799063682556, -0.16086141765117645, 0.6609755754470825, -0.5567083358764648, 0.5277255773544312, 0.14698344469070435, 0.7264284491539001], [-0.3926374912261963, 0.6250925660133362, 1.2641537189483643, 0.15721717476844788, 0.7207860350608826, 0.07882672548294067, 0.48486217856407166], [-0.014354249462485313, -0.4871450960636139, 0.9234911203384399, 0.026820462197065353, -0.86284339427948, 0.05462149530649185, -0.21257954835891724], [0.22450369596481323, 1.037713646888733, 0.5976449847221375, 1.0531175136566162, 1.125412940979004, 0.7230079770088196, 0.5315554738044739], [0.386809378862381, 0.7245520949363708, 0.9142052531242371, -0.04479165002703667, 1.0730210542678833, -0.5205880403518677, -0.07848072052001953], [-0.3467080891132355, 0.6763913035392761, 0.06378203630447388, 0.22793443500995636, -0.029833151027560234, -0.4459593594074249, -0.053980495780706406], [-0.6018856763839722, -0.018716558814048767, 0.18708714842796326, 0.7132374048233032, -0.4320479929447174, 0.2127373069524765, -0.06513099372386932], [0.10416358709335327, 0.23816321790218353, 0.5263129472732544, 0.22866898775100708, -0.6342150568962097, -0.016072021797299385, -0.08967337012290955], [0.000917749188374728, 0.18448878824710846, 0.3339610695838928, -0.20976246893405914, -0.1041858121752739, 0.4586550295352936, -0.0691942572593689], [-0.2491273730993271, -0.781682550907135, -0.11377465724945068, -0.26222941279411316, 0.23373360931873322, -0.058699753135442734, 0.1845390945672989], [1.7985738515853882, 1.2892004251480103, 0.5262876152992249, -0.6210231781005859, 1.747138261795044, -0.9505406022071838, 1.0072661638259888], [0.07708872109651566, 0.6904829740524292, -0.03313681483268738, -1.8214426040649414, 1.9758449792861938, -0.6416094303131104, 0.7769441604614258], [0.38428613543510437, -0.8990828394889832, 0.7489832043647766, 0.0076330071315169334, 0.5470902323722839, -0.45904794335365295, 0.058396805077791214], [0.4318000376224518, 1.1277518272399902, 0.5464688539505005, -0.28810182213783264, -0.3633454740047455, -1.1601063013076782, 0.16578306257724762], [0.3209793269634247, 0.1189744845032692, 0.8410379886627197, -0.44366884231567383, 0.3299708366394043, 0.15963265299797058, 0.24574081599712372], [-0.22561074793338776, 0.2265346795320511, -0.28340020775794983, -0.7531907558441162, 1.2463256120681763, 0.8080883026123047, 0.32316672801971436], [-0.02326778508722782, -0.13496136665344238, 1.105431079864502, 0.5491253733634949, -0.9700188040733337, -0.19728319346904755, -0.571973979473114], [-0.9805638194084167, -0.41172555088996887, 0.6332146525382996, 0.5429174900054932, -1.681926965713501, 1.9930723905563354, -1.5507766008377075]], "lstm.bias_ih_l0": [0.8101778030395508, -0.2955140173435211, -0.5600732564926147, 0.06370095908641815, 1.3047899007797241, -0.09487876296043396, 0.7596710920333862, -0.564389705657959, 0.3638051450252533, 0.11080575734376907, -0.007026100531220436, -0.06318530440330505, 0.8250634074211121, -0.7185226678848267, 0.11149482429027557, -0.11547525972127914, 0.19430577754974365, 0.057612691074609756, -0.16048137843608856, 0.2114933282136917, -0.17587794363498688, 0.6402316093444824, 0.6286246180534363, -0.21690845489501953, 0.14604759216308594, 1.4264432191848755, -0.12365582585334778, 0.9097752571105957], "lstm.bias_hh_l0": [0.8583409190177917, -0.382968008518219, -0.588739275932312, 0.5314732789993286, 1.0856095552444458, -0.26460716128349304, 0.4459788501262665, -0.6584471464157104, 0.9790555834770203, 0.002901935251429677, 0.02799191325902939, -0.03160557523369789, 0.5390321016311646, -0.15833662450313568, -0.20216968655586243, 0.22542937099933624, -0.1590246707201004, -0.10260206460952759, 0.12268185615539551, -0.02626870945096016, -0.025191014632582664, 0.6305915117263794, 0.14506249129772186, -0.18980640172958374, 0.6340739727020264, 1.4626827239990234, -0.19454540312290192, 0.4812919795513153], "dense.weight": [[0.013431093655526638, 0.5438735485076904, 0.40055230259895325, -0.4926488697528839, 0.14170204102993011, 0.5018837451934814, 1.4348480701446533]], "dense.bias": [-0.22454436123371124]}