{"lstm.weight_ih_l0": [[-0.045640259981155396], [0.32716789841651917], [0.2511654794216156], [0.31010597944259644], [0.06941388547420502], [-0.3015798032283783], [-0.0834994986653328], [-0.28197428584098816], [-0.21971529722213745], [0.9123923778533936], [0.36981624364852905], [0.15115252137184143], [-0.6464438438415527], [0.3049814999103546], [4.107227802276611], [-5.526437282562256], [-1.2172768115997314], [0.26495206356048584], [-8.756011009216309], [-0.5302390456199646], [-7.729064464569092], [-1.630881428718567], [-0.5403337478637695], [1.1089060306549072], [0.4862539768218994], [0.5124993920326233], [-0.09957323223352432], [-0.8564321398735046]], "lstm.weight_hh_l0": [[-0.8189569711685181, 0.864617645740509, 0.98929363489151, -0.5488290786743164, 0.17753422260284424, 0.6171180009841919, 0.17895443737506866], [-1.509366750717163, 2.8469583988189697, -1.7776864767074585, 0.6501800417900085, 2.395787000656128, -0.201939657330513, 2.962419033050537], [0.039815694093704224, 0.28628769516944885, -0.32550087571144104, -0.019273171201348305, -0.36310088634490967, 0.08163879066705704, -0.08866002410650253], [-0.1636963039636612, 0.2415274977684021, -0.043388091027736664, 0.1379886418581009, 0.5337767601013184, 0.00941934622824192, 0.14918774366378784], [-1.1447452306747437, 0.8884312510490417, 1.4322503805160522, -1.0191830396652222, -1.0512518882751465, 0.8664044737815857, -0.8171001672744751], [-0.2515700161457062, -0.21395505964756012, 0.177437424659729, 0.4040079414844513, 0.6411130428314209, 0.05553140118718147, 0.30544471740722656], [-0.5732107758522034, 0.6158608198165894, 0.8692021369934082, -0.4004126191139221, -0.8094450831413269, 0.38597455620765686, -0.6651847958564758], [-0.7177971005439758, 0.2692301869392395, 0.8257042169570923, -0.45815056562423706, 0.14727884531021118, 0.39243561029434204, 0.33145496249198914], [-0.13037338852882385, 0.810298502445221, 0.6737242937088013, 0.9762254953384399, 0.2182547152042389, -1.03791344165802, 1.0041651725769043], [-0.1812412589788437, 0.016360722482204437, -0.9451158046722412, -0.025738880038261414, -1.2790945768356323, 0.4935033619403839, -0.6496704816818237], [-0.4728662967681885, -0.10735935717821121, 0.13178449869155884, -0.03416227921843529, 0.5015416145324707, 0.23119108378887177, 0.18892186880111694], [-0.491055965423584, 0.2487332671880722, 0.6648606061935425, 0.07651329040527344, -0.1947121024131775, 0.06747469305992126, 0.05697331950068474], [-0.8724153637886047, 0.17268861830234528, 0.6152910590171814, -0.5730020403862, 0.38507699966430664, 0.9199737906455994, 0.037747081369161606], [-0.23021957278251648, 0.32995060086250305, 0.5180853605270386, -0.22983288764953613, -0.46954771876335144, 0.1695387214422226, -0.2542565166950226], [0.10748696327209473, -0.1340581774711609, -0.12380484491586685, 0.17191214859485626, -0.4831891357898712, -0.3828042149543762, -0.6277955770492554], [-0.6802594065666199, 0.7634398937225342, -0.20676705241203308, 0.33384203910827637, 1.4955133199691772, -0.14308881759643555, 1.5735434293746948], [-0.2669551968574524, -0.1788819134235382, 0.390912801027298, -0.13412544131278992, 0.23808041214942932, 0.5874620079994202, 0.0694086030125618], [0.6666185855865479, -0.17150041460990906, -0.49042704701423645, -0.1308426409959793, -0.41706594824790955, -0.2137340009212494, 0.01755095086991787], [-0.08317368477582932, 0.47656717896461487, 0.43174898624420166, -0.12290534377098083, 0.08340548723936081, -0.11407597362995148, 0.3229421377182007], [-0.07759570330381393, -0.12388690561056137, 0.77813720703125, -0.2389269918203354, 0.030064241960644722, 0.01139834988862276, -0.1311478167772293], [-0.1435120403766632, -0.21419905126094818, -0.27892324328422546, 0.40870076417922974, 0.1326964944601059, -0.0622817724943161, -0.012295112013816833], [0.16974371671676636, -0.1372784972190857, 0.6913636922836304, -0.16582940518856049, -0.9729757905006409, -0.0026393996085971594, -0.018048960715532303], [0.562786877155304, -1.6070619821548462, 1.1884121894836426, 0.7731057405471802, -3.7107081413269043, -0.9911446571350098, -1.3342527151107788], [-0.13138781487941742, -0.46492189168930054, -1.1430763006210327, 0.35335132479667664, -0.8124649524688721, 0.17238633334636688, -0.4951324760913849], [-0.1280961036682129, 0.3311620354652405, -0.11536586284637451, 0.2926694452762604, 0.27210307121276855, 0.183434396982193, 0.34800955653190613], [-1.7013309001922607, 2.4208662509918213, 2.00937819480896, -1.0575743913650513, -0.47263699769973755, 1.02580988407135, 0.07952975481748581], [-0.7980571389198303, 0.3738797903060913, 0.24062833189964294, -0.3513273298740387, 0.7657502293586731, 0.4738243818283081, 0.5682205557823181], [-1.062462568283081, 0.9552351236343384, 1.4482706785202026, -0.8623910546302795, -0.23589494824409485, 0.6435317993164062, -0.12868359684944153]], "lstm.bias_ih_l0": [0.5896559357643127, 1.1779032945632935, -0.4659007489681244, -0.29284006357192993, 0.550868034362793, -0.29309573769569397, 0.794196367263794, -0.09762341529130936, -0.604743242263794, 0.5746169686317444, 0.2969816327095032, -0.1787726879119873, 0.3898037374019623, 0.26584944128990173, 0.09469034522771835, 0.15877357125282288, -0.22414937615394592, 0.00466889189556241, -0.12811915576457977, 0.36150550842285156, 0.14061065018177032, 0.061376750469207764, 0.12595544755458832, 0.016113294288516045, 0.0013127990532666445, 0.469587117433548, 0.1752462089061737, 0.4526218771934509], "lstm.bias_hh_l0": [0.7433157563209534, 1.0341914892196655, -0.20224258303642273, -0.41211944818496704, 0.8987589478492737, -0.47903940081596375, 0.8909092545509338, 0.32399389147758484, -0.14524006843566895, 0.43498870730400085, 0.20118966698646545, -0.35391584038734436, 0.25564098358154297, -0.2218821793794632, -0.36920610070228577, 0.3585522472858429, 0.2637781798839569, -0.14679302275180817, -0.10243398696184158, -0.36221060156822205, -0.09017761051654816, 0.12108036875724792, 0.029437070712447166, -0.08777457475662231, -0.06854946166276932, 0.6947407126426697, 0.38042277097702026, 0.19044718146324158], "dense.weight": [[0.44326427578926086, -1.7754486799240112, 0.17177441716194153, -0.05379747599363327, -1.0930508375167847, 0.2042286992073059, 0.5285778045654297]], "dense.bias": [-0.06291402131319046]}