{"lstm.weight_ih_l0": [[0.04256756603717804], [-0.307149738073349], [-0.1679157316684723], [0.35008594393730164], [-0.4306989908218384], [0.5774524807929993], [0.2226104438304901], [0.6709264516830444], [0.5347340703010559], [-0.9371760487556458], [0.78927081823349], [-0.34527623653411865], [-0.023232940584421158], [0.2545638680458069], [1.5380775928497314], [0.10144100338220596], [-0.4447748064994812], [-3.453944206237793], [4.182175636291504], [0.9607725739479065], [1.8038725852966309], [0.47181436419487], [1.2657142877578735], [-1.0333307981491089], [0.6108493804931641], [-1.1320888996124268], [-0.08511926978826523], [0.9456318616867065]], "lstm.weight_hh_l0": [[-0.21296949684619904, -0.22178710997104645, 0.3192712962627411, -0.14993739128112793, -0.09290510416030884, -0.3198765516281128, 0.6579731702804565], [0.1259116232395172, 0.1520308256149292, 0.5257121920585632, 0.24640727043151855, -0.8900012969970703, -0.7060697674751282, -0.033446215093135834], [0.2591300904750824, 0.7736269235610962, -0.1393781453371048, -0.4696519374847412, 1.1437325477600098, -0.5393862724304199, 0.6061144471168518], [0.10497801750898361, -0.32666653394699097, -0.26547157764434814, -0.6033750176429749, 1.1803734302520752, 0.4809991419315338, 0.7239006161689758], [-1.0400471687316895, -0.39568379521369934, 0.2177790403366089, 0.5436229705810547, -0.3232114315032959, 1.1173797845840454, -2.481584072113037], [-1.0028600692749023, -0.7449753284454346, -0.06785108894109726, 0.3269995152950287, -0.20289219915866852, 0.32930055260658264, -0.28745487332344055], [0.87779301404953, -0.06610539555549622, 0.2867898643016815, -1.0164614915847778, 2.152322769165039, -0.2823169529438019, 1.9327716827392578], [-0.16796404123306274, -0.45962971448898315, 0.35767635703086853, -0.16336753964424133, -0.5296606421470642, -0.6602702736854553, 0.45841461420059204], [-0.5596309900283813, -1.036747932434082, 0.9078808426856995, -0.42283591628074646, 0.13770031929016113, -0.22985097765922546, 0.06168462708592415], [-0.09280738979578018, 0.8379486203193665, 0.47887179255485535, 0.11300691962242126, -0.22606103122234344, -0.7897379994392395, 0.2385140359401703], [0.7560470700263977, 0.25488367676734924, 0.709054172039032, -0.10483149439096451, 0.33309808373451233, 0.11954779177904129, 0.31269142031669617], [-0.2892107665538788, 0.7769412994384766, 0.31239157915115356, 0.15878057479858398, 0.1367434412240982, -0.18631044030189514, -0.366921067237854], [-0.23152345418930054, -0.0808267816901207, 0.7395464181900024, 0.051432330161333084, -0.8384570479393005, -0.3198264241218567, 0.45701107382774353], [0.30192121863365173, 0.07939159125089645, 0.3798244595527649, 0.0894584059715271, 1.2241774797439575, -0.23629963397979736, 0.14242355525493622], [0.2025071233510971, 1.0797499418258667, 0.48775023221969604, -0.09612993896007538, 0.15044774115085602, -0.42729952931404114, 0.02120206132531166], [-0.3933158814907074, 0.7186282277107239, 0.1083049327135086, 0.31685662269592285, -0.049678318202495575, -0.42253607511520386, -0.06699176877737045], [-0.23874826729297638, -0.00045645140926353633, 0.27631813287734985, 0.8713808655738831, -0.5712575912475586, 0.10553395003080368, -0.2411850243806839], [0.20463089644908905, 0.2882787883281708, 0.47738027572631836, 0.18422923982143402, -0.60549396276474, -0.03712059184908867, 0.049652498215436935], [0.3769541084766388, 0.11182406544685364, -0.0434727780520916, -0.505791425704956, -0.07501768320798874, 0.45849037170410156, 0.004517586901783943], [-0.38355138897895813, 0.03813222795724869, -0.0330142006278038, -0.051923755556344986, 0.33673277497291565, -0.1932390183210373, 0.11872567981481552], [0.9753360152244568, 0.9925075173377991, 0.2018435299396515, -0.45869067311286926, 0.7367084622383118, -0.6812061667442322, 0.81010502576828], [0.2510547935962677, 0.16924674808979034, 0.4441562592983246, -0.02990204654633999, 0.2399456799030304, -0.5660185813903809, 1.5456417798995972], [0.5904918909072876, -0.8276894688606262, 0.7319288849830627, -0.14567972719669342, 0.46092477440834045, -0.6221951842308044, 0.41169995069503784], [-0.07789192348718643, 1.034859299659729, 0.5395576357841492, 0.22560323774814606, -0.1578434407711029, -0.8939050436019897, 0.40064680576324463], [0.32142993807792664, -0.0666801854968071, 0.22530850768089294, -0.387827605009079, 0.6063764095306396, 0.366455614566803, 0.22764655947685242], [0.7008852958679199, 1.7744157314300537, 0.18268924951553345, 0.004122689366340637, 0.4160785377025604, -0.4129966199398041, 0.428042471408844], [-0.24700407683849335, -0.6202738881111145, 1.269941806793213, 0.2339325249195099, -0.6878952980041504, -0.28233104944229126, -0.9425297975540161], [-0.26275500655174255, -1.1884679794311523, 1.0277024507522583, 0.2452923208475113, -0.1307411789894104, 0.1291031539440155, -0.41101768612861633]], "lstm.bias_ih_l0": [0.39629778265953064, -0.23744536936283112, -0.4233405888080597, 0.1342690885066986, 0.9334078431129456, -0.12595219910144806, 0.8578649759292603, -0.03811608627438545, 0.2927516996860504, 0.04954813793301582, -0.10658084601163864, -0.062394678592681885, 0.7444776892662048, -0.20827536284923553, 0.1291673481464386, -0.1209009438753128, 0.22247129678726196, 0.061759792268276215, -0.16627751290798187, 0.22473283112049103, -0.08105960488319397, 0.4407583773136139, 0.5526907444000244, -0.2745477259159088, 0.1526378095149994, 0.9098698496818542, -0.09927674382925034, 0.6068952083587646], "lstm.bias_hh_l0": [0.4453870356082916, -0.3244220018386841, -0.45174068212509155, 0.584199845790863, 0.7379445433616638, -0.2939979135990143, 0.5228391289710999, -0.13505129516124725, 0.9048103094100952, -0.056840479373931885, -0.07227753102779388, -0.03303738683462143, 0.4610673487186432, 0.37292370200157166, -0.18424269556999207, 0.2199791669845581, -0.12973761558532715, -0.09821020811796188, 0.1155434176325798, -0.012851263396441936, 0.07021275162696838, 0.4310244023799896, 0.07299373298883438, -0.24787701666355133, 0.6265940070152283, 0.9422174692153931, -0.16948896646499634, 0.16364246606826782], "dense.weight": [[0.22827687859535217, -0.18209107220172882, 0.24228844046592712, -0.1372147798538208, -0.04117388278245926, 0.7540658116340637, 0.3797391653060913]], "dense.bias": [-0.11367892473936081]}