{"lstm.weight_ih_l0": [[0.5890836119651794], [-1.0409268140792847], [0.5930894613265991], [-0.05265899747610092], [0.8309535980224609], [0.5006679892539978], [0.7079269886016846], [-1.5709810256958008], [-0.5939892530441284], [-0.2909727990627289], [-1.7813793420791626], [1.0206780433654785], [-0.23486585915088654], [-1.053691029548645], [1.6362500190734863], [-5.784302234649658], [3.754199266433716], [6.609606742858887], [0.2188389152288437], [-1.0311217308044434], [-1.2182762622833252], [-0.35027876496315], [1.088297963142395], [0.40999552607536316]], "lstm.weight_hh_l0": [[-0.20692458748817444, -0.36823487281799316, 0.44368839263916016, -0.7822867035865784, 0.27600201964378357, 0.17694208025932312], [-0.28247514367103577, -0.5120204091072083, 0.29362016916275024, 0.09764939546585083, 0.2655860483646393, -0.01141438540071249], [-0.03076792135834694, -0.10401532053947449, -0.6349142789840698, -0.6999534368515015, -0.2749112844467163, -0.6144282221794128], [-0.6839706301689148, -1.0347535610198975, -1.0520389080047607, 0.11896110326051712, -0.3757869303226471, 0.01270857360213995], [0.41975632309913635, 0.16960375010967255, 0.6543280482292175, -0.02668691985309124, -0.8188170790672302, 0.057988882064819336], [-0.1639930009841919, -1.1242632865905762, -1.2147806882858276, 0.3602845370769501, -1.0396288633346558, -0.27899399399757385], [0.008947770111262798, -0.44695350527763367, 0.1580630987882614, -0.7758274674415588, -0.07770740985870361, 0.3393123745918274], [-0.19798269867897034, -0.48054495453834534, 0.08184278011322021, 0.2451389878988266, -0.026550890877842903, 0.29425105452537537], [-0.34491461515426636, -0.7404831051826477, -0.9274913668632507, -0.07878238707780838, -0.6491115689277649, -0.08878830075263977], [-0.30074208974838257, -0.19232302904129028, -0.8510450124740601, -0.05855647101998329, 0.03161335736513138, -0.010828344151377678], [-0.47774869203567505, -0.8443228602409363, -0.35451987385749817, 1.1101694107055664, -1.586268663406372, 0.15239723026752472], [0.14937244355678558, -0.1898505836725235, -0.13820041716098785, 0.17873413860797882, -0.6951082348823547, -0.24838128685951233], [-0.0959242507815361, 0.11809296160936356, -0.049234919250011444, 0.7950181365013123, -0.6219244599342346, -0.21811334788799286], [0.3219834268093109, 0.5608605742454529, -0.6051050424575806, 0.009829790331423283, -0.6889435648918152, 0.02420169673860073], [0.22024019062519073, -0.4550900459289551, 0.7322908639907837, 0.13135263323783875, 0.4645961821079254, 0.47414305806159973], [-0.5772994756698608, -0.20391252636909485, -0.05273779481649399, -0.1677735298871994, 0.2514292895793915, 0.03222094476222992], [-0.16761177778244019, -0.34915855526924133, 0.2397618293762207, 0.13311736285686493, 0.5235355496406555, 0.059237830340862274], [-0.1356566995382309, 0.22988754510879517, -0.2629815936088562, -1.015005111694336, -0.5021435022354126, 0.866734504699707], [0.10602636635303497, 0.0002561543951742351, -0.33836376667022705, -0.22408896684646606, -0.08494285494089127, 0.42817869782447815], [-0.547738254070282, -0.656901478767395, -0.2519930601119995, 0.20596271753311157, 0.4341457188129425, 0.47296082973480225], [-0.40116843581199646, -0.6870112419128418, -0.3303406238555908, -0.618557870388031, -0.6478540897369385, 0.46672388911247253], [-0.599885106086731, -0.41796278953552246, -1.7689300775527954, 0.3891540467739105, -0.27498313784599304, -0.061257582157850266], [0.05680936947464943, 0.2230411022901535, 0.37865540385246277, 0.03922922536730766, -0.7624977231025696, -0.20102041959762573], [-0.23380962014198303, -1.1554523706436157, -0.505534827709198, -0.05268942937254906, -0.5072197318077087, 0.9490048885345459]], "lstm.bias_ih_l0": [0.1836213618516922, -0.10481229424476624, -0.04602357745170593, 0.7526553273200989, -0.15457627177238464, 0.9104610085487366, 0.013746296055614948, 0.6645323038101196, 0.8553822636604309, -0.07782057672739029, 0.7496674656867981, -0.07483024150133133, -0.2944349944591522, -0.37499719858169556, -0.3621116578578949, 0.025066440925002098, -0.27468517422676086, -0.24493113160133362, -0.1367102861404419, 0.22545139491558075, 0.06359431147575378, 0.7305309176445007, -0.20224317908287048, 0.2876244783401489], "lstm.bias_hh_l0": [-0.19618521630764008, 0.41844090819358826, -0.127086341381073, 0.7867993116378784, -0.7070030570030212, 0.6617302298545837, 0.4820888340473175, 0.5298654437065125, 0.322128564119339, 0.1620960235595703, 0.42417123913764954, -0.39861270785331726, -0.2758536636829376, -0.3718705177307129, 0.05573723837733269, -0.23617470264434814, 0.04029494896531105, 0.21402843296527863, -0.3042292892932892, 0.6283283233642578, 0.3405914604663849, 0.6086814999580383, 0.08607108145952225, -0.2489612102508545], "dense.weight": [[0.3120403289794922, -0.19223745167255402, 0.11029238998889923, 0.007580498233437538, -0.2146657407283783, 0.9410917162895203]], "dense.bias": [-0.113795705139637]}