{"lstm.weight_ih_l0": [[-0.007010078988969326, -0.00585925905033946, -0.0046151853166520596, -0.0033160881139338017, -0.0018952738028019667, -0.00041485833935439587, 0.0011680260067805648, 0.002916706493124366, 0.00484706973657012, 0.006962619721889496, 0.009276490658521652, 0.011698364280164242, 0.014126140624284744, 0.016474727541208267, 0.018660694360733032, 0.020711509510874748], [-0.0032372502610087395, -0.003401808673515916, -0.0035495092160999775, -0.0036770536098629236, -0.0037760790437459946, -0.003845623694360256, -0.0038819899782538414, -0.0038856982719153166, -0.0038598324172198772, -0.0038061661180108786, -0.003731426550075412, -0.003640518058091402, -0.0035351186525076628, -0.003419897286221385, -0.0032934541814029217, -0.0031591455917805433], [-0.01998382806777954, -0.0198556799441576, -0.01929381862282753, -0.018334554508328438, -0.01706906408071518, -0.01558703649789095, -0.013913602568209171, -0.012039137072861195, -0.009928744286298752, -0.007609118241816759, -0.005049435887485743, -0.0022344551980495453, 0.0007674056105315685, 0.003826563712209463, 0.0067472695372998714, 0.009329433552920818], [0.04374849423766136, 0.03853990137577057, 0.03459247201681137, 0.03224589675664902, 0.03171616792678833, 0.032981548458337784, 0.035876814275979996, 0.04003371670842171, 0.04498278349637985, 0.05008630454540253, 0.05471419170498848, 0.058247070759534836, 0.06021726876497269, 0.060254212468862534, 0.05826893821358681, 0.05454419553279877], [-0.004526049364358187, -0.005193622782826424, -0.005914537701755762, -0.006645729765295982, -0.007392337080091238, -0.008144590072333813, -0.008883887901902199, -0.009584741666913033, -0.01017187349498272, -0.010558081790804863, -0.010667822323739529, -0.010410359129309654, -0.00975051149725914, -0.00868128426373005, -0.007216351106762886, -0.005480520892888308], [-0.032376088201999664, -0.034750796854496, -0.03664126247167587, -0.03799578920006752, -0.038780659437179565, -0.03904280439019203, -0.03887612372636795, -0.038356080651283264, -0.03763686120510101, -0.03685630112886429, -0.03615213558077812, -0.03564288094639778, -0.03544915094971657, -0.03568238392472267, -0.03637225925922394, -0.03749607130885124], [0.008032538928091526, 0.009725715965032578, 0.011391544714570045, 0.012972493655979633, 0.014382440596818924, 0.015561413951218128, 0.016277678310871124, 0.016438832506537437, 0.01585339568555355, 0.014373930171132088, 0.011957395821809769, 0.00861439760774374, 0.004334088880568743, -0.0007017776370048523, -0.006306878291070461, -0.012228133156895638], [-0.002872276585549116, 0.0015944059705361724, 0.005409178789705038, 0.008656993508338928, 0.010920761153101921, 0.012324202805757523, 0.01300295814871788, 0.012885158881545067, 0.012596014887094498, 0.012425553984940052, 0.012307758443057537, 0.012386877089738846, 0.012517972849309444, 0.012353048659861088, 0.012152585200965405, 0.011609828099608421], [-0.004609043709933758, -0.005438878666609526, -0.0060963998548686504, -0.006482583470642567, -0.006582479923963547, -0.006377494893968105, -0.005896400194615126, -0.005231910385191441, -0.004462479613721371, -0.0036239149048924446, -0.002835390390828252, -0.0021159639582037926, -0.0014872504398226738, -0.0010282103903591633, -0.0006986387888900936, -0.0005476885125972331], [-1.9889557734131813e-05, -0.00012713929754681885, -0.0002115669776685536, -0.0002735379384830594, -0.0003146084491163492, -0.0003413500380702317, -0.0003517374861985445, -0.0003511151298880577, -0.00034000491723418236, -0.0003254754119552672, -0.0003110611578449607, -0.0002979967393912375, -0.0002899917308241129, -0.00029066496063023806, -0.0002977301483042538, -0.00030759285436943173], [-0.0004495273169595748, -0.0004868563555646688, -0.0005014864727854729, -0.0004918868653476238, -0.0004539410874713212, -0.0003898952854797244, -0.0003096879518125206, -0.0002176523848902434, -0.00012672581942752004, -4.896611790172756e-05, 3.861314326059073e-06, 1.8592036212794483e-05, -1.1206284398213029e-05, -9.385051089338958e-05, -0.00023245777992997319, -0.000419234944274649], [0.0018039047718048096, -0.0014883537078276277, -0.004627695772796869, -0.007302031386643648, -0.009317773394286633, -0.010594494640827179, -0.010962423868477345, -0.010493830777704716, -0.009144232608377934, -0.006988248787820339, -0.0042188712395727634, -0.0009347406448796391, 0.0026752203702926636, 0.0064582196064293385, 0.010409708134829998, 0.014399507082998753], [-0.009567778557538986, -0.010492095723748207, -0.01144707202911377, -0.012339361011981964, -0.013062572106719017, -0.013593774288892746, -0.013928743079304695, -0.014063592068850994, -0.014014155603945255, -0.013772639445960522, -0.013323720544576645, -0.01266313623636961, -0.011801683343946934, -0.010757275857031345, -0.009551776573061943, -0.008220863528549671], [0.013458500616252422, 0.011608992703258991, 0.009664744138717651, 0.00766570121049881, 0.00563519261777401, 0.0036795735359191895, 0.0019007916562259197, 0.000253842183155939, -0.0011498022358864546, -0.002245653420686722, -0.0032193518709391356, -0.004087215289473534, -0.004822639282792807, -0.005591686349362135, -0.006457408890128136, -0.007606166880577803], [-0.05684473738074303, -0.055374640971422195, -0.05401793494820595, -0.0527612641453743, -0.05164288729429245, -0.05062837526202202, -0.0497114323079586, -0.04887458682060242, -0.048121578991413116, -0.04738440737128258, -0.04652347415685654, -0.04544510692358017, -0.044016990810632706, -0.04221167787909508, -0.04006534069776535, -0.037659578025341034], [0.0008215811103582382, 0.000925451866351068, 0.001100001041777432, 0.0013336928095668554, 0.0016024843789637089, 0.0018896219553425908, 0.002173330867663026, 0.002416116651147604, 0.0026011017616838217, 0.0027122176252305508, 0.002737897215411067, 0.002674275543540716, 0.0025236746296286583, 0.0023023546673357487, 0.002020824234932661, 0.0016899493057280779], [-0.0009389189071953297, -0.0008734501898288727, -0.0008063616696745157, -0.0007388417143374681, -0.0006726231658831239, -0.0006090840324759483, -0.0005482136039063334, -0.0004912058357149363, -0.00043897179421037436, -0.0003919508890248835, -0.0003504374180920422, -0.0003170174895785749, -0.000292016047751531, -0.00027543582837097347, -0.00026526045985519886, -0.00026079744566231966], [-0.03144480660557747, -0.032307811081409454, -0.03281788527965546, -0.03293514624238014, -0.03261874243617058, -0.0318853035569191, -0.030781114473938942, -0.0293552465736866, -0.027687331661581993, -0.025850409641861916, -0.023994505405426025, -0.022169096395373344, -0.020470580086112022, -0.01894410513341427, -0.01764398068189621, -0.01660248450934887], [-0.1732962429523468, -0.12620598077774048, -0.08344651013612747, -0.048337940126657486, -0.023193690925836563, -0.009172354824841022, -0.005691313650459051, -0.010935256257653236, -0.022106468677520752, -0.036868877708911896, -0.05276060476899147, -0.06779563426971436, -0.08067198842763901, -0.09098129719495773, -0.0988142341375351, -0.10512688010931015], [-0.04944015294313431, -0.045380041003227234, -0.04183483123779297, -0.03932755067944527, -0.03829117491841316, -0.03900602087378502, -0.041467081755399704, -0.04550165683031082, -0.05057971552014351, -0.056239835917949677, -0.062034524977207184, -0.06751735508441925, -0.07226519286632538, -0.07597821950912476, -0.07835488766431808, -0.07924248278141022], [-0.0023251359816640615, -0.00250824261456728, -0.002724071266129613, -0.002951778471469879, -0.003176889382302761, -0.003377435728907585, -0.003532450646162033, -0.003627541707828641, -0.0036596874706447124, -0.0036209318786859512, -0.0035113280173391104, -0.003334497567266226, -0.0031066234223544598, -0.0028402565512806177, -0.0025410049129277468, -0.0022307350300252438], [-0.0007614967180415988, -0.0008172738016583025, -0.0008664837805554271, -0.0009109621751122177, -0.0009535849094390869, -0.0009968805825337768, -0.0010402679909020662, -0.0010851154802367091, -0.0011306741507723927, -0.0011726871598511934, -0.0012106222566217184, -0.0012410810450091958, -0.0012605794472619891, -0.001269178232178092, -0.0012652329169213772, -0.0012507757637649775], [0.03383321687579155, 0.03453431650996208, 0.035145122557878494, 0.03575053811073303, 0.03628913313150406, 0.03669371455907822, 0.03693084418773651, 0.03689663112163544, 0.03669010475277901, 0.03654416278004646, 0.03667649254202843, 0.03739707171916962, 0.03905148431658745, 0.04188273474574089, 0.04601408541202545, 0.051419854164123535], [-0.0009899944998323917, -0.0010549334110692143, -0.001131122000515461, -0.0012080776505172253, -0.001279486808925867, -0.0013383423211053014, -0.0013789922231808305, -0.0013923192163929343, -0.0013796446146443486, -0.0013404714409261942, -0.0012779224198311567, -0.00119611038826406, -0.001100448309443891, -0.000997118535451591, -0.0008816818008199334, -0.0007670049089938402], [-0.02594577707350254, -0.03164101392030716, -0.03743062913417816, -0.043347958475351334, -0.04947702959179878, -0.055733706802129745, -0.06200176477432251, -0.06813864409923553, -0.0739259123802185, -0.07923787832260132, -0.0839921310544014, -0.0881810113787651, -0.091608926653862, -0.09435098618268967, -0.09636019170284271, -0.09761512279510498], [0.30588874220848083, 0.3083549737930298, 0.3072067201137543, 0.3027862012386322, 0.2956116199493408, 0.28624963760375977, 0.2752607762813568, 0.26317277550697327, 0.2502801716327667, 0.2370910942554474, 0.2241644561290741, 0.21185621619224548, 0.20078560709953308, 0.19139453768730164, 0.1840042918920517, 0.1789710819721222], [-0.02034229412674904, -0.02454281412065029, -0.02739933878183365, -0.02865341119468212, -0.028300853446125984, -0.02648649737238884, -0.02350005693733692, -0.020092440769076347, -0.016683394089341164, -0.013623209670186043, -0.011147471144795418, -0.00928656104952097, -0.007881231606006622, -0.006900602951645851, -0.0063066305592656136, -0.005980012938380241], [-0.026739735156297684, -0.020223181694746017, -0.011348622851073742, -0.001043023425154388, 0.009823150932788849, 0.02039836160838604, 0.030015459284186363, 0.03810245543718338, 0.04433419555425644, 0.04855728521943092, 0.05081736296415329, 0.05120926722884178, 0.050082143396139145, 0.04768345132470131, 0.04433280602097511, 0.040496960282325745], [-0.0038658713456243277, -0.0037852770183235407, -0.003728979267179966, -0.003696054220199585, -0.003685798030346632, -0.0036955364048480988, -0.003720252774655819, -0.0037466592621058226, -0.0037627958226948977, -0.003752599935978651, -0.0037011143285781145, -0.003594282316043973, -0.003423107322305441, -0.003184911562129855, -0.002885911613702774, -0.0025431481190025806], [0.008136006072163582, 0.006891130935400724, 0.006081725936383009, 0.005853006616234779, 0.006074925418943167, 0.006504678633064032, 0.0072384546510875225, 0.008103711530566216, 0.009155716747045517, 0.010427774861454964, 0.011872378177940845, 0.01341310702264309, 0.015099562704563141, 0.01693163998425007, 0.019080935046076775, 0.021436702460050583], [0.04264967516064644, 0.044359464198350906, 0.04590095952153206, 0.047260649502277374, 0.04835915192961693, 0.04931844770908356, 0.05006561428308487, 0.05079777166247368, 0.051454294472932816, 0.05201462656259537, 0.05250362679362297, 0.05294729769229889, 0.05337683856487274, 0.05385659262537956, 0.05433156341314316, 0.054859429597854614], [-0.01824687421321869, -0.020285503938794136, -0.0223587267100811, -0.024370599538087845, -0.026183512061834335, -0.027678513899445534, -0.028759468346834183, -0.02936565689742565, -0.029523104429244995, -0.02933550253510475, -0.02890520542860031, -0.028452979400753975, -0.02814650721848011, -0.028171084821224213, -0.02871360443532467, -0.029780827462673187], [-0.011421267874538898, -0.01554766297340393, -0.01920425333082676, -0.02170603722333908, -0.02269338071346283, -0.021766422316432, -0.018881339579820633, -0.01454247534275055, -0.008988861925899982, -0.002590744523331523, 0.0042945751920342445, 0.011467876844108105, 0.018820419907569885, 0.026144666597247124, 0.03330092132091522, 0.040141887962818146], [0.0677943155169487, 0.06883535534143448, 0.06982510536909103, 0.07050739973783493, 0.07081075757741928, 0.0707189291715622, 0.070302315056324, 0.06959868222475052, 0.0687740221619606, 0.06793861091136932, 0.06712420284748077, 0.0663313940167427, 0.06555621325969696, 0.06469140946865082, 0.06358229368925095, 0.062104590237140656], [-0.02713191881775856, -0.02359815686941147, -0.019578145816922188, -0.015023717656731606, -0.00995551235973835, -0.004433406516909599, 0.0014193819370120764, 0.007379705552011728, 0.013132872059941292, 0.01843867264688015, 0.023043708875775337, 0.026813535019755363, 0.0296319592744112, 0.03144774213433266, 0.032322801649570465, 0.03236713632941246], [-0.008758357726037502, -0.011225717142224312, -0.013440823182463646, -0.015208677388727665, -0.016403961926698685, -0.016909277066588402, -0.01670231856405735, -0.015809159725904465, -0.01435956358909607, -0.012509520165622234, -0.010456453077495098, -0.008478868752717972, -0.006708769127726555, -0.005253770854324102, -0.004189928062260151, -0.0035065298434346914], [-0.050267770886421204, -0.0500396303832531, -0.050120532512664795, -0.050420135259628296, -0.050861746072769165, -0.051361266523599625, -0.05180748179554939, -0.052104197442531586, -0.05220670998096466, -0.05217571184039116, -0.05210462957620621, -0.052049070596694946, -0.05206240713596344, -0.05218873918056488, -0.05239599570631981, -0.05258134379982948], [-0.01346520334482193, -0.011371192522346973, -0.009812628850340843, -0.00887930765748024, -0.008673718199133873, -0.00901893898844719, -0.009745790623128414, -0.010736891999840736, -0.011815707199275494, -0.012973589822649956, -0.014213419519364834, -0.01571376994252205, -0.01748296245932579, -0.0198090560734272, -0.02292908914387226, -0.027055490761995316], [-0.014822977595031261, -0.014925545081496239, -0.015048030763864517, -0.015204721130430698, -0.015405653975903988, -0.015619982033967972, -0.015836436301469803, -0.01600630395114422, -0.016131389886140823, -0.016239643096923828, -0.016352983191609383, -0.016529863700270653, -0.016815541312098503, -0.017284702509641647, -0.01799841970205307, -0.01897849701344967], [-0.00043723423732444644, -0.00042351949377916753, -0.00041535808122716844, -0.00041332660475745797, -0.00041731144301593304, -0.00042567867785692215, -0.00043581952922977507, -0.0004431577690411359, -0.0004447427054401487, -0.00043653405737131834, -0.0004147342697251588, -0.00037776248063892126, -0.00032555157667957246, -0.00025882761110551655, -0.00018194055883213878, -9.866536129266024e-05], [0.04163346067070961, 0.04138381779193878, 0.040827423334121704, 0.040176279842853546, 0.03957466781139374, 0.039312444627285004, 0.039448369294404984, 0.03996076434850693, 0.04081292077898979, 0.041777096688747406, 0.04248487204313278, 0.04258788004517555, 0.04185900464653969, 0.040116701275110245, 0.03719702735543251, 0.03331718593835831], [-0.0026635027024894953, -0.0026721812319010496, -0.002697698073461652, -0.0027390513569116592, -0.002795038977637887, -0.0028632020112127066, -0.002939739730209112, -0.003020391333848238, -0.0031024652998894453, -0.003181799314916134, -0.0032549803145229816, -0.0033227535896003246, -0.0033860972616821527, -0.0034454399719834328, -0.0035042280796915293, -0.003563118865713477], [-0.009617268107831478, -0.011809009127318859, -0.015006053261458874, -0.019327698275446892, -0.024487636983394623, -0.030250659212470055, -0.03592431917786598, -0.040891148149967194, -0.04441548511385918, -0.04587629809975624, -0.04500604420900345, -0.04236321523785591, -0.03859909251332283, -0.034975357353687286, -0.032499443739652634, -0.03165950998663902], [-0.003286801977083087, -0.003929246682673693, -0.004562687128782272, -0.005105521995574236, -0.00548388808965683, -0.005680797155946493, -0.005704241339117289, -0.005574232432991266, -0.005331332795321941, -0.005013347137719393, -0.004652330651879311, -0.004273455124348402, -0.0038885821122676134, -0.003504414577037096, -0.003101825714111328, -0.0026678654830902815], [-0.004249116871505976, -0.007627860642969608, -0.01066126860678196, -0.013108080253005028, -0.014736911281943321, -0.015653489157557487, -0.0159309059381485, -0.015678180381655693, -0.015051722526550293, -0.014190679416060448, -0.013216681778430939, -0.012231919914484024, -0.011451967991888523, -0.010947581380605698, -0.010601108893752098, -0.010351070202887058], [-0.005675193388015032, -0.0070639136247336864, -0.00858005229383707, -0.01017443835735321, -0.011780468747019768, -0.013330229558050632, -0.014782820828258991, -0.016084259375929832, -0.017230171710252762, -0.018263086676597595, -0.01919613964855671, -0.020093124359846115, -0.02097162790596485, -0.021869545802474022, -0.022837895900011063, -0.023872774094343185], [-0.0390094593167305, -0.038025446236133575, -0.03717482089996338, -0.036356955766677856, -0.03559020534157753, -0.03470179811120033, -0.03354162722826004, -0.03224654123187065, -0.03068089485168457, -0.028747957199811935, -0.026421988382935524, -0.02376033179461956, -0.02069055661559105, -0.01730303093791008, -0.013671976514160633, -0.009865494444966316], [-0.0343235582113266, -0.032824914902448654, -0.030973896384239197, -0.028926614671945572, -0.026758519932627678, -0.02462778426706791, -0.022654177621006966, -0.02082037180662155, -0.019174722954630852, -0.01773936115205288, -0.01641758903861046, -0.015245404094457626, -0.014227180741727352, -0.013277282938361168, -0.012408350594341755, -0.011524828150868416], [0.002740990137681365, 0.002868164563551545, 0.002775476546958089, 0.00250617996789515, 0.0020142344292253256, 0.0015048907371237874, 0.0009353631758131087, 0.00035077647771686316, -0.0002715512237045914, -0.0008733119466342032, -0.0014690954703837633, -0.0019346433691680431, -0.00219923653639853, -0.002317215548828244, -0.002271174918860197, -0.00216540414839983], [-0.0033411961048841476, -0.004494651686400175, -0.005700509995222092, -0.006840147078037262, -0.007793073542416096, -0.008521378971636295, -0.008977895602583885, -0.009161587804555893, -0.009077372960746288, -0.008717421442270279, -0.008131473325192928, -0.0073625752702355385, -0.006471807137131691, -0.005535299424082041, -0.004592179320752621, -0.003680909750983119], [-0.032012470066547394, -0.033085957169532776, -0.0338180810213089, -0.03391478583216667, -0.033298395574092865, -0.03186812624335289, -0.029593711718916893, -0.026689967140555382, -0.023145606741309166, -0.019042719155550003, -0.014493775554001331, -0.009517314843833447, -0.004052315838634968, 0.001899604918435216, 0.008286687545478344, 0.014963551424443722], [-0.016935689374804497, -0.016308901831507683, -0.015749506652355194, -0.01530467439442873, -0.014986341819167137, -0.014786137267947197, -0.014679018408060074, -0.01460985466837883, -0.014538480900228024, -0.014424283988773823, -0.014197256416082382, -0.013827675022184849, -0.013306623324751854, -0.012646354734897614, -0.011929871514439583, -0.011222867295145988], [-0.0020275062415748835, -0.0019361970480531454, -0.0017938727978616953, -0.0016076542669907212, -0.0013915414456278086, -0.0011632315581664443, -0.00093915278557688, -0.0007374939741566777, -0.0005694867577403784, -0.0004457525792531669, -0.00037040672032162547, -0.00034277664963155985, -0.00036145796184428036, -0.0004205749137327075, -0.0005132089136168361, -0.0006311256438493729], [0.051529448479413986, 0.043419644236564636, 0.03604552149772644, 0.029627256095409393, 0.024438446387648582, 0.020581599324941635, 0.017993509769439697, 0.01648964174091816, 0.01582011952996254, 0.015836015343666077, 0.016339289024472237, 0.017123723402619362, 0.01801707036793232, 0.01881481148302555, 0.01932951807975769, 0.019528809934854507], [-0.0075306398794054985, -0.007026247214525938, -0.006539813708513975, -0.006123555824160576, -0.005806930363178253, -0.005589029751718044, -0.005483489949256182, -0.005455376580357552, -0.005500488448888063, -0.005580541677772999, -0.005656872410327196, -0.005701370537281036, -0.005692186765372753, -0.005619848612695932, -0.005492136348038912, -0.0053053065203130245], [0.0018192989518865943, 0.0018127969233319163, 0.0017889515729621053, 0.001755004865117371, 0.001717638224363327, 0.001680882414802909, 0.0016457443125545979, 0.0016124756075441837, 0.0015808676835149527, 0.001550429966300726, 0.00152390927542001, 0.0015063276514410973, 0.0015043016755953431, 0.001521503902040422, 0.0015589010436087847, 0.0016133129829540849], [0.031718991696834564, 0.024764185771346092, 0.018255535513162613, 0.012165308929979801, 0.006315940525382757, 0.0004905336536467075, -0.005484791938215494, -0.011790846474468708, -0.01851421594619751, -0.02552204765379429, -0.032557275146245956, -0.039187949150800705, -0.04503549262881279, -0.049832556396722794, -0.05347660928964615, -0.0561116598546505], [0.0009138464229181409, -0.0011324029183015227, -0.00358499214053154, -0.006545702461153269, -0.009955096989870071, -0.013546413742005825, -0.01711825281381607, -0.0203122366219759, -0.02299840934574604, -0.025094226002693176, -0.02654249034821987, -0.027513058856129646, -0.028107888996601105, -0.028563756495714188, -0.029173068702220917, -0.030122799798846245], [3.566507075447589e-06, 1.0124287655344233e-05, 1.7265414498979226e-05, 2.304335794178769e-05, 2.5412342438357882e-05, 2.3182197764981538e-05, 1.650110789341852e-05, 8.504368452122435e-06, 4.526955308392644e-07, -3.530640242388472e-06, -2.076012606266886e-07, 1.3957887858850881e-05, 4.005420851171948e-05, 7.676678069401532e-05, 0.00011876739881699905, 0.00016355708066839725], [-0.027290569618344307, -0.02626040019094944, -0.024870149791240692, -0.02323632314801216, -0.02161470241844654, -0.020272279158234596, -0.019467514008283615, -0.01951034553349018, -0.020458146929740906, -0.022308457642793655, -0.025075826793909073, -0.028566524386405945, -0.03253225237131119, -0.03678969293832779, -0.04103217273950577, -0.04502512514591217], [-0.016932539641857147, -0.017497491091489792, -0.0180576853454113, -0.018587682396173477, -0.019111109897494316, -0.01967323012650013, -0.02014860138297081, -0.020541097968816757, -0.020785819739103317, -0.02084808610379696, -0.020783597603440285, -0.020642874762415886, -0.020476773381233215, -0.020388305187225342, -0.02038387767970562, -0.020524239167571068], [-0.0010124740656465292, -0.0005340542993508279, -9.05666674952954e-05, 0.0002446949074510485, 0.0003677044587675482, 0.00028747355099767447, -6.863009184598923e-05, -0.000695690861903131, -0.0015817289240658283, -0.002685713581740856, -0.003873841604217887, -0.005106339231133461, -0.006265474017709494, -0.007300366181880236, -0.008127276785671711, -0.008756624534726143], [0.002556850668042898, 0.0026336561422795057, 0.0027128150686621666, 0.002795990789309144, 0.002828571479767561, 0.002922873478382826, 0.0030689858831465244, 0.0032468789722770452, 0.003457840997725725, 0.0036709411069750786, 0.0038658236153423786, 0.004055733326822519, 0.004245284479111433, 0.004437656607478857, 0.004647728055715561, 0.004812120925635099], [0.005399562884122133, 0.00561450095847249, 0.00556497136130929, 0.005278465338051319, 0.004760050680488348, 0.004151609726250172, 0.003466324880719185, 0.002780443523079157, 0.002151232212781906, 0.0015899734571576118, 0.0011359243653714657, 0.0008026260184124112, 0.0005851920577697456, 0.0004971239250153303, 0.0004701863508671522, 0.0004529394209384918], [0.03348299115896225, 0.03634905815124512, 0.03916433826088905, 0.04178020358085632, 0.04415867477655411, 0.046157266944646835, 0.04766101762652397, 0.048693615943193436, 0.04926928132772446, 0.04947081580758095, 0.049471210688352585, 0.04930293932557106, 0.049032025039196014, 0.04853207245469093, 0.04768150672316551, 0.046527065336704254], [-0.0015987802762538195, -0.0014708644011989236, -0.0013230090262368321, -0.0011584290768951178, -0.0009774357313290238, -0.0007883016369305551, -0.0005970125203020871, -0.00040732271736487746, -0.00022379247820936143, -5.064862489234656e-05, 0.00011024498235201463, 0.00025952685973607004, 0.0003960010362789035, 0.0005216958816163242, 0.0006414115196093917, 0.0007570479065179825], [0.035192351788282394, 0.04750676080584526, 0.05668945610523224, 0.06297223269939423, 0.06645045429468155, 0.06739546358585358, 0.06590882688760757, 0.06173087656497955, 0.055331792682409286, 0.046634092926979065, 0.03580113872885704, 0.023044507950544357, 0.009095428511500359, -0.0055737579241395, -0.02033153548836708, -0.034344568848609924], [-0.03217345103621483, -0.036490004509687424, -0.04037809371948242, -0.043711137026548386, -0.04642567038536072, -0.048590246587991714, -0.05032341554760933, -0.05177338048815727, -0.05312236398458481, -0.0546102449297905, -0.05641881749033928, -0.05869056656956673, -0.06145663931965828, -0.06474648416042328, -0.06850355118513107, -0.07252191752195358], [-0.0026394249871373177, -0.0032156140077859163, -0.003816005075350404, -0.004396534524857998, -0.004948520101606846, -0.005466438829898834, -0.005930908489972353, -0.006336995400488377, -0.006642212625592947, -0.006793845444917679, -0.006757111754268408, -0.006478842813521624, -0.005945781711488962, -0.0051571582444012165, -0.004122618585824966, -0.002926702843979001], [-0.036870431154966354, -0.03594769537448883, -0.03473008796572685, -0.0332910381257534, -0.03166598826646805, -0.0299348346889019, -0.028165902942419052, -0.026381799951195717, -0.02461741864681244, -0.022908439859747887, -0.021312613040208817, -0.019894178956747055, -0.018765835091471672, -0.018015148118138313, -0.01769053190946579, -0.01780109480023384], [-0.03306986391544342, -0.034806009382009506, -0.03573661297559738, -0.03589256480336189, -0.03528335690498352, -0.033840104937553406, -0.031563229858875275, -0.02848297916352749, -0.02452583983540535, -0.019760016351938248, -0.014220207929611206, -0.007972564548254013, -0.0012148707173764706, 0.0059366351924836636, 0.013224491849541664, 0.020446352660655975], [0.1190551295876503, 0.1205068975687027, 0.12196469306945801, 0.12351372092962265, 0.12526020407676697, 0.12723034620285034, 0.1292937695980072, 0.13136355578899384, 0.13336168229579926, 0.13524028658866882, 0.13676367700099945, 0.13786208629608154, 0.13854439556598663, 0.13860288262367249, 0.137826070189476, 0.13622961938381195], [-0.0075070615857839584, -0.00802798755466938, -0.00867807399481535, -0.009416117332875729, -0.010172517970204353, -0.010938488878309727, -0.011636112816631794, -0.01224691141396761, -0.012751203030347824, -0.013079912401735783, -0.013295652344822884, -0.013364873826503754, -0.013256259262561798, -0.01303882710635662, -0.0127251660451293, -0.012362322770059109], [0.0020816789474338293, 0.0020415179897099733, 0.001964692724868655, 0.0018549112137407064, 0.0017239602748304605, 0.0015751456376165152, 0.0014169039204716682, 0.0012568319216370583, 0.0011026689317077398, 0.0009641842334531248, 0.0008466225117444992, 0.000756989058572799, 0.0006988800596445799, 0.0006744625279679894, 0.0006784763536415994, 0.00070572504773736], [-0.0008412572788074613, -0.0008935743244364858, -0.0009236590703949332, -0.0009309521410614252, -0.0009165633819065988, -0.0008868343429639935, -0.0008502512937411666, -0.0008100582053884864, -0.0007753620739094913, -0.0007550155860371888, -0.0007590961758978665, -0.0007969747530296445, -0.0008761751232668757, -0.000999968615360558, -0.0011704216012731194, -0.001378450426273048], [-0.04509461671113968, -0.03226644545793533, -0.018552450463175774, -0.004651528317481279, 0.008678159676492214, 0.020611120387911797, 0.03049659915268421, 0.03773711249232292, 0.04218747466802597, 0.04405083879828453, 0.04348893091082573, 0.04102415591478348, 0.037181224673986435, 0.03244014084339142, 0.02749248780310154, 0.022791702300310135], [-5.671230610460043e-05, -0.0006680779624730349, -0.0013450630940496922, -0.002029488096013665, -0.002656488213688135, -0.003166406648233533, -0.003568493528291583, -0.0038452106527984142, -0.004011061973869801, -0.00406609196215868, -0.003979981876909733, -0.003739851526916027, -0.0033455886878073215, -0.0027861890848726034, -0.00206789025105536, -0.0012243262026458979], [-0.031815189868211746, -0.03186080604791641, -0.03206042945384979, -0.032354094088077545, -0.032543204724788666, -0.03274456784129143, -0.032830920070409775, -0.032783038914203644, -0.032538823783397675, -0.032074298709630966, -0.03157680854201317, -0.031070159748196602, -0.030504651367664337, -0.02998523786664009, -0.029589790850877762, -0.029377222061157227], [-0.02057577855885029, -0.01920616254210472, -0.018008818849921227, -0.017095770686864853, -0.016561338678002357, -0.016411500051617622, -0.0166242066770792, -0.017066728323698044, -0.01763477735221386, -0.018219206482172012, -0.01868610642850399, -0.019003354012966156, -0.019100910052657127, -0.019017495214939117, -0.018852293491363525, -0.018694577738642693], [0.0037060086615383625, 0.0035255553666502237, 0.003297656774520874, 0.003039651783183217, 0.0027654748409986496, 0.0024938140995800495, 0.002241679932922125, 0.0020281581673771143, 0.0018659409834071994, 0.001763861975632608, 0.0017211679369211197, 0.00173325021751225, 0.001785211730748415, 0.0018654700834304094, 0.001953918021172285, 0.0020321826450526714], [-0.00046985354856587946, -0.00040828302735462785, -0.00034912998671643436, -0.0002932160859927535, -0.00024057025439105928, -0.00018941849702969193, -0.000138309522299096, -8.667755901115015e-05, -3.468706563580781e-05, 1.8636801542015746e-05, 7.311465742532164e-05, 0.00012601302296388894, 0.00018123035260941833, 0.0002357461053179577, 0.0002888627350330353, 0.0003374370571691543], [-0.026733461767435074, -0.02635212428867817, -0.026037421077489853, -0.02577768638730049, -0.025541391223669052, -0.0253444816917181, -0.025169124826788902, -0.025011906400322914, -0.02486303821206093, -0.02471539005637169, -0.02461165003478527, -0.02455306239426136, -0.024558156728744507, -0.024643035605549812, -0.024810155853629112, -0.025073571130633354], [0.050557736307382584, 0.05745209753513336, 0.06534551829099655, 0.07382657378911972, 0.08239135891199112, 0.09052170813083649, 0.0976753681898117, 0.10343597829341888, 0.1075255274772644, 0.10991986840963364, 0.11089275777339935, 0.11066646873950958, 0.10982920974493027, 0.1087806299328804, 0.10772513598203659, 0.10668835043907166], [-0.03146953508257866, -0.03266888111829758, -0.0328342504799366, -0.03190251812338829, -0.029751917347311974, -0.02651705965399742, -0.02235478349030018, -0.017456091940402985, -0.012164794839918613, -0.006643292959779501, -0.0010837282752618194, 0.004306944087147713, 0.009487442672252655, 0.014371221885085106, 0.018978144973516464, 0.023420963436365128], [-0.0026678366120904684, -0.0026911203749477863, -0.0027163440827280283, -0.002741508884355426, -0.002764737466350198, -0.002783651929348707, -0.002795233391225338, -0.0027953004464507103, -0.002787230769172311, -0.002766903955489397, -0.0027355465572327375, -0.0026935620699077845, -0.0026396429166197777, -0.002571510849520564, -0.0024834536015987396, -0.002378313336521387], [-0.0005963103612884879, -0.0005936039960943162, -0.000588377530220896, -0.0005815341137349606, -0.000572606164496392, -0.0005627117352560163, -0.0005520280683413148, -0.000539067666977644, -0.0005240846076048911, -0.0005050740437582135, -0.00048298644833266735, -0.00045813119504600763, -0.0004287557094357908, -0.00039656987064518034, -0.00036254606675356627, -0.0003274237096775323], [0.02449283003807068, 0.02541801705956459, 0.026135703548789024, 0.02675543911755085, 0.027259793132543564, 0.027534281834959984, 0.027561407536268234, 0.02724667452275753, 0.026602737605571747, 0.025822794064879417, 0.025101281702518463, 0.024745212867856026, 0.02507654018700123, 0.026332594454288483, 0.028723325580358505, 0.032221220433712006], [-0.0020765552762895823, -0.0020414944738149643, -0.001997151644900441, -0.001942208269611001, -0.001871389918960631, -0.0017847298877313733, -0.0016783119644969702, -0.001548466389067471, -0.0014052896294742823, -0.0012534562265500426, -0.0011023739352822304, -0.0009535040007904172, -0.0008110063499771059, -0.0006821049028076231, -0.0005670069949701428, -0.0004658280813600868], [-0.03196531906723976, -0.0312805101275444, -0.030401427298784256, -0.029226504266262054, -0.027655605226755142, -0.025763802230358124, -0.02353827841579914, -0.021028390154242516, -0.018371371552348137, -0.015582995489239693, -0.012749509885907173, -0.010025287978351116, -0.007401079870760441, -0.004981876350939274, -0.0027387565933167934, -0.0006343494751490653], [0.02580864541232586, 0.02662009745836258, 0.026953887194395065, 0.027076777070760727, 0.026948509737849236, 0.02689989283680916, 0.026811961084604263, 0.026802271604537964, 0.026897529140114784, 0.02717732824385166, 0.027531489729881287, 0.027834543958306313, 0.027988597750663757, 0.02809484861791134, 0.02829328365623951, 0.02861582115292549], [0.0014795330353081226, 0.003118123160675168, 0.004183266311883926, 0.004712334834039211, 0.004658819641917944, 0.003911278676241636, 0.0025023617781698704, 0.000529176089912653, -0.001827045576646924, -0.004293534439057112, -0.00664400914683938, -0.00860675796866417, -0.009929951280355453, -0.01045935321599245, -0.010105767287313938, -0.008920730091631413], [-0.0076920632272958755, -0.011571837589144707, -0.01488890964537859, -0.01733306422829628, -0.018629012629389763, -0.018728729337453842, -0.017738457769155502, -0.015848683193325996, -0.013409273698925972, -0.010880803689360619, -0.008583997376263142, -0.006879440974444151, -0.005945741198956966, -0.005879146512597799, -0.006649252492934465, -0.007943373173475266], [-0.0003235844778828323, -0.0003770292969420552, -0.00047237006947398186, -0.0005930191255174577, -0.0007241839775815606, -0.0008510893676429987, -0.0009608191903680563, -0.0010391465621069074, -0.0010766152990981936, -0.0010622617555782199, -0.0009914117399603128, -0.0008566502365283668, -0.000657525029964745, -0.0003888252249453217, -5.651928950101137e-05, 0.00031895004212856293], [-0.011888527311384678, -0.012539881281554699, -0.01264533307403326, -0.01220151036977768, -0.011141650378704071, -0.009671633131802082, -0.007969879545271397, -0.006101291161030531, -0.004234553314745426, -0.0023590242490172386, -0.0004921098588965833, 0.0012928455835208297, 0.0030405987054109573, 0.004728488624095917, 0.00637236749753356, 0.008091079071164131], [-0.006845496594905853, -0.005211479030549526, -0.003346838988363743, -0.0013907293323427439, 0.000904048269148916, 0.0034265839494764805, 0.0060803391970694065, 0.009002471342682838, 0.011985225602984428, 0.014936002902686596, 0.01788877137005329, 0.020750459283590317, 0.02339579537510872, 0.025913255289196968, 0.028200039640069008, 0.030343908816576004], [-0.03548112139105797, -0.03624274581670761, -0.036000609397888184, -0.03482474014163017, -0.03283267095685005, -0.0301838256418705, -0.027169667184352875, -0.02403905801475048, -0.021206911653280258, -0.019126668572425842, -0.01816650480031967, -0.018770264461636543, -0.021126847714185715, -0.025394504889845848, -0.03160631284117699, -0.039478566497564316], [0.03776458650827408, 0.03909038007259369, 0.03960992768406868, 0.03917042911052704, 0.037631336599588394, 0.0349540077149868, 0.031194321811199188, 0.026450669392943382, 0.021003490313887596, 0.015120165422558784, 0.009100102819502354, 0.003200989216566086, -0.0022236367221921682, -0.007135484367609024, -0.011508145369589329, -0.01538191270083189], [-0.006008083466440439, -0.00450502522289753, -0.004140301141887903, -0.005220482125878334, -0.00784260593354702, -0.01186300814151764, -0.016935698688030243, -0.022667253389954567, -0.028543803840875626, -0.03402652591466904, -0.03870247304439545, -0.04225798323750496, -0.044511690735816956, -0.04549079015851021, -0.04531790688633919, -0.044227905571460724], [0.02106761746108532, 0.01311637181788683, 0.004354334436357021, -0.0047162300907075405, -0.01361161656677723, -0.021853698417544365, -0.028854643926024437, -0.03390420600771904, -0.03635062277317047, -0.03563889488577843, -0.031378984451293945, -0.023479467257857323, -0.012154096737504005, 0.0018238960765302181, 0.017531218007206917, 0.034041181206703186], [-0.014863105490803719, -0.014892106875777245, -0.014687992632389069, -0.014145095832645893, -0.013173448853194714, -0.011730335652828217, -0.009919076226651669, -0.007790423929691315, -0.005562703590840101, -0.0032687089405953884, -0.000979230273514986, 0.0011618160642683506, 0.0030713065061718225, 0.004591897130012512, 0.005697373300790787, 0.006282292306423187], [-0.015423701144754887, -0.014985965564846992, -0.014205963350832462, -0.01304143201559782, -0.011392556130886078, -0.009265827015042305, -0.00676737679168582, -0.003986022900789976, -0.0011311792768537998, 0.001552558969706297, 0.0038816817104816437, 0.005654481239616871, 0.006711435504257679, 0.0069511462934315205, 0.006350474897772074, 0.005078057758510113], [0.011011290363967419, 0.013513721525669098, 0.015932485461235046, 0.018085381016135216, 0.019926849752664566, 0.02142777480185032, 0.02258244901895523, 0.02348141185939312, 0.024090537801384926, 0.02429613471031189, 0.023978808894753456, 0.022907990962266922, 0.021082323044538498, 0.018328914418816566, 0.014438970945775509, 0.009284854866564274], [-0.016658388078212738, -0.01644199714064598, -0.016213906928896904, -0.015997983515262604, -0.01579906977713108, -0.015610642731189728, -0.015433499589562416, -0.01523875817656517, -0.015034226700663567, -0.014831666834652424, -0.014659296721220016, -0.014555324800312519, -0.014548107050359249, -0.014681808650493622, -0.015000657178461552, -0.015517075546085835], [-0.000143719938932918, -0.0001459588820580393, -0.00015033742238301784, -0.00015675590839236975, -0.00016410350508522242, -0.00017241184832528234, -0.00018191921117249876, -0.0001909805287141353, -0.0002007484872592613, -0.00021133641712367535, -0.00022109497513156384, -0.000229770434089005, -0.0002359902864554897, -0.00023770103871356696, -0.0002348963898839429, -0.0002261393965454772], [-0.01978446915745735, -0.025218943133950233, -0.030298713594675064, -0.034641630947589874, -0.037829071283340454, -0.03972024470567703, -0.04016727954149246, -0.03926600515842438, -0.03727371245622635, -0.0347314216196537, -0.032218292355537415, -0.0302992332726717, -0.029505155980587006, -0.030337071046233177, -0.032935068011283875, -0.03701989725232124], [-0.00031464133644476533, -0.00045103460433892906, -0.0005803085514344275, -0.0006989446701481938, -0.0008065123111009598, -0.000903537031263113, -0.0009917831048369408, -0.0010738144628703594, -0.0011505224974825978, -0.0012217642506584525, -0.0012872078223153949, -0.0013459346955642104, -0.001399414730258286, -0.0014455573400482535, -0.00148242455907166, -0.0015105754137039185], [-0.007602230180054903, -0.006318322848528624, -0.005142025649547577, -0.004221419803798199, -0.0036883295979350805, -0.003472191747277975, -0.003589797532185912, -0.0039187646470963955, -0.00440635159611702, -0.0050026834942400455, -0.005567758344113827, -0.006125112064182758, -0.006478345021605492, -0.006543334573507309, -0.006247979588806629, -0.005617234390228987], [0.0017117040697485209, 0.0012653880985453725, 0.0008183212485164404, 0.00041899768984876573, 0.00010476581519469619, -0.00010907312389463186, -0.0002332839067094028, -0.00028412637766450644, -0.00028473680140450597, -0.0002590142539702356, -0.00021979902521707118, -0.0001711455697659403, -0.00011119854752905667, -2.9045186238363385e-05, 9.990125545300543e-05, 0.0002806374686770141], [-0.004388368222862482, -0.005935607012361288, -0.007301786914467812, -0.008462860248982906, -0.009510123170912266, -0.010230603627860546, -0.010855634696781635, -0.01130372192710638, -0.011622638441622257, -0.011958321556448936, -0.012073528952896595, -0.011823154985904694, -0.011384710669517517, -0.010551076382398605, -0.009369859471917152, -0.007728375494480133], [-0.017540648579597473, -0.01790662668645382, -0.018277466297149658, -0.018654972314834595, -0.019039848819375038, -0.0194233451038599, -0.019819440320134163, -0.020203718915581703, -0.020567622035741806, -0.02090740017592907, -0.021200865507125854, -0.021436646580696106, -0.021604172885417938, -0.021686699241399765, -0.021702108904719353, -0.02166910655796528], [0.0083314822986722, 0.011712513864040375, 0.013970749452710152, 0.014965536072850227, 0.014839960262179375, 0.013781774789094925, 0.012154513038694859, 0.010205586440861225, 0.008211519569158554, 0.006380201783031225, 0.004999524913728237, 0.004040824715048075, 0.003556615673005581, 0.003513853531330824, 0.0036011834163218737, 0.0035874880850315094], [0.0039850762113928795, 0.005025839898735285, 0.006253669038414955, 0.007682145107537508, 0.009361529722809792, 0.011185724288225174, 0.01304252166301012, 0.014863135293126106, 0.01652945578098297, 0.017964590340852737, 0.01917318068444729, 0.020112143829464912, 0.02080589160323143, 0.02128281444311142, 0.021577203646302223, 0.02182610146701336], [0.010928642004728317, 0.010896270163357258, 0.010921903885900974, 0.010949259623885155, 0.01100350171327591, 0.011017234064638615, 0.010946591384708881, 0.010797456838190556, 0.010535244829952717, 0.010116948746144772, 0.009605972096323967, 0.00904074776917696, 0.008468207903206348, 0.007935281842947006, 0.007412915583699942, 0.006988705135881901], [-0.0011946893064305186, -0.001821605721488595, -0.002456270856782794, -0.0030474781524389982, -0.0035368402022868395, -0.003905276767909527, -0.004174970556050539, -0.004359126556664705, -0.004506481345742941, -0.004642394836992025, -0.0047730677761137486, -0.004900161176919937, -0.00501212477684021, -0.005100334994494915, -0.005152414087206125, -0.005143939051777124], [0.011967509053647518, 0.012238756753504276, 0.011975929141044617, 0.011176918633282185, 0.009833441115915775, 0.00778979854658246, 0.005176611710339785, 0.0019865678623318672, -0.00153754570055753, -0.0051469989120960236, -0.008643897250294685, -0.011664092540740967, -0.01397410687059164, -0.015276700258255005, -0.015445210970938206, -0.014500119723379612], [-0.00602223863825202, -0.0057000573724508286, -0.0054739778861403465, -0.005372827872633934, -0.005438900552690029, -0.0056680249981582165, -0.0060731335543096066, -0.006620182655751705, -0.007292618975043297, -0.008087539114058018, -0.008952896110713482, -0.009881142526865005, -0.010872124694287777, -0.01194066647440195, -0.01313837245106697, -0.014506976120173931], [0.00043999950867146254, 0.0003791526542045176, 0.00030279275961220264, 0.00021635863231495023, 0.00012664498353842646, 3.792647476075217e-05, -4.563805850921199e-05, -0.0001188068199553527, -0.00017718216986395419, -0.00021778485097456723, -0.00024017928808461875, -0.0002444976707920432, -0.0002350975846638903, -0.0002163244062103331, -0.0001960789959412068, -0.0001806822110665962], [-0.012769808061420918, -0.015227065421640873, -0.017528533935546875, -0.019621267914772034, -0.02149016782641411, -0.023106366395950317, -0.024470791220664978, -0.025649672374129295, -0.02662043273448944, -0.0273754745721817, -0.0278299730271101, -0.028004949912428856, -0.027829544618725777, -0.02739046886563301, -0.026851987466216087, -0.02647365629673004], [-0.0044494918547570705, -0.0041593508794903755, -0.0038907346315681934, -0.003662675153464079, -0.0034860779996961355, -0.0033553685061633587, -0.003277394687756896, -0.0032307931687682867, -0.00322047364898026, -0.0032331214752048254, -0.0032485690899193287, -0.003252017544582486, -0.003238860284909606, -0.0031958853360265493, -0.0031294310465455055, -0.0030361623503267765], [0.0004237300017848611, 0.0004098991921637207, 0.00038872589357197285, 0.0003619882045313716, 0.00032989151077345014, 0.00029253424145281315, 0.00024930801009759307, 0.00020110073091927916, 0.00014842467498965561, 9.163720096694306e-05, 3.3863667340483516e-05, -2.0480394596233964e-05, -6.725152343278751e-05, -0.00010129412112291902, -0.00011928837921004742, -0.00011985452874796465], [0.04216104745864868, 0.030630556866526604, 0.01942819356918335, 0.00924647506326437, 0.0006696758791804314, -0.005875652190297842, -0.010148679837584496, -0.012289946898818016, -0.01254773885011673, -0.011353529058396816, -0.009098595008254051, -0.006348397117108107, -0.0032918250653892756, -0.00018544774502515793, 0.002907184883952141, 0.006107144057750702], [-0.011228550225496292, -0.012308583594858646, -0.013959962874650955, -0.016211651265621185, -0.018903687596321106, -0.021724075078964233, -0.02442319132387638, -0.026587380096316338, -0.02809831313788891, -0.02886240743100643, -0.028791921213269234, -0.028155401349067688, -0.027126744389533997, -0.025990989059209824, -0.025115661323070526, -0.02475401945412159], [0.000546307594049722, 0.0005471753538586199, 0.0005329839768819511, 0.0005035366048105061, 0.0004589284653775394, 0.0004018483741674572, 0.00033599825110286474, 0.00026600505225360394, 0.00019615323981270194, 0.0001305121259065345, 7.09042142261751e-05, 1.9337641788297333e-05, -2.443871744617354e-05, -5.9980404330417514e-05, -8.799758506938815e-05, -0.00010931092401733622], [-0.013937614858150482, -0.011778157204389572, -0.008951976895332336, -0.005590294022113085, -0.0020174903329461813, 0.0012970278039574623, 0.003922120667994022, 0.0054499562829732895, 0.0057097082026302814, 0.0046626669354736805, 0.002304539317265153, -0.0010032400023192167, -0.004952070768922567, -0.009158922359347343, -0.013212812133133411, -0.016810249537229538], [0.004253803286701441, 0.0044928197748959064, 0.004643125459551811, 0.004732397850602865, 0.004772739950567484, 0.004745323210954666, 0.004708246327936649, 0.004661217797547579, 0.004607991315424442, 0.00457935081794858, 0.004561095032840967, 0.0045327479019761086, 0.004441174678504467, 0.00421103835105896, 0.0038051013834774494, 0.003198873484507203], [6.993650458753109e-07, 0.0007317177951335907, 0.0015134874265640974, 0.002258498687297106, 0.002847810508683324, 0.003291043918579817, 0.0034810733050107956, 0.0034854880068451166, 0.0032798191532492638, 0.0028979210183024406, 0.00246213236823678, 0.0019806886557489634, 0.0014987101312726736, 0.001089295488782227, 0.0008415156044065952, 0.0007622648845426738], [0.006271438207477331, 0.006549159996211529, 0.00683019170537591, 0.007095702458173037, 0.007314218208193779, 0.007472758647054434, 0.007587537169456482, 0.007638159673660994, 0.007629008498042822, 0.007560500409454107, 0.007398479618132114, 0.00716102309525013, 0.006890879478305578, 0.006592961959540844, 0.006309422664344311, 0.006038691848516464], [-0.0028375948313623667, -0.0026785461232066154, -0.0025551572907716036, -0.0024860710836946964, -0.002502718009054661, -0.0025768461637198925, -0.002682834630832076, -0.002743414370343089, -0.0027389379683882, -0.0026525161229074, -0.0024867230094969273, -0.0022553722374141216, -0.0019807377830147743, -0.001690549892373383, -0.001436304417438805, -0.001256400952115655], [0.029001066461205482, 0.03950512036681175, 0.04778086766600609, 0.05295589193701744, 0.05454546958208084, 0.05258888751268387, 0.047618716955184937, 0.040563054382801056, 0.03243350610136986, 0.023615218698978424, 0.014768172986805439, 0.005844103172421455, -0.0031876303255558014, -0.012568555772304535, -0.022992009297013283, -0.035137027502059937], [-0.01218490581959486, -0.01177238579839468, -0.008525608107447624, -0.00255166320130229, 0.00561214005574584, 0.015143386088311672, 0.02498944103717804, 0.034082215279340744, 0.04137643799185753, 0.046022821217775345, 0.047390732914209366, 0.0451027937233448, 0.03918636217713356, 0.029809266328811646, 0.01753954589366913, 0.0030057502444833517], [0.24878452718257904, 0.12589238584041595, 0.021224327385425568, -0.04835480451583862, -0.07896524667739868, -0.06116249039769173, 0.012673516757786274, 0.15100263059139252, 0.36990898847579956, 0.6835572719573975, 1.1055595874786377, 1.6481677293777466, 2.309835433959961, 3.0770468711853027, 3.91603946685791, 4.766477108001709], [0.10588140040636063, 0.11137561500072479, 0.11004041880369186, 0.10135730355978012, 0.08581182360649109, 0.06546582281589508, 0.04307006299495697, 0.021759960800409317, 0.004798099864274263, -0.005282755475491285, -0.006896692793816328, 0.00026494450867176056, 0.015270711854100227, 0.03622722253203392, 0.06032769754528999, 0.08412868529558182], [-0.025571465492248535, -0.014855419285595417, -0.0036897065583616495, 0.007422620430588722, 0.018024185672402382, 0.02765027992427349, 0.035921428352594376, 0.04214954376220703, 0.045518748462200165, 0.04496408626437187, 0.039674315601587296, 0.02871282771229744, 0.01197640411555767, -0.010197073221206665, -0.03702902793884277, -0.06686008721590042], [-0.009998505935072899, -0.001609364291653037, 0.007166929543018341, 0.01588970050215721, 0.02413182519376278, 0.03172459080815315, 0.03829542547464371, 0.04374077171087265, 0.04783005267381668, 0.05007923021912575, 0.05009524151682854, 0.04714246839284897, 0.04081288352608681, 0.031042566522955894, 0.017706938087940216, 0.001229453133419156], [0.04277730733156204, 0.1237892135977745, 0.20057596266269684, 0.2675698697566986, 0.3211030662059784, 0.3602692186832428, 0.3869374096393585, 0.4036727845668793, 0.4144793748855591, 0.42260199785232544, 0.43033745884895325, 0.4377726912498474, 0.4453902542591095, 0.45264285802841187, 0.45846498012542725, 0.4621645510196686], [-0.03484884649515152, -0.02784053608775139, -0.020287640392780304, -0.012950918637216091, -0.00694082397967577, -0.0024653696455061436, -3.333692438900471e-05, 0.00043701002141460776, -0.0005622928729280829, -0.0026241708546876907, -0.005180880427360535, -0.007646508049219847, -0.009763272479176521, -0.011219603009521961, -0.012208372354507446, -0.01429466437548399], [0.009139638394117355, 0.00922350399196148, 0.008960830979049206, 0.008182191289961338, 0.0068074422888457775, 0.005355544853955507, 0.0045066941529512405, 0.004976402968168259, 0.007633805274963379, 0.01274922490119934, 0.020347168669104576, 0.02974117174744606, 0.03998702019453049, 0.04974857345223427, 0.05729199945926666, 0.060977280139923096], [-0.01580474153161049, -0.015569614246487617, -0.01351351197808981, -0.009459799155592918, -0.003341591451317072, 0.004313416313380003, 0.012856189161539078, 0.021345870569348335, 0.028675414621829987, 0.033799998462200165, 0.035749759525060654, 0.03381630405783653, 0.027729373425245285, 0.017714085057377815, 0.004667746834456921, -0.01003881823271513], [-0.016307830810546875, -0.01681365817785263, -0.015762250870466232, -0.012872853316366673, -0.007948750630021095, -0.0013988316059112549, 0.006278141401708126, 0.014298628084361553, 0.021607497707009315, 0.02700127847492695, 0.029372572898864746, 0.027753964066505432, 0.021619360893964767, 0.010778110474348068, -0.0043190293945372105, -0.0225646011531353], [-0.34015601873397827, -0.3448096215724945, -0.363960862159729, -0.3982046842575073, -0.4457423985004425, -0.5031483769416809, -0.5649279356002808, -0.6234598159790039, -0.6710348725318909, -0.7001738548278809, -0.7053464651107788, -0.6817451119422913, -0.6295729279518127, -0.5515519380569458, -0.4513418972492218, -0.3342742919921875], [0.019648797810077667, 0.01377718336880207, 0.007471394259482622, 0.0013388711959123611, -0.004045580048114061, -0.008491533808410168, -0.011760958470404148, -0.013755133375525475, -0.014269513078033924, -0.01302721444517374, -0.009934178553521633, -0.00440237857401371, 0.003673592582345009, 0.014326763339340687, 0.02745579555630684, 0.04250664636492729], [0.004649681970477104, -0.0009712317842058837, -0.007556391414254904, -0.014201460406184196, -0.019848478958010674, -0.023719411343336105, -0.024908598512411118, -0.023178396746516228, -0.018306277692317963, -0.010965105146169662, -0.002235623076558113, 0.0068533760495483875, 0.014909413643181324, 0.020672716200351715, 0.023192444816231728, 0.02221415750682354], [-0.06780591607093811, -0.06509356945753098, -0.06253787130117416, -0.060239795595407486, -0.05839276686310768, -0.057248398661613464, -0.057048387825489044, -0.05790093168616295, -0.05972480773925781, -0.06225147843360901, -0.06519095599651337, -0.06803983449935913, -0.07041450589895248, -0.07191681861877441, -0.07205691933631897, -0.07019340246915817], [0.0045584519393742085, 0.007688210811465979, 0.012794180773198605, 0.019769826903939247, 0.028044477105140686, 0.03678709268569946, 0.04523473232984543, 0.052351146936416626, 0.05752164497971535, 0.06046738848090172, 0.060961779206991196, 0.0592828206717968, 0.05597977340221405, 0.05172722414135933, 0.047450315207242966, 0.04377807304263115], [-0.0030578707810491323, -0.003940080292522907, -0.0042158570140600204, -0.003998822066932917, -0.003339710645377636, -0.0024002273567020893, -0.0013703409349545836, -0.00034024304477497935, 0.0004575947532430291, 0.0008019793312996626, 0.0005476762889884412, -0.0005568016786128283, -0.0026679409202188253, -0.005906423553824425, -0.010261408053338528, -0.015564730390906334], [-0.011971392668783665, -0.01634909026324749, -0.020676592364907265, -0.024950480088591576, -0.0290438961237669, -0.03318695351481438, -0.0372115820646286, -0.041165780276060104, -0.045091528445482254, -0.04880882054567337, -0.05214868113398552, -0.05491458252072334, -0.05690544471144676, -0.05787290632724762, -0.05787917971611023, -0.05686529353260994], [-0.1992301493883133, -0.18909737467765808, -0.17646290361881256, -0.16202165186405182, -0.14650076627731323, -0.13111147284507751, -0.11741660535335541, -0.10673822462558746, -0.10054304450750351, -0.0990484282374382, -0.10186449438333511, -0.10766715556383133, -0.11574018746614456, -0.12541736662387848, -0.13559813797473907, -0.1455240398645401], [0.11247584223747253, 0.11388511955738068, 0.11401508748531342, 0.11262060701847076, 0.10922562330961227, 0.10358668118715286, 0.09588561952114105, 0.08607503026723862, 0.0751977488398552, 0.06428105384111404, 0.05412594601511955, 0.046283576637506485, 0.04206433519721031, 0.04310166463255882, 0.05067237466573715, 0.0649193674325943], [-0.025009259581565857, -0.027848215773701668, -0.03028503619134426, -0.032018501311540604, -0.03250724822282791, -0.031729646027088165, -0.029764613136649132, -0.026939773932099342, -0.023862536996603012, -0.02112184278666973, -0.01933525688946247, -0.019015531986951828, -0.020557435229420662, -0.023834994062781334, -0.028211910277605057, -0.03263403847813606], [0.0030816616490483284, 0.0020917148794978857, 0.0013838487211614847, 0.0011267379159107804, 0.0014552969951182604, 0.0023072087205946445, 0.0036766931880265474, 0.005362061318010092, 0.007127888035029173, 0.008709105663001537, 0.009729866869747639, 0.00989910215139389, 0.008997241035103798, 0.006797273177653551, 0.003254146547988057, -0.0015488954959437251], [0.007277371361851692, 0.009431813843548298, 0.010928727686405182, 0.01173030398786068, 0.01164830569177866, 0.010601647198200226, 0.008355512283742428, 0.004884262569248676, 0.000802683993242681, -0.0025956358294934034, -0.0039679864421486855, -0.0011763189686462283, 0.007362701930105686, 0.02314765192568302, 0.04731060191988945, 0.07963147759437561], [-0.00505960313603282, -0.004486809950321913, -0.002031854819506407, 0.0023349260445684195, 0.008279681205749512, 0.015181389637291431, 0.02231699787080288, 0.02882452681660652, 0.03385898843407631, 0.03665020316839218, 0.03654121235013008, 0.033112961798906326, 0.026345394551753998, 0.016304170712828636, 0.003346180310472846, -0.01199505664408207], [0.01950429379940033, 0.017619265243411064, 0.016279693692922592, 0.015408128499984741, 0.014682203531265259, 0.013532299548387527, 0.011992624029517174, 0.009647677652537823, 0.006980108097195625, 0.0040528797544538975, 0.0010189366294071078, -0.0012817024253308773, -0.002048660069704056, -0.00037282847915776074, 0.0042689028196036816, 0.01225397177040577], [0.5065290331840515, 0.8990235924720764, 1.3154610395431519, 1.7302193641662598, 2.111196756362915, 2.4410481452941895, 2.7058377265930176, 2.89894700050354, 3.0279924869537354, 3.1068308353424072, 3.163156032562256, 3.2209017276763916, 3.309687852859497, 3.4496545791625977, 3.648258686065674, 3.893697500228882], [0.04819197952747345, 0.03700445592403412, 0.024719588458538055, 0.01156605500727892, -0.002003402914851904, -0.015211526304483414, -0.02754662185907364, -0.03803751617670059, -0.04595102369785309, -0.04996493458747864, -0.049205560237169266, -0.042908571660518646, -0.030356446281075478, -0.01116841658949852, 0.014872759580612183, 0.047110479325056076], [0.19727586209774017, 0.22434502840042114, 0.2447550743818283, 0.25623819231987, 0.25719568133354187, 0.24901717901229858, 0.233930304646492, 0.21436470746994019, 0.19364428520202637, 0.17523014545440674, 0.1619647890329361, 0.15470661222934723, 0.15434932708740234, 0.16014991700649261, 0.16948628425598145, 0.1780998855829239], [0.0237197894603014, 0.018316546455025673, 0.011077377945184708, 0.0024284343235194683, -0.007196121849119663, -0.01712809130549431, -0.026682814583182335, -0.03503308445215225, -0.04113566502928734, -0.043959181755781174, -0.042523112148046494, -0.03583386912941933, -0.023521387949585915, -0.005634781438857317, 0.016966773197054863, 0.0426727756857872], [-0.05844050273299217, -0.04461829736828804, -0.029981644824147224, -0.01541294064372778, -0.0018428502371534705, 0.00955851748585701, 0.01858052983880043, 0.024661799892783165, 0.0279059037566185, 0.02809043601155281, 0.025306200608611107, 0.019620729610323906, 0.011576523073017597, 0.0017014718614518642, -0.010203581303358078, -0.02371363155543804], [0.05260584130883217, 0.06208550184965134, 0.07160711288452148, 0.08123914152383804, 0.09116166830062866, 0.1014903113245964, 0.11242343485355377, 0.12420192360877991, 0.13652296364307404, 0.14941224455833435, 0.1626203954219818, 0.17582501471042633, 0.18826453387737274, 0.19913414120674133, 0.20749257504940033, 0.2126024216413498], [-0.04086096212267876, -0.04742258042097092, -0.059856634587049484, -0.07805616408586502, -0.10150360316038132, -0.12866218388080597, -0.1575876772403717, -0.1857362985610962, -0.210292249917984, -0.2282392978668213, -0.236708864569664, -0.23322691023349762, -0.21639016270637512, -0.1859535127878189, -0.1429540365934372, -0.08969318121671677], [-0.07608772814273834, -0.06774767488241196, -0.06006395444273949, -0.053825002163648605, -0.04928003251552582, -0.04608360677957535, -0.04410159960389137, -0.04282018542289734, -0.04199540615081787, -0.04080590233206749, -0.038827866315841675, -0.035823069512844086, -0.03155497461557388, -0.025570547208189964, -0.017328424379229546, -0.006647718604654074], [0.057790279388427734, 0.03546369820833206, 0.020204801112413406, 0.013777880929410458, 0.01675591804087162, 0.027981631457805634, 0.04547543823719025, 0.06636516749858856, 0.08753278106451035, 0.10655052214860916, 0.1208941712975502, 0.12912443280220032, 0.13005077838897705, 0.1233583614230156, 0.10946785658597946, 0.08926988393068314], [0.37597933411598206, 0.8112615942955017, 1.2556520700454712, 1.6693334579467773, 2.017374038696289, 2.272841215133667, 2.4188528060913086, 2.4480881690979004, 2.3588383197784424, 2.1536054611206055, 1.8423229455947876, 1.4292422533035278, 0.9332921504974365, 0.3736044764518738, -0.22531244158744812, -0.8354654908180237], [-0.005527754779905081, -0.020853694528341293, -0.03345709294080734, -0.041898246854543686, -0.045294396579265594, -0.043145984411239624, -0.03609374165534973, -0.02474900521337986, -0.010679586790502071, 0.004615055862814188, 0.01980412006378174, 0.0335242934525013, 0.04411769658327103, 0.05010027065873146, 0.05055687576532364, 0.045048851519823074], [0.06050087884068489, 0.05584903806447983, 0.052720967680215836, 0.05151083320379257, 0.05247670039534569, 0.055405981838703156, 0.05963415652513504, 0.06423559784889221, 0.06814628839492798, 0.07022102177143097, 0.06943196803331375, 0.06495947390794754, 0.0565260611474514, 0.04438742995262146, 0.029241472482681274, 0.012457355856895447], [0.00016740235150791705, 0.0076232063584029675, 0.017293527722358704, 0.028960954397916794, 0.041790757328271866, 0.05484243854880333, 0.06721717119216919, 0.07761447131633759, 0.08523157984018326, 0.08894497156143188, 0.0878838449716568, 0.08151313662528992, 0.06959882378578186, 0.05196783319115639, 0.028605809435248375, -0.00017207232303917408], [-0.0038355740252882242, -0.005722652189433575, -0.00901755504310131, -0.013568873517215252, -0.019384900107979774, -0.026575814932584763, -0.03519632667303085, -0.04532504826784134, -0.05659622326493263, -0.06810223311185837, -0.07873916625976562, -0.08664573729038239, -0.09009045362472534, -0.08735718578100204, -0.07693010568618774, -0.05813935771584511], [0.017785893753170967, 0.01688222587108612, 0.015322287566959858, 0.013206171803176403, 0.01054887380450964, 0.007567408960312605, 0.004512368235737085, 0.0016633631894364953, -0.0005365614197216928, -0.0016676872037351131, -0.0013725803000852466, 0.0007325282786041498, 0.0048198699951171875, 0.01082735788077116, 0.018432950600981712, 0.02694428525865078], [-0.4518428444862366, -0.5579918622970581, -0.6520814895629883, -0.7244683504104614, -0.7661519646644592, -0.7748982310295105, -0.751392126083374, -0.6986516118049622, -0.6263216733932495, -0.5478372573852539, -0.4800269603729248, -0.43697455525398254, -0.4334851801395416, -0.4785020053386688, -0.5735870599746704, -0.7080071568489075], [-0.004116547293961048, -0.0057331412099301815, -0.007306899409741163, -0.00865829549729824, -0.009613370522856712, -0.010136718861758709, -0.010220123454928398, -0.009993568994104862, -0.00956656038761139, -0.009020358324050903, -0.008505253121256828, -0.00803365558385849, -0.007639157585799694, -0.007249841000884771, -0.006605780217796564, -0.005472130142152309], [-0.06688758730888367, -0.046799562871456146, -0.028228759765625, -0.012757044285535812, -0.0013460913905873895, 0.0061943805776536465, 0.010737971402704716, 0.013346189633011818, 0.015264532528817654, 0.01722102053463459, 0.019211599603295326, 0.020626790821552277, 0.020319314673542976, 0.017614327371120453, 0.01156756840646267, 0.0009439759887754917], [0.011228728108108044, 0.008837920613586903, 0.0064837271347641945, 0.004497903399169445, 0.003177355043590069, 0.002487500663846731, 0.0023119791876524687, 0.0024278732016682625, 0.0026113870553672314, 0.00272815371863544, 0.002598774153739214, 0.0025820317678153515, 0.0028863735496997833, 0.0039059745613485575, 0.006151189096271992, 0.009947305545210838], [-0.01275403331965208, -0.008821840398013592, -0.00394373619928956, 0.0012349237222224474, 0.006099832244217396, 0.011029013432562351, 0.015604640357196331, 0.020171428099274635, 0.0244747381657362, 0.02809157595038414, 0.030688438564538956, 0.030962152406573296, 0.028020285069942474, 0.021328650414943695, 0.010604149661958218, -0.004296539351344109], [0.02677365578711033, 0.020584434270858765, 0.0134207084774971, 0.005789679009467363, -0.0011738210450857878, -0.006046193651854992, -0.007413868792355061, -0.0039234459400177, 0.004946122877299786, 0.018664715811610222, 0.03616773337125778, 0.054916076362133026, 0.07210347801446915, 0.08448366075754166, 0.08860079944133759, 0.08200808614492416], [-0.25993961095809937, -0.2929244935512543, -0.3173455595970154, -0.3299967646598816, -0.32833725214004517, -0.3135235607624054, -0.2882000207901001, -0.25596117973327637, -0.22187316417694092, -0.1903531849384308, -0.16625623404979706, -0.15143652260303497, -0.1479053944349289, -0.15500538051128387, -0.1687159538269043, -0.18197782337665558], [-0.045112039893865585, -0.03170666843652725, -0.01781230978667736, -0.00417734682559967, 0.008482306264340878, 0.019469566643238068, 0.028512202203273773, 0.03511767089366913, 0.03909678757190704, 0.04004750773310661, 0.0378497876226902, 0.031966682523489, 0.02260160632431507, 0.010145732201635838, -0.005153656471520662, -0.022588443011045456], [0.047263361513614655, 0.04700898379087448, 0.045992814004421234, 0.04475301876664162, 0.04309075325727463, 0.040822502225637436, 0.03804021328687668, 0.034052249044179916, 0.029489370062947273, 0.024726934731006622, 0.02004396915435791, 0.01688230037689209, 0.016370756551623344, 0.01944461278617382, 0.026951702311635017, 0.03910670056939125], [0.008032172918319702, 0.003628129605203867, -0.0002628319780342281, -0.002932214643806219, -0.003736314130946994, -0.002717710565775633, 3.311625914648175e-05, 0.004128205589950085, 0.009045061655342579, 0.014333745464682579, 0.019444091245532036, 0.024360237643122673, 0.0290211271494627, 0.033539265394210815, 0.03821920230984688, 0.04330539330840111], [0.04504680633544922, 0.043670665472745895, 0.04299592971801758, 0.04351576045155525, 0.04546065628528595, 0.048485931009054184, 0.053048744797706604, 0.05861219763755798, 0.0649075135588646, 0.07094264030456543, 0.07584135979413986, 0.07833823561668396, 0.07746690511703491, 0.07194489240646362, 0.060607168823480606, 0.043130721896886826], [0.0068451715633273125, 0.0035401603672653437, 0.0011226072674617171, -0.00030397047521546483, -0.0006565338699147105, 0.0003722989931702614, 0.0029554537031799555, 0.007447213865816593, 0.014025840908288956, 0.022676948457956314, 0.03321089968085289, 0.04528505727648735, 0.05827326700091362, 0.07134034484624863, 0.08339682221412659, 0.09307120740413666], [0.0012329891324043274, -0.0009750876342877746, -0.00393730029463768, -0.0074623264372348785, -0.01128111220896244, -0.015014536678791046, -0.018417472019791603, -0.02109522931277752, -0.022815100848674774, -0.023504337295889854, -0.023080118000507355, -0.021590225398540497, -0.019219592213630676, -0.01630011945962906, -0.01332629844546318, -0.010756820440292358], [-0.09421557933092117, -0.09211476147174835, -0.09146139770746231, -0.09186182916164398, -0.09300008416175842, -0.0944509506225586, -0.0963592678308487, -0.0988634005188942, -0.10270072519779205, -0.10856739431619644, -0.11669902503490448, -0.12732765078544617, -0.1402205228805542, -0.1548975706100464, -0.16995474696159363, -0.18308396637439728], [-0.016285542398691177, -0.01864108443260193, -0.02062765508890152, -0.021999754011631012, -0.022765574976801872, -0.023252665996551514, -0.023892421275377274, -0.025384237989783287, -0.028229814022779465, -0.032707273960113525, -0.039018720388412476, -0.046679165214300156, -0.05509144812822342, -0.06346775591373444, -0.07062070816755295, -0.07546776533126831], [0.005973678547888994, 0.007240195758640766, 0.008525549434125423, 0.009622221812605858, 0.010398236103355885, 0.010871617123484612, 0.01107348408550024, 0.011151518672704697, 0.011168278753757477, 0.011159992776811123, 0.011079109273850918, 0.010731804184615612, 0.009962492622435093, 0.00854388065636158, 0.006323780864477158, 0.0032389757689088583], [-1.3821678161621094, -1.5844062566757202, -1.6793372631072998, -1.66084885597229, -1.5408879518508911, -1.3429410457611084, -1.0990525484085083, -0.8422620296478271, -0.602003812789917, -0.3990402817726135, -0.24531586468219757, -0.1419316530227661, -0.08404615521430969, -0.06216881424188614, -0.06330238282680511, -0.07676741480827332], [0.0025249896571040154, -0.0021884250454604626, -0.006857717875391245, -0.01135243009775877, -0.015076656825840473, -0.017990440130233765, -0.020219450816512108, -0.02145700715482235, -0.021757697686553, -0.020568782463669777, -0.01743968203663826, -0.01168917864561081, -0.0032303459011018276, 0.007994906045496464, 0.022157125174999237, 0.03922821953892708], [0.01855974644422531, 0.018099047243595123, 0.01663947105407715, 0.014094190672039986, 0.010426642373204231, 0.0059603373520076275, 0.000980179407633841, -0.004098974633961916, -0.008817541413009167, -0.012728347443044186, -0.01548659149557352, -0.016723813489079475, -0.01627267897129059, -0.014033281244337559, -0.01000163983553648, -0.0044454550370574], [-0.026488065719604492, -0.01850045658648014, -0.011461229994893074, -0.006002388894557953, -0.003136334242299199, -0.002966407686471939, -0.0053533269092440605, -0.010074477642774582, -0.01648336835205555, -0.024285025894641876, -0.03295595198869705, -0.04232843220233917, -0.05237362161278725, -0.06307188421487808, -0.07458139955997467, -0.08780331164598465], [-0.039691295474767685, -0.04092538729310036, -0.04229964688420296, -0.04371766746044159, -0.04499839246273041, -0.04603806138038635, -0.04648774117231369, -0.046229761093854904, -0.04513650760054588, -0.043440498411655426, -0.04146484658122063, -0.03972998261451721, -0.03871409595012665, -0.03879687935113907, -0.04070345312356949, -0.04470003396272659], [0.035750873386859894, 0.04444481059908867, 0.052516303956508636, 0.05936310440301895, 0.06447025388479233, 0.06806866824626923, 0.07009829580783844, 0.07100347429513931, 0.0712009072303772, 0.07124561071395874, 0.07168430089950562, 0.07292892783880234, 0.07539667934179306, 0.07955890148878098, 0.08568624407052994, 0.09352079778909683], [-0.0028905821964144707, -0.004317552782595158, -0.005108557641506195, -0.00483194924890995, -0.0033925718162208796, -0.0011843245010823011, 0.0016294391825795174, 0.004247680772095919, 0.006401176564395428, 0.007674048654735088, 0.007828022353351116, 0.007079724688082933, 0.0059211826883256435, 0.004746269900351763, 0.0038259276188910007, 0.0035128023009747267], [-0.15755394101142883, -0.16272060573101044, -0.15854980051517487, -0.14505447447299957, -0.12316258996725082, -0.09614314883947372, -0.06719069927930832, -0.040449753403663635, -0.019063102081418037, -0.004151654429733753, 0.0032213889062404633, 0.0035481101367622614, -0.0023511850740760565, -0.011874512769281864, -0.021652016788721085, -0.02894205041229725], [0.0013454423751682043, 0.004159391857683659, 0.007129200268536806, 0.00996503233909607, 0.01255248673260212, 0.014853770844638348, 0.016897184774279594, 0.018845396116375923, 0.020839307457208633, 0.022852106019854546, 0.024827804416418076, 0.02642560377717018, 0.027241745963692665, 0.02691838890314102, 0.02519836649298668, 0.022105639800429344], [-0.003507324494421482, -0.003517278004437685, -0.003476778045296669, -0.003383959410712123, -0.0032406533136963844, -0.003058965317904949, -0.0028499718755483627, -0.0026291527319699526, -0.0024092714302241802, -0.002196579473093152, -0.0019994403701275587, -0.0018202961655333638, -0.0016602168325334787, -0.0015186982927843928, -0.0013849172974005342, -0.0012609933037310839], [-0.05925478786230087, -0.06101284548640251, -0.06075720489025116, -0.05805183947086334, -0.05310865864157677, -0.04606029763817787, -0.03743468225002289, -0.027988363057374954, -0.01835925132036209, -0.009501072578132153, -0.002034151926636696, 0.003376250620931387, 0.0062631769105792046, 0.006075156386941671, 0.0022680871188640594, -0.005298683885484934], [-0.009603181853890419, -0.019188087433576584, -0.026828082278370857, -0.03201496601104736, -0.03441085293889046, -0.03412366658449173, -0.03145159035921097, -0.02678273618221283, -0.0206557959318161, -0.013880113139748573, -0.007162772584706545, -0.001254169037565589, 0.003208918496966362, 0.005714797414839268, 0.005998760927468538, 0.004178984556347132], [-0.007306278683245182, -0.008126351982355118, -0.009000378660857677, -0.009886457584798336, -0.010808877646923065, -0.011796402744948864, -0.012819504365324974, -0.013848567381501198, -0.01476240437477827, -0.015375498682260513, -0.015534402802586555, -0.015038405545055866, -0.013803355395793915, -0.011779210530221462, -0.008968369103968143, -0.00555824302136898], [-0.054758213460445404, -0.054749567061662674, -0.05362100154161453, -0.051418203860521317, -0.04810301586985588, -0.043802808970212936, -0.03866920992732048, -0.03278844803571701, -0.02639082819223404, -0.01979300193488598, -0.013391164131462574, -0.007666921243071556, -0.0031383971218019724, -0.0002134611422661692, 0.0008393420721404254, -6.378552643582225e-05], [0.0013788999058306217, 0.0016151666641235352, 0.0022779428400099277, 0.0032199393026530743, 0.004342119675129652, 0.005617060232907534, 0.006856333930045366, 0.007997692562639713, 0.008873135782778263, 0.00932919792830944, 0.009265716187655926, 0.008608495816588402, 0.007231181021779776, 0.005186514928936958, 0.002531809965148568, -0.0005815372569486499], [0.05463031679391861, 0.05576957389712334, 0.05583588033914566, 0.05474090203642845, 0.05227905884385109, 0.04886927083134651, 0.04496466740965843, 0.041022393852472305, 0.037657856941223145, 0.03506191074848175, 0.033315736800432205, 0.032430604100227356, 0.032426685094833374, 0.03266998752951622, 0.03254827857017517, 0.031242990866303444], [-0.012674828059971333, -0.013933003880083561, -0.015091560781002045, -0.016052881255745888, -0.016739163547754288, -0.01716381497681141, -0.017320724204182625, -0.017257308587431908, -0.01702648214995861, -0.016614416614174843, -0.01613766700029373, -0.015558482147753239, -0.01485100481659174, -0.014057130552828312, -0.013107034377753735, -0.012036139145493507], [0.0022419963497668505, 0.002112321089953184, 0.0019301786087453365, 0.0016949110431596637, 0.0014176961267367005, 0.001105578849092126, 0.0007723632734268904, 0.0004326540802139789, 0.00010199245298281312, -0.0002047691959887743, -0.0004764939658343792, -0.0006996684242039919, -0.0008696217555552721, -0.0009844964370131493, -0.0010411770781502128, -0.001043451833538711], [-0.001481484854593873, -0.0015216792235150933, -0.0015192098217085004, -0.001467513618990779, -0.0013649552129209042, -0.0012194367591291666, -0.0010458718752488494, -0.0008501752163283527, -0.0006519160815514624, -0.00047196063678711653, -0.0003316883812658489, -0.00025129056302830577, -0.00024333252804353833, -0.00032305545755662024, -0.0004968995926901698, -0.000758166192099452], [0.006192488595843315, 0.007410684134811163, 0.009305953979492188, 0.012014899402856827, 0.015509205870330334, 0.019540317356586456, 0.023995185270905495, 0.028490222990512848, 0.03291565552353859, 0.03715424984693527, 0.041027192026376724, 0.04453786835074425, 0.04770349711179733, 0.05053947865962982, 0.053260933607816696, 0.05594853311777115], [-0.008351855911314487, -0.009769579395651817, -0.011191143654286861, -0.01249870378524065, -0.013571801595389843, -0.014418593607842922, -0.015068495646119118, -0.015583476051688194, -0.015998639166355133, -0.016245946288108826, -0.016270894557237625, -0.015933074057102203, -0.015158107504248619, -0.013848671689629555, -0.011902880854904652, -0.009384877979755402], [-0.0018577201990410686, -0.0025002469774335623, -0.0034436252899467945, -0.004580310080200434, -0.005764740519225597, -0.006946357432752848, -0.007919857278466225, -0.008644012734293938, -0.008981968276202679, -0.008927004411816597, -0.008631888777017593, -0.008228966034948826, -0.00773752061650157, -0.007315026596188545, -0.007054568268358707, -0.00710942130535841], [-0.048972006887197495, -0.04503796994686127, -0.04173612967133522, -0.03928964212536812, -0.03790898248553276, -0.03745871037244797, -0.0378263033926487, -0.03861743211746216, -0.03954140096902847, -0.040469128638505936, -0.04109170660376549, -0.041362863034009933, -0.041118770837783813, -0.04050344228744507, -0.03986433893442154, -0.03950102627277374], [0.0048952666111290455, 0.0045892708003520966, 0.0042704432271420956, 0.00394290080294013, 0.0036063906736671925, 0.003277797484770417, 0.0029662325978279114, 0.0026690252125263214, 0.0023982615675777197, 0.0021494687534868717, 0.0019160909578204155, 0.0016977483173832297, 0.0014805772807449102, 0.0012731213355436921, 0.0010585240088403225, 0.0008327027899213135], [-0.00040750630432739854, -0.000379428849555552, -0.00034679315285757184, -0.0003091523249167949, -0.00026615223032422364, -0.0002182257449021563, -0.0001657339744269848, -0.00011157293920405209, -5.8607689425116405e-05, -8.714487194083631e-06, 3.5084900446236134e-05, 6.940648017916828e-05, 9.326979488832876e-05, 0.00010601111716823652, 0.00010900785855483264, 0.00010177594958804548], [-0.027015265077352524, -0.026841608807444572, -0.026597224175930023, -0.026300011202692986, -0.025914613157510757, -0.02547934092581272, -0.02501220814883709, -0.024547908455133438, -0.024125780910253525, -0.023787422105669975, -0.02364317700266838, -0.023720307275652885, -0.024085743352770805, -0.02475796267390251, -0.025734230875968933, -0.02701164223253727], [0.03128920868039131, 0.039199408143758774, 0.04646740481257439, 0.05267593264579773, 0.057520102709531784, 0.0607173889875412, 0.06197398528456688, 0.06136459484696388, 0.05899431183934212, 0.055274829268455505, 0.050664450973272324, 0.045689601451158524, 0.04087022319436073, 0.036650583148002625, 0.03326120600104332, 0.030759265646338463], [-0.004892962984740734, -0.005259138531982899, -0.005982510279864073, -0.007105358876287937, -0.008579393848776817, -0.010293708182871342, -0.012108472175896168, -0.013829093426465988, -0.015099314972758293, -0.015475418418645859, -0.014677322469651699, -0.012467040680348873, -0.008748608641326427, -0.0034813357051461935, 0.003369332989677787, 0.01155511662364006], [-0.001746458001434803, -0.0019901359919458628, -0.002281796419993043, -0.0025908281095325947, -0.002889866242185235, -0.0031553145963698626, -0.003359963884577155, -0.003492626827210188, -0.0035529795568436384, -0.003531711408868432, -0.0034332871437072754, -0.003261400619521737, -0.003028561593964696, -0.0027439335826784372, -0.0024049594067037106, -0.002030184492468834], [-0.0012215919559821486, -0.0012366909068077803, -0.0012352978810667992, -0.0012206812389194965, -0.0011980340350419283, -0.0011717011220753193, -0.001145309885032475, -0.0011210551019757986, -0.0011002629762515426, -0.0010827461956068873, -0.0010672658681869507, -0.001052004168741405, -0.001035739085637033, -0.0010184893617406487, -0.0010006449883803725, -0.0009815184166654944], [0.050280191004276276, 0.051254816353321075, 0.05238701030611992, 0.05366544425487518, 0.054689254611730576, 0.055035550147295, 0.05436551943421364, 0.052384693175554276, 0.04910307377576828, 0.0450935922563076, 0.04102572426199913, 0.03787490352988243, 0.036716360598802567, 0.03842194750905037, 0.04356902092695236, 0.0521366149187088], [-0.0010116046760231256, -0.0010393853299319744, -0.0010824513155966997, -0.0011285369982942939, -0.0011656016577035189, -0.001187905902042985, -0.0011844729306176305, -0.0011471682228147984, -0.0010741509031504393, -0.0009568343521095812, -0.0007990291342139244, -0.000603251566644758, -0.00037372688530012965, -0.00011640635057119653, 0.00017427884449716657, 0.00048350822180509567], [-0.031532131135463715, -0.033379290252923965, -0.03506794199347496, -0.03653474152088165, -0.037801455706357956, -0.038900624960660934, -0.03975779563188553, -0.04035314545035362, -0.04063946381211281, -0.0405331552028656, -0.04003116115927696, -0.03920635208487511, -0.03806307911872864, -0.036696452647447586, -0.03505982831120491, -0.03316550701856613], [-0.13382524251937866, -0.13541951775550842, -0.13674528896808624, -0.13686318695545197, -0.13517217338085175, -0.13121575117111206, -0.1254112869501114, -0.11846083402633667, -0.11166460812091827, -0.10630843043327332, -0.10364393144845963, -0.10436468571424484, -0.10827275365591049, -0.11478635668754578, -0.12302188575267792, -0.13165579736232758], [-0.004981304984539747, 0.0026565222069621086, 0.011585783213376999, 0.021432338282465935, 0.03148093447089195, 0.040537912398576736, 0.047669269144535065, 0.05173550546169281, 0.052366144955158234, 0.0500221811234951, 0.04526848718523979, 0.03939277306199074, 0.033836666494607925, 0.03002440184354782, 0.02921370416879654, 0.03215405344963074], [-0.007639315444976091, -0.0060027060098946095, -0.0018624445656314492, 0.004548151511698961, 0.012935652397572994, 0.022402925416827202, 0.03203989565372467, 0.04099413752555847, 0.048550356179475784, 0.054280783981084824, 0.058094322681427, 0.0602179653942585, 0.06093291565775871, 0.060668330639600754, 0.06012731045484543, 0.060025881975889206], [-0.0022449791431427, -0.002220203634351492, -0.002292155520990491, -0.002453987020999193, -0.0027045824099332094, -0.0030283331871032715, -0.0034085982479155064, -0.0038109119050204754, -0.004205158445984125, -0.004535794723778963, -0.004763658624142408, -0.004837783053517342, -0.004726779647171497, -0.004406808875501156, -0.0038828575052320957, -0.0031891907565295696], [-0.008293438702821732, -0.008283399045467377, -0.0076749068684875965, -0.006285590119659901, -0.004103478975594044, -0.0012263796525076032, 0.002215599874034524, 0.006075588054955006, 0.010300006717443466, 0.015021014027297497, 0.020292552188038826, 0.026234092190861702, 0.032782282680273056, 0.039768218994140625, 0.04723135381937027, 0.05505402386188507], [-0.08313591033220291, -0.08154720067977905, -0.07752960920333862, -0.0709495097398758, -0.061705105006694794, -0.04994391277432442, -0.03604564815759659, -0.020616106688976288, -0.004275653976947069, 0.012478857301175594, 0.029100194573402405, 0.04498095437884331, 0.059798505157232285, 0.0733611062169075, 0.08557784557342529, 0.09646189957857132], [-0.08222130686044693, -0.09015481173992157, -0.0971076488494873, -0.1023523360490799, -0.104871466755867, -0.10402214527130127, -0.09934289753437042, -0.09048299491405487, -0.07819967716932297, -0.06459071487188339, -0.051647432148456573, -0.04216260462999344, -0.03853823244571686, -0.04310745745897293, -0.057723384350538254, -0.08262603729963303], [0.001421045628376305, 0.00338347558863461, 0.005339200142771006, 0.007151227910071611, 0.008615026250481606, 0.009649982675909996, 0.01018898468464613, 0.009946366772055626, 0.008831591345369816, 0.006784564815461636, 0.003850840264931321, 2.0129024051129818e-05, -0.004428659565746784, -0.009279021993279457, -0.014293578453361988, -0.019171850755810738], [0.04650957137346268, 0.05004693195223808, 0.052672311663627625, 0.053797315806150436, 0.05325581878423691, 0.0511464849114418, 0.04788100719451904, 0.04390139877796173, 0.039752621203660965, 0.03587346151471138, 0.03245134279131889, 0.029517903923988342, 0.02703794278204441, 0.024785729125142097, 0.02252889610826969, 0.020073888823390007], [-0.06815548986196518, -0.06398417055606842, -0.05960536375641823, -0.054688964039087296, -0.04889914393424988, -0.04190126061439514, -0.03344793617725372, -0.023468533530831337, -0.012267248705029488, -4.2981409933418036e-06, 0.012962164357304573, 0.026268834248185158, 0.03949938341975212, 0.05216285213828087, 0.06400609016418457, 0.07479365170001984], [-0.028670350089669228, -0.029236162081360817, -0.029168907552957535, -0.02838926762342453, -0.026923205703496933, -0.024890193715691566, -0.02256377786397934, -0.02013096585869789, -0.017823463305830956, -0.015675529837608337, -0.013675389811396599, -0.011809784919023514, -0.010032874532043934, -0.008439355529844761, -0.007126258686184883, -0.006343451328575611], [-0.034068357199430466, -0.03532692417502403, -0.03659301996231079, -0.037538882344961166, -0.03784539923071861, -0.03740311786532402, -0.03615652397274971, -0.03417140245437622, -0.03168826177716255, -0.029067810624837875, -0.02671595849096775, -0.02501004934310913, -0.024291491135954857, -0.024792827665805817, -0.026506004855036736, -0.029157832264900208], [-0.01568613201379776, -0.013009712100028992, -0.01075321901589632, -0.009138775058090687, -0.008190717548131943, -0.007696821354329586, -0.007351490668952465, -0.00675916438922286, -0.005776899866759777, -0.004843846429139376, -0.004258191213011742, -0.004878737032413483, -0.007229624316096306, -0.012082275934517384, -0.02023574523627758, -0.03205326944589615], [-0.020075730979442596, -0.01992548257112503, -0.019788047298789024, -0.01969647780060768, -0.019632553681731224, -0.01954062283039093, -0.01938740909099579, -0.019074514508247375, -0.018603719770908356, -0.01806008815765381, -0.01752842217683792, -0.017172308638691902, -0.017120657488703728, -0.017542073503136635, -0.01859211176633835, -0.020313706248998642], [-0.0002920055412687361, -0.0002816961205098778, -0.00028326231404207647, -0.0002949764020740986, -0.00031736952951177955, -0.00034731964115053415, -0.00038256359403021634, -0.0004179220413789153, -0.00045091111678630114, -0.0004759478906635195, -0.0004882730427198112, -0.00048426908324472606, -0.0004599994281306863, -0.0004133563779760152, -0.00034662577672861516, -0.00026360206538811326], [0.010929853655397892, 0.010627715848386288, 0.010516125708818436, 0.010657097212970257, 0.011148117482662201, 0.0121820829808712, 0.013865465298295021, 0.016194384545087814, 0.019141312688589096, 0.022317780181765556, 0.025291377678513527, 0.02749672159552574, 0.02856472134590149, 0.028207557275891304, 0.026190118864178658, 0.022719627246260643], [-0.0025897438172250986, -0.0025604485999792814, -0.0025437388103455305, -0.0025434005074203014, -0.0025613768957555294, -0.002595227211713791, -0.0026433549355715513, -0.002698443131521344, -0.0027559781447052956, -0.002810035366564989, -0.002854791237041354, -0.0028921468183398247, -0.0029261098243296146, -0.0029611403588205576, -0.003007200313732028, -0.0030690187122672796], [0.007743021473288536, 0.007116085384041071, 0.006971999071538448, 0.0073613072745501995, 0.0084115881472826, 0.010132934898138046, 0.012619342654943466, 0.015796860679984093, 0.019580133259296417, 0.02364383451640606, 0.027580413967370987, 0.0308323223143816, 0.03311118111014366, 0.03391379863023758, 0.032842349261045456, 0.029837308451533318], [-0.003089675446972251, -0.003992749843746424, -0.004832213744521141, -0.005503653082996607, -0.005930084269493818, -0.006124911829829216, -0.006123719271272421, -0.006000904366374016, -0.00581651646643877, -0.005600229371339083, -0.005379054695367813, -0.005121394991874695, -0.004794493317604065, -0.004338694736361504, -0.0036629189271479845, -0.0027458942495286465], [0.00731560168787837, 0.0036049990449100733, -3.9118953282013535e-05, -0.0033561482559889555, -0.0062736389227211475, -0.008800458163022995, -0.011037871241569519, -0.013276916928589344, -0.015573881566524506, -0.017694706097245216, -0.01969536393880844, -0.021084927022457123, -0.021732080727815628, -0.021366985514760017, -0.019547773525118828, -0.016453465446829796], [-0.020077930763363838, -0.021235810592770576, -0.022484391927719116, -0.02377784065902233, -0.025046871975064278, -0.02622072584927082, -0.027275878936052322, -0.02812786027789116, -0.028765177354216576, -0.029227791354060173, -0.029525255784392357, -0.02972923219203949, -0.029875991865992546, -0.030019747093319893, -0.030253984034061432, -0.030620373785495758], [-0.0018422544235363603, -0.002446333412081003, -0.0036991992965340614, -0.005513658747076988, -0.007709041237831116, -0.009982411749660969, -0.012138301506638527, -0.014142168685793877, -0.015941478312015533, -0.017574578523635864, -0.019063225015997887, -0.02055034600198269, -0.02199580892920494, -0.0232086144387722, -0.02412443421781063, -0.024593930691480637], [0.02081412449479103, 0.021560464054346085, 0.02245580591261387, 0.02347329817712307, 0.02459263987839222, 0.025837529450654984, 0.02699907310307026, 0.028064318001270294, 0.028924014419317245, 0.029483018442988396, 0.029811961576342583, 0.0298464298248291, 0.02950257621705532, 0.028833502903580666, 0.02786935865879059, 0.026715870946645737], [-0.000526248593814671, 3.9562524762004614e-05, 0.00045963359298184514, 0.0007385981734842062, 0.00076668820111081, 0.0006059752777218819, 0.0002676398726180196, -0.000322046282235533, -0.0011141165159642696, -0.0021283451933413744, -0.00337160169146955, -0.004707980901002884, -0.00608301954343915, -0.007404959294945002, -0.008520779199898243, -0.009476374834775925], [-0.00486084446310997, -0.005834793671965599, -0.006785950157791376, -0.007606321480125189, -0.008195261470973492, -0.00855492614209652, -0.008707626722753048, -0.008724730461835861, -0.008691131137311459, -0.008615142665803432, -0.008536705747246742, -0.008418083190917969, -0.008214110508561134, -0.007875611074268818, -0.007314654067158699, -0.006506053730845451], [0.012367487885057926, 0.013937633484601974, 0.015493334271013737, 0.016780059784650803, 0.017471980303525925, 0.017067959532141685, 0.015314496122300625, 0.011920755729079247, 0.007019487209618092, 0.0010976785561069846, -0.00531338807195425, -0.011489203199744225, -0.016730323433876038, -0.020228587090969086, -0.021236183121800423, -0.019484419375658035], [-0.010750536806881428, -0.009495205245912075, -0.00822911225259304, -0.007094946224242449, -0.0062456075102090836, -0.00572226895019412, -0.005576598923653364, -0.005694828927516937, -0.0060407137498259544, -0.006581009365618229, -0.007182483561336994, -0.007876107469201088, -0.008644900284707546, -0.009602261707186699, -0.01095204334706068, -0.0129179572686553], [0.0008114285301417112, 0.0007361616590060294, 0.000647945620585233, 0.0005497789825312793, 0.0004459233023226261, 0.0003399152192287147, 0.00023445574333891273, 0.0001309886429226026, 3.484370245132595e-05, -5.6798511650413275e-05, -0.00014470616588369012, -0.00022580294171348214, -0.0003046186757273972, -0.00037868035724386573, -0.0004562732356134802, -0.0005393460160121322], [-0.014305341057479382, -0.018947141245007515, -0.02256646938621998, -0.024951757863163948, -0.026133868843317032, -0.02629753202199936, -0.025724612176418304, -0.02474048361182213, -0.02353358268737793, -0.022263864055275917, -0.020965954288840294, -0.019629191607236862, -0.01826111599802971, -0.0170139130204916, -0.01627334952354431, -0.016469592228531837], [-0.005559142213314772, -0.004916845820844173, -0.004349684342741966, -0.003909750375896692, -0.003628132399171591, -0.0034893746487796307, -0.00350305438041687, -0.0036195251159369946, -0.003829419147223234, -0.004087954759597778, -0.004356459714472294, -0.004602045752108097, -0.00481091532856226, -0.004973857197910547, -0.005096444860100746, -0.005183688830584288], [0.0005853621405549347, 0.000547070347238332, 0.00050483358791098, 0.0004629449103958905, 0.0004215933149680495, 0.00037877235445193946, 0.0003330712497700006, 0.0002802882227115333, 0.00021963371546007693, 0.00015163718489930034, 7.782626198604703e-05, 1.0857773304451257e-05, -3.29524846165441e-05, -4.1288716602139175e-05, -5.0134549383074045e-06, 7.870413537602872e-05], [-0.03796406090259552, -0.028471259400248528, -0.018751265481114388, -0.009448339231312275, -0.0011732866987586021, 0.005553572438657284, 0.010688267648220062, 0.014302188530564308, 0.01679026335477829, 0.019027724862098694, 0.02192802168428898, 0.02648252062499523, 0.03351335972547531, 0.043309226632118225, 0.05580581724643707, 0.07030332833528519], [-0.019718559458851814, -0.02313041128218174, -0.028782524168491364, -0.036789488047361374, -0.04673798009753227, -0.057573020458221436, -0.06817847490310669, -0.07717912644147873, -0.0837295651435852, -0.08738362789154053, -0.0878998190164566, -0.08591768145561218, -0.08212976157665253, -0.07759720087051392, -0.07366345077753067, -0.07141678780317307], [0.00018097326392307878, 0.00019959047494921833, 0.00020215621043462306, 0.00018784127314575016, 0.00015249065472744405, 9.769110329216346e-05, 2.6946696380036883e-05, -5.4948643082752824e-05, -0.0001410649565514177, -0.00022450252436101437, -0.00030140482704155147, -0.00036421429831534624, -0.00041080007213167846, -0.0004373799602035433, -0.00044611902558244765, -0.00043792478390969336], [-0.06309235095977783, -0.05278392881155014, -0.039545074105262756, -0.024175481870770454, -0.007947629317641258, 0.0075775752775371075, 0.020924976095557213, 0.030665887519717216, 0.03597813844680786, 0.0363406166434288, 0.03145254775881767, 0.021619830280542374, 0.00748030049726367, -0.010057086125016212, -0.02997758984565735, -0.05090327933430672], [-0.009135887026786804, -0.009722782298922539, -0.010478874668478966, -0.011384756304323673, -0.012418425641953945, -0.013553246855735779, -0.014660697430372238, -0.015670018270611763, -0.01653910242021084, -0.01724236086010933, -0.01783941313624382, -0.01841711811721325, -0.019080663099884987, -0.020010270178318024, -0.021302295848727226, -0.02300494723021984], [0.024577710777521133, 0.026223648339509964, 0.02759089134633541, 0.028515681624412537, 0.028779389336705208, 0.028430385515093803, 0.027435507625341415, 0.025881227105855942, 0.02387644723057747, 0.021605605259537697, 0.01925394870340824, 0.016958927735686302, 0.014808434061706066, 0.012901382520794868, 0.011343716643750668, 0.01006169244647026], [0.006241949275135994, 0.00606950931251049, 0.005889614578336477, 0.005700507666915655, 0.005442806053906679, 0.0051809269934892654, 0.004922098945826292, 0.004645459819585085, 0.004373600240796804, 0.004067692905664444, 0.003714651335030794, 0.003319820621982217, 0.002910554176196456, 0.0025107029359787703, 0.0021694055758416653, 0.0018488822970539331], [0.004208412487059832, 0.004520779941231012, 0.004558101762086153, 0.004347493872046471, 0.0038788779638707638, 0.0033382463734596968, 0.002740298630669713, 0.002216682769358158, 0.001831200672313571, 0.0015851130010560155, 0.0015025601023808122, 0.0015643845545127988, 0.0017354496521875262, 0.0019898051396012306, 0.0022171377204358578, 0.002319477731361985]], "lstm.weight_hh_l0": [[0.004869393538683653, 0.003956910222768784, 0.0761287733912468, -0.032439250499010086, -0.04063433036208153, -0.0828271359205246, -0.056681256741285324, 0.2089230865240097, -0.05614624172449112, -0.007314257323741913, -0.012704466469585896, 0.056954581290483475, 0.04331129416823387, 0.0424560010433197, 0.103692427277565, 0.003910267259925604, 0.0013783150352537632, -0.0764911100268364, 0.068900927901268, 0.10467541217803955, -0.005157252307981253, -0.002586181042715907, 0.0026450883597135544, -0.005807624198496342, -0.05405498668551445, 0.09098893404006958, 0.07598713040351868, -0.005762170068919659, 0.03243336081504822, 0.06367024779319763, 0.3038955330848694, 0.0740559920668602, 0.13482700288295746, 0.032795943319797516, 0.003232493530958891, 0.05539539456367493, -0.15761727094650269, -0.2699393630027771, 0.03739297389984131, 0.009219618514180183, 0.12049172818660736, 0.0002121515281032771, -0.13594810664653778, 0.03620128333568573, 0.06584280729293823, -0.05695413425564766, 0.3370705544948578, -0.023830316960811615, -0.06251019239425659, 0.026586469262838364, -0.20373685657978058, 0.04436232149600983, -0.0026501824613660574, 0.28376758098602295, 0.04129099100828171, -0.00855786632746458, 0.030015988275408745, 0.11665517091751099, 0.017253465950489044, 0.16809117794036865, -0.07943741232156754, 0.058180440217256546, -0.06636729836463928, 0.10714391618967056], [0.007221069652587175, -0.0007990256999619305, -0.0013016881421208382, 0.0064321826212108135, 0.00170998671092093, 0.0031778865959495306, 0.0020305810030549765, -0.011546620167791843, 0.0004295721009839326, 0.0006388715701177716, -4.687440741690807e-05, -0.00015406127204187214, -0.0019269154872745275, -0.002448487561196089, 0.015427914448082447, 0.001292063039727509, -0.0006567816599272192, 0.004075516015291214, 0.018486857414245605, 0.004616898484528065, -0.00017886774730868638, -0.00030162138864398, -0.00262677320279181, -0.00013595969357993454, 0.009316343814134598, 0.0005915057845413685, -0.023134924471378326, 0.00021476135589182377, -0.00044973462354391813, 0.0014221619348973036, 0.0058106714859604836, 0.012853647582232952, -0.008547044359147549, 0.016561444848775864, 0.0015109056839719415, -0.0024387440644204617, -0.005927927326411009, -0.0118442727252841, 9.98317264020443e-05, 7.188603922259063e-05, -0.0025688763707876205, -0.0004804972850251943, 0.002182038500905037, -0.00172320450656116, -0.0010692240903154016, -0.0005624202894978225, 0.00804145261645317, 0.004507921636104584, -0.0003300936077721417, -0.0013379534939303994, -0.0021082640159875154, -0.005268734879791737, -0.0005104797892272472, -0.0002988175256177783, -0.0012155583826825023, 0.0002585706242825836, -0.006807736586779356, 0.004817641340196133, -0.0001914084714371711, 0.008947186172008514, 0.002511694561690092, -0.003198714228346944, -0.0010807137005031109, 0.0034681460820138454], [-0.005587591789662838, -0.010844486765563488, -0.039434704929590225, -0.09893728792667389, -0.008758099749684334, 0.0136096877977252, 0.012014701031148434, 0.2592214047908783, -0.024090386927127838, 0.008739148266613483, 0.0003358104731887579, 0.01667114533483982, 0.02592020481824875, -0.04504956677556038, -0.308623343706131, -0.015263273380696774, -0.00038383848732337356, 0.018530329689383507, 0.034165870398283005, 0.08281438797712326, 0.019385501742362976, 0.00305399252101779, 0.02785312756896019, -0.017816703766584396, -0.09195616841316223, -0.02356671169400215, 0.4413946866989136, -0.15533794462680817, 0.003595635062083602, -0.03954428434371948, 0.15558229386806488, -0.30400630831718445, 0.12879319489002228, -0.24143294990062714, -0.07287437468767166, 0.1411605328321457, 0.1495932936668396, 0.2630656361579895, -0.012791024520993233, -0.0028565465472638607, 0.08673414587974548, -0.005520289298146963, 0.1376708447933197, 0.01757572591304779, -0.10936864465475082, 0.013939840719103813, 0.011008957400918007, 0.033914413303136826, -0.013120874762535095, 0.030366871505975723, -0.03746600076556206, 0.08203717321157455, 0.00429354514926672, -0.3335076570510864, -0.012277992442250252, 0.00554780475795269, 0.061728302389383316, 0.05578276887536049, -0.004343022126704454, 0.08566990494728088, 0.014165033586323261, 0.03685908392071724, 0.0041477493941783905, -0.012927627190947533], [-0.005912605673074722, 0.0029497090727090836, 0.24637743830680847, -0.06296799331903458, -0.038774728775024414, -0.035986971110105515, 0.21800439059734344, -0.07754597812891006, -0.04335591942071915, -0.010955209843814373, -0.01306553278118372, -0.08612709492444992, 0.03831734508275986, -0.0601431280374527, 0.021674547344446182, -0.01037386804819107, 0.0027937034610658884, 0.06755907088518143, 0.14186304807662964, -0.049304306507110596, -0.018039466813206673, -0.008842602372169495, 0.04103882983326912, 0.001816535135731101, 0.04485008493065834, 0.2029174119234085, -0.13269591331481934, -0.11641781032085419, 0.01015731692314148, -0.037297531962394714, 0.15746262669563293, 0.0682869479060173, -0.04500243440270424, 0.07549974322319031, 0.13736645877361298, 0.13741357624530792, -0.06795144081115723, -0.07105117291212082, 0.04342082142829895, 0.0017768429825082421, 0.059665314853191376, -0.01473475992679596, -0.024472180753946304, 0.012699238955974579, -0.1410960853099823, -0.05471747741103172, 0.11647012084722519, -0.06458806991577148, 0.023761799558997154, 0.02498653717339039, -0.0457737036049366, -0.003907793201506138, 0.010273491963744164, -0.05850542336702347, 0.0037891920655965805, 0.012519696727395058, -0.12165971100330353, 0.15861468017101288, 0.008212300017476082, -0.05657577887177467, 0.036814749240875244, -0.04694687947630882, -0.026299064978957176, -0.032675519585609436], [-0.019656576216220856, 0.000991210457868874, -0.04999383166432381, 0.024967998266220093, -0.009591074660420418, -0.035869352519512177, 0.03098527528345585, 0.01816142350435257, -0.0041175903752446175, 0.0022402687463909388, -0.004173531662672758, -0.017130576074123383, 0.013135922141373158, 0.006395640783011913, 0.0390477254986763, -0.0014305264921858907, -0.00048182031605392694, 0.005461166147142649, 0.06678726524114609, 0.003149989992380142, 0.00041136142681352794, 0.00032272879616357386, -0.025973891839385033, -0.00013097237388137728, 0.013494539074599743, -0.010567303746938705, -0.0964181050658226, 0.014566553756594658, -0.0027468178886920214, -0.014951779507100582, 0.005024038255214691, 0.058485325425863266, -0.04247286915779114, 0.05144400894641876, -0.031432490795850754, 0.021968932822346687, -0.07824670523405075, -0.049984876066446304, 0.01588236726820469, -0.00134177110157907, -0.024270078167319298, -0.0033329653088003397, 0.02069231867790222, 0.00035721276071853936, -0.04008927568793297, -0.019585387781262398, 0.0937098041176796, -0.028697120025753975, 0.028933877125382423, 0.006342536304146051, -0.0022284938022494316, -0.0006276782951317728, 0.0003552401904016733, 0.013188316486775875, 0.019647810608148575, 0.0003325238067191094, -0.021871430799365044, 0.03742174059152603, 0.0020236524287611246, 0.06307724863290787, -0.011838780716061592, -0.03491342067718506, 0.017837639898061752, 0.005835410673171282], [0.008159372955560684, 0.007270342670381069, -0.2501416802406311, -0.008363628759980202, 0.010686005465686321, -0.09580952674150467, 0.029585761949419975, -0.1152157187461853, -0.01975533738732338, -0.0041141631081700325, -0.011656214483082294, 0.07947495579719543, -0.010229039937257767, -0.06673042476177216, 0.09338957816362381, 0.01243723463267088, 