{"lstm.weight_ih_l0": [[0.17051437497138977, 0.16038045287132263, 0.14563380181789398, 0.12831918895244598, 0.1105181947350502, 0.09344508498907089, 0.07828772813081741, 0.06647975742816925, 0.0584091991186142, 0.054282739758491516, 0.05318331718444824, 0.054610833525657654, 0.057228054851293564, 0.060472242534160614, 0.06296694278717041, 0.06467608362436295], [0.015211226418614388, 0.01434570737183094, 0.013385547325015068, 0.012300054542720318, 0.011068038642406464, 0.009681768715381622, 0.008138385601341724, 0.006447845604270697, 0.004620649386197329, 0.0026782844215631485, 0.0006163091165944934, -0.0015507880598306656, -0.0038359302561730146, -0.006271666847169399, -0.008843781426548958, -0.011575757525861263], [0.08264334499835968, 0.06427384912967682, 0.03907698765397072, 0.008306954987347126, -0.026519019156694412, -0.0631643608212471, -0.09992668777704239, -0.13470682501792908, -0.16577184200286865, -0.1915021389722824, -0.2100628763437271, -0.22037182748317719, -0.22168505191802979, -0.21372994780540466, -0.19657549262046814, -0.1713009625673294], [-0.06534536927938461, -0.06132114678621292, -0.05690419673919678, -0.052116598933935165, -0.04708494246006012, -0.041955363005399704, -0.036926329135894775, -0.03222839906811714, -0.027986934408545494, -0.0243147574365139, -0.021148573607206345, -0.018291134387254715, -0.01558566652238369, -0.012818563729524612, -0.009748988784849644, -0.006267902906984091], [-0.03186487779021263, -0.033367887139320374, -0.0333235003054142, -0.031496427953243256, -0.027790436521172523, -0.022353651002049446, -0.015477473847568035, -0.007766352035105228, 1.3354903785511851e-05, 0.006980102974921465, 0.012156687676906586, 0.01467224396765232, 0.013869562186300755, 0.00937588419765234, 0.001168390386737883, -0.010398194193840027], [-0.07932525873184204, -0.08877655863761902, -0.09693266451358795, -0.10368375480175018, -0.10897347331047058, -0.11287108063697815, -0.11536559462547302, -0.11645185202360153, -0.1161297932267189, -0.11442876607179642, -0.11150316894054413, -0.10753463953733444, -0.10276535153388977, -0.09745947271585464, -0.09192072600126266, -0.08634325116872787], [0.054604776203632355, 0.007238379213958979, -0.04525737464427948, -0.09726376831531525, -0.14265410602092743, -0.17509815096855164, -0.191941037774086, -0.19186511635780334, -0.17633497714996338, -0.1491708606481552, -0.1143302321434021, -0.07781481742858887, -0.04476771503686905, -0.020260052755475044, -0.008304517716169357, -0.009538295678794384], [0.4312960207462311, 0.35072028636932373, 0.2601899206638336, 0.16734826564788818, 0.07975320518016815, 0.004330997355282307, -0.05424472317099571, -0.0933864638209343, -0.11239516735076904, -0.11230819672346115, -0.09511631727218628, -0.0647277757525444, -0.02569270133972168, 0.01611870527267456, 0.05511420592665672, 0.08538030087947845], [-0.06148703768849373, -0.056620996445417404, -0.053535159677267075, -0.052433546632528305, -0.05309802666306496, -0.055321354418992996, -0.058694787323474884, -0.06258425116539001, -0.0665077418088913, -0.0698135495185852, -0.07211948186159134, -0.0731765478849411, -0.0728386789560318, -0.07114831358194351, -0.06834621727466583, -0.06473156809806824], [0.055882785469293594, 0.056414417922496796, 0.05630331486463547, 0.05512257665395737, 0.05290531739592552, 0.049386169761419296, 0.04465630650520325, 0.038669709116220474, 0.03141174092888832, 0.023267678916454315, 0.014325794763863087, 0.005127844400703907, -0.004378479905426502, -0.013884316198527813, -0.022892313078045845, -0.03122302144765854], [-0.09217562526464462, -0.1077834889292717, -0.12169800698757172, -0.1333252191543579, -0.14178583025932312, -0.1460287719964981, -0.14536355435848236, -0.1386721432209015, -0.12552852928638458, -0.10589200258255005, -0.07992954552173615, -0.04886509105563164, -0.013982615433633327, 0.02300577238202095, 0.06027812883257866, 0.09655983746051788], [-0.01213711965829134, -0.01857793889939785, -0.024904653429985046, -0.030467499047517776, -0.035099517554044724, -0.03867746889591217, -0.04138103500008583, -0.0433647520840168, -0.044740576297044754, -0.04560437425971031, -0.045914892107248306, -0.04548829793930054, -0.043990399688482285, -0.041043974459171295, -0.0364079549908638, -0.030170418322086334], [-0.03103765659034252, -0.030158672481775284, -0.029912453144788742, -0.02976747415959835, -0.029335249215364456, -0.028352560475468636, -0.026961179450154305, -0.025332046672701836, -0.023472148925065994, -0.021503249183297157, -0.019401507452130318, -0.016830118373036385, -0.013396503403782845, -0.008770213462412357, -0.002676980337128043, 0.005091352388262749], [-0.09176918119192123, -0.08228152990341187, -0.07076350599527359, -0.057132989168167114, -0.04188702628016472, -0.026002099737524986, -0.010761795565485954, 0.0025566169060766697, 0.012942103669047356, 0.019392622634768486, 0.020927567034959793, 0.017432618886232376, 0.008903221227228642, -0.003884438658133149, -0.020099524408578873, -0.0384678915143013], [-0.07329917699098587, -0.060322441160678864, -0.05058634281158447, -0.04552573710680008, -0.04626638814806938, -0.05237894132733345, -0.06350976228713989, -0.07888281345367432, -0.09725572168827057, -0.1171194389462471, -0.1365566998720169, -0.1538930982351303, -0.16753777861595154, -0.17622095346450806, -0.17926587164402008, -0.17643770575523376], [-0.08475372195243835, -0.08099552989006042, -0.07719265669584274, -0.07390939444303513, -0.07160963863134384, -0.07078168541193008, -0.071624256670475, -0.07404167950153351, -0.07781131565570831, -0.0824456438422203, -0.08747958391904831, -0.09232586622238159, -0.09654325246810913, -0.09978310763835907, -0.10186082869768143, -0.10274406522512436], [-0.06361580640077591, -0.06041759252548218, -0.05344333127140999, -0.044045545160770416, -0.0329391248524189, -0.022036045789718628, -0.012030751444399357, -0.0038423873484134674, 0.002159140072762966, 0.006173079367727041, 0.008464592508971691, 0.008915616199374199, 0.007751372642815113, 0.004932837560772896, 0.0007965094409883022, -0.0039123366586863995], [-0.5812936425209045, -1.0798720121383667, -1.5666389465332031, -2.0507147312164307, -2.498189687728882, -2.900942087173462, -3.2194766998291016, -3.43760347366333, -3.56241512298584, -3.620605945587158, -3.6863327026367188, -3.8593318462371826, -4.251650333404541, -4.959025859832764, -6.044700622558594, -7.5118794441223145], [0.7699518203735352, 1.4675401449203491, 2.0749335289001465, 2.5336365699768066, 2.8168509006500244, 2.9213716983795166, 2.8639168739318848, 2.6723530292510986, 2.3832552433013916, 2.0348246097564697, 1.6616190671920776, 1.2858413457870483, 0.9179198145866394, 0.5671018362045288, 0.23376770317554474, -0.07754842936992645], [-0.7237565517425537, -0.7599945664405823, -0.7872189283370972, -0.8048730492591858, -0.8087500929832458, -0.7975791692733765, -0.7666745185852051, -0.7159867882728577, -0.6484944820404053, -0.5701920986175537, -0.49219968914985657, -0.4315391182899475, -0.4048094153404236, -0.4280490279197693, -0.5108673572540283, -0.6547889709472656], [-0.4237637519836426, -0.2897547483444214, -0.12611903250217438, 0.03502345457673073, 0.18505139648914337, 0.30778738856315613, 0.4014189541339874, 0.4568902850151062, 0.45353513956069946, 0.369414746761322, 0.1672646552324295, -0.20266340672969818, -0.7833062410354614, -1.6040841341018677, -2.6755833625793457, -3.9696309566497803], [-0.6553701758384705, -0.6262214779853821, -0.5936465263366699, -0.5614438056945801, -0.5348274111747742, -0.51683509349823, -0.5117425322532654, -0.5221842527389526, -0.5498418807983398, -0.5943751335144043, -0.651016354560852, -0.7138698697090149, -0.7751125693321228, -0.8277610540390015, -0.8647570610046387, -0.8854871392250061], [-0.12557800114154816, 0.1924985647201538, 0.4729699194431305, 0.685867965221405, 0.8093293309211731, 0.8467056155204773, 0.7998417019844055, 0.6789751648902893, 0.4992370903491974, 0.27908581495285034, 0.04615112394094467, -0.17713558673858643, -0.3691489100456238, -0.5101738572120667, -0.5889826416969299, -0.6002339720726013], [0.15285451710224152, 0.11684908717870712, 0.0795898362994194, 0.04434637352824211, 0.01433553360402584, -0.008632083423435688, -0.023811543360352516, -0.03130941838026047, -0.032324016094207764, -0.028217671439051628, -0.021033409982919693, -0.012537898495793343, -0.004229772835969925, 0.002959847217425704, 0.00798514299094677, 0.010471051558852196], [0.0774453729391098, 0.07665124535560608, 0.0680532306432724, 0.05227874964475632, 0.03077838197350502, 0.0052635851316154, -0.021283604204654694, -0.04578645899891853, -0.0653032436966896, -0.07798527926206589, -0.0827525407075882, -0.07992341369390488, -0.07079189270734787, -0.05743942782282829, -0.04197664186358452, -0.026334291324019432], [-0.09697931259870529, -0.061689380556344986, -0.024507787078619003, 0.01220291294157505, 0.04706219956278801, 0.07862227410078049, 0.10603361576795578, 0.1286241114139557, 0.14600329101085663, 0.15811799466609955, 0.16411590576171875, 0.16316919028759003, 0.15417546033859253, 0.13517534732818604, 0.10579075664281845, 0.06532373279333115], [-0.08761481940746307, -0.002075390424579382, 0.08169279992580414, 0.15858301520347595, 0.22308146953582764, 0.2712768614292145, 0.29986652731895447, 0.30761533975601196, 0.2951411008834839, 0.26470819115638733, 0.2213563472032547, 0.170376718044281, 0.11764698475599289, 0.0687437504529953, 0.02803119085729122, -0.0020583192817866802], [-0.2285904437303543, -0.23066288232803345, -0.23440279066562653, -0.2387542873620987, -0.2435387521982193, -0.24807770550251007, -0.25255095958709717, -0.256906658411026, -0.2608543038368225, -0.2638375759124756, -0.2646687626838684, -0.26170599460601807, -0.2534763514995575, -0.23880629241466522, -0.21687385439872742, -0.18857185542583466], [-0.033743198961019516, -0.030263353139162064, -0.02397603541612625, -0.014303146861493587, -0.0008681814651936293, 0.016178473830223083, 0.03628455847501755, 0.058213744312524796, 0.08033441007137299, 0.10070203989744186, 0.11724407225847244, 0.12803976237773895, 0.13162781298160553, 0.1271449327468872, 0.11443193256855011, 0.09425988793373108], [-0.19051827490329742, -0.16622167825698853, -0.13851918280124664, -0.10998978465795517, -0.08317442238330841, -0.06063941866159439, -0.043265532702207565, -0.0313604362308979, -0.023972680792212486, -0.019523341208696365, -0.01650899276137352, -0.012952628545463085, -0.007256244774907827, 0.001956441905349493, 0.015109134837985039, 0.032697297632694244], [0.3840671479701996, 0.4580233693122864, 0.5187724232673645, 0.5571178793907166, 0.5691826343536377, 0.5566930174827576, 0.5228703022003174, 0.47336122393608093, 0.41179409623146057, 0.3427332043647766, 0.2710339426994324, 0.19734379649162292, 0.12221095710992813, 0.044487547129392624, -0.036349907517433167, -0.12042371928691864], [-0.004297497216612101, -0.03723430261015892, -0.0662045106291771, -0.08792594820261002, -0.10111470520496368, -0.10590770095586777, -0.10331938415765762, -0.09518345445394516, -0.08267725259065628, -0.06725197285413742, -0.05034191906452179, -0.03202984482049942, -0.012568713165819645, 0.008312704041600227, 0.030644262209534645, 0.053962524980306625]], "lstm.weight_hh_l0": [[0.024359799921512604, -0.40498408675193787, -0.5132813453674316, 2.0665884017944336, -1.9882440567016602, 0.2945651113986969, 1.2146445512771606, -0.8592617511749268], [0.3300756514072418, 0.13594277203083038, -0.14161285758018494, -0.519676923751831, -0.03673486039042473, -0.7208817005157471, 0.4163130819797516, 0.8838266134262085], [0.8130868673324585, -0.2929104268550873, 0.2705383598804474, -1.3675451278686523, -0.8035756349563599, -1.1094110012054443, 0.3036337196826935, 1.3130688667297363], [0.6277938485145569, 0.32689130306243896, -0.23879601061344147, -0.2829856872558594, 0.1032804474234581, -0.42870426177978516, 0.3617343008518219, 0.6153467297554016], [0.10006541013717651, -0.010223629884421825, 0.18522775173187256, -0.3928491175174713, 0.09087607264518738, -0.6006518006324768, 0.3635971248149872, 0.36264923214912415], [-0.09349440783262253, -0.0280881617218256, 0.05656615272164345, -0.47532832622528076, 0.27506154775619507, -0.014267774298787117, 0.13230259716510773, 0.4183875024318695], [0.19754375517368317, 0.0509614460170269, 0.1711636483669281, 0.7962585091590881, -0.6086089611053467, -0.40386489033699036, 0.2724088132381439, 0.822219729423523], [-0.39432579278945923, -0.756635308265686, -0.26178792119026184, -0.13808196783065796, 0.09779200702905655, 0.13215787708759308, 0.00013945242972113192, -0.6085914969444275], [-0.3888571858406067, -0.6242683529853821, 0.008504190482199192, 0.9598712921142578, 0.6126910448074341, -0.5155415534973145, 0.7086753845214844, 0.7621345520019531], [1.730820894241333, 0.691174328327179, -0.6471763849258423, 0.4017128646373749, 0.01730569265782833, 0.5343749523162842, -0.18301130831241608, 0.5122959017753601], [0.21244122087955475, -0.2984309494495392, -0.3188737630844116, 0.0710032731294632, -0.190652534365654, 0.18494069576263428, -0.26512452960014343, -0.3546755015850067], [1.3311647176742554, 0.3853762745857239, -0.6207339763641357, -0.14513282477855682, -0.5365839004516602, -0.13432516157627106, 0.41407448053359985, 0.15464772284030914], [1.39226233959198, -0.12533047795295715, -0.181715726852417, 0.20461498200893402, -0.5263609290122986, -0.3270631730556488, 0.35267373919487, -0.04795588552951813], [0.7356364130973816, 0.07770596444606781, 0.020887097343802452, 0.8033466339111328, -0.5008983612060547, 0.6144064664840698, -0.3240596055984497, -0.15438345074653625], [0.4051559567451477, -0.27133461833000183, 0.3520123362541199, 0.9482287764549255, -0.6641573309898376, 0.16484536230564117, 0.27037155628204346, -0.31916481256484985], [0.575053334236145, 0.33339613676071167, -0.20946146547794342, -1.3328083753585815, -0.11717580258846283, -0.6495952010154724, 0.5671419501304626, 0.49304842948913574], [0.5054884552955627, 0.854917585849762, 1.900209665298462, -0.8941993117332458, 1.0065282583236694, -0.23034881055355072, -0.04163701832294464, 0.10386470705270767], [-0.11990302056074142, 0.29436272382736206, 0.611160159111023, -0.2238139808177948, 0.2580065131187439, 0.154340922832489, 2.238178253173828, -0.9207630157470703], [-0.18038557469844818, -5.551973342895508, -1.6202569007873535, -0.8259643912315369, -2.544316291809082, 0.5126993060112, -1.2968509197235107, 0.8651815056800842], [0.7213013768196106, 1.499678611755371, 0.7410550117492676, 0.03148118034005165, 1.450300693511963, 0.29017627239227295, -0.9143397808074951, 0.7098510265350342], [-0.4797237515449524, -0.32372042536735535, -0.575091540813446, 0.24096089601516724, -0.431867778301239, -0.43023476004600525, -0.035371698439121246, 0.040190890431404114], [-0.5877247452735901, 3.0152955055236816, 0.3893793821334839, 0.1563376933336258, 1.1454824209213257, -0.6835280060768127, -0.02346397005021572, -0.5478735566139221], [-0.07780464738607407, 1.2622920274734497, 0.9668973684310913, -0.049471352249383926, 0.5818739533424377, -0.32872578501701355, 0.4775712192058563, -0.28425729274749756], [0.3505181670188904, 1.5500565767288208, -1.0952008962631226, 0.3691992461681366, 0.6775165796279907, 0.04666000232100487, 0.06809215247631073, 0.19141407310962677], [0.3645452558994293, -1.0976855754852295, -0.15850646793842316, 0.5867708921432495, -0.5491136908531189, -0.17564299702644348, 0.3890588879585266, 0.9601497054100037], [2.0512380599975586, 0.2873137295246124, -0.38859716057777405, -0.196934774518013, 0.3239906430244446, -0.9672215580940247, 0.8388943672180176, 1.4446697235107422], [0.3285587430000305, 0.9742273688316345, -0.5642735362052917, 1.2814879417419434, 0.861251175403595, -0.5654028058052063, 0.48388978838920593, 1.107438087463379], [1.3551594018936157, 1.278496503829956, -0.05885317921638489, -0.5000078082084656, -0.8521081805229187, -1.1034876108169556, 0.47301989793777466, 0.9484772086143494], [0.40571171045303345, -0.059552133083343506, 0.15349943935871124, -0.5018535256385803, 0.044303856790065765, -0.6900800466537476, 0.21672305464744568, 0.4279608726501465], [1.651482343673706, -0.19762268662452698, -0.11579851061105728, -0.7132577300071716, 0.4007625877857208, -0.3840559720993042, 0.10526420176029205, 1.8977892398834229], [0.2526007294654846, -0.21403110027313232, 0.3748830258846283, 0.002188923768699169, -0.6496956944465637, 0.5477221012115479, -0.10671643167734146, 0.3346271812915802], [0.09484252333641052, 0.6159017086029053, -0.9860460758209229, 0.12453188747167587, -0.19561144709587097, -0.2639125883579254, 0.5999227166175842, 0.13926303386688232]], "lstm.bias_ih_l0": [-0.8214967250823975, 1.7183672189712524, 0.8206850290298462, 0.5761433839797974, 1.0920705795288086, 1.053821325302124, -0.8679791688919067, -1.1146464347839355, 1.380885362625122, -0.8494489789009094, -0.7142215371131897, 0.32911738753318787, -0.636003851890564, 0.06419256329536438, 1.654866337776184, 1.5669721364974976, -0.10081954300403595, 0.17358876764774323, -0.02624339610338211, -0.18331001698970795, 0.05107608810067177, -0.02320793829858303, -0.08675292134284973, 0.049788948148489, 0.6368409991264343, 0.02826925925910473, 0.5132896900177002, -0.1776047945022583, 0.9085842967033386, 0.5094862580299377, 0.7119227051734924, 0.9032003283500671], "lstm.bias_hh_l0": [-0.7699033617973328, 1.718367338180542, 0.8175238966941833, 0.575381338596344, 1.092069149017334, 1.0501490831375122, -0.7891594767570496, -0.9959207773208618, 1.2743042707443237, -0.86598140001297, -0.7088554501533508, 0.3296087384223938, -0.6377224326133728, -0.05127626657485962, 1.6822165250778198, 1.4852269887924194, -0.25612369179725647, -0.11756841093301773, -0.07812338322401047, -0.22232159972190857, -0.08941245824098587, -0.43201032280921936, 0.01289090234786272, 0.05009840801358223, 0.6355559229850769, -0.0019983085803687572, 0.6463514566421509, -0.09144578129053116, 0.9083473086357117, 0.532829999923706, 0.7108747363090515, 0.9249153137207031], "dense.weight": [[-0.06069543585181236, 0.8507404327392578, 2.05844783782959, 0.13460487127304077, 0.07213588058948517, 0.3629695475101471, -0.01441273745149374, 0.26672419905662537], [0.03009629435837269, 0.567379355430603, 2.1207287311553955, 0.062045689672231674, 0.06745774298906326, 0.5909569263458252, 0.026126163080334663, 0.31231531500816345], [0.10885385423898697, 0.24167954921722412, 2.1285898685455322, -0.015618653036653996, 0.053598906844854355, 0.7839611768722534, 0.05974342301487923, 0.3477873206138611], [0.17239350080490112, -0.12252923101186752, 2.0796284675598145, -0.09755230695009232, 0.031161822378635406, 0.9366599321365356, 0.08565150201320648, 0.37268969416618347], [0.22022971510887146, -0.5188292264938354, 1.977033019065857, -0.182357057929039, 0.0005494619254022837, 1.0491211414337158, 0.10374554991722107, 0.38787388801574707], [0.25344112515449524, -0.9378144145011902, 1.8283212184906006, -0.268087238073349, -0.037916410714387894, 1.1251280307769775, 0.11497615277767181, 0.39506831765174866], [0.2736767828464508, -1.3653022050857544, 1.6444159746170044, -0.3520200252532959, -0.08338610082864761, 1.1699236631393433, 0.12027662247419357, 0.3963596224784851], [0.28230273723602295, -1.7844780683517456, 1.4369075298309326, -0.43063682317733765, -0.1350966840982437, 1.1883647441864014, 0.11996874958276749, 0.3940058946609497], [0.28021806478500366, -2.1787474155426025, 1.2168680429458618, -0.5002117156982422, -0.19294680655002594, 1.1854779720306396, 0.11452982574701309, 0.39050593972206116], [0.2683545649051666, -2.5340709686279297, 0.9943379163742065, -0.557823896408081, -0.25595250725746155, 1.1659964323043823, 0.10510321706533432, 0.38828834891319275], [0.2480621486902237, -2.8411900997161865, 0.7772446870803833, -0.6016671061515808, -0.3225456774234772, 1.1339274644851685, 0.0924835130572319, 0.3884953558444977], [0.22084905207157135, -3.0973219871520996, 0.5702415704727173, -0.6317612528800964, -0.3904303014278412, 1.0922775268554688, 0.07739884406328201, 0.3915959298610687], [0.18819722533226013, -3.3042640686035156, 0.3753682076931, -0.6490592956542969, -0.45765912532806396, 1.0436569452285767, 0.060245126485824585, 0.39788761734962463], [0.15138988196849823, -3.465299367904663, 0.19367843866348267, -0.6544773578643799, -0.5226070880889893, 0.9904416799545288, 0.04176534339785576, 0.4075676202774048], [0.1114906296133995, -3.5849483013153076, 0.02555328793823719, -0.6495514512062073, -0.5836354494094849, 0.9344742298126221, 0.02301904745399952, 0.42028215527534485], [0.06939562410116196, -3.6677112579345703, -0.128909170627594, -0.6356335282325745, -0.6395222544670105, 0.8769798278808594, 0.004244448617100716, 0.43583351373672485]], "dense.bias": [0.07350229471921921, 0.11162450164556503, 0.14258037507534027, 0.1653618961572647, 0.18007734417915344, 0.18738819658756256, 0.1883787214756012, 0.1840924173593521, 0.17575444281101227, 0.16415706276893616, 0.15021273493766785, 0.1345619559288025, 0.1176750585436821, 0.09991039335727692, 0.08155553787946701, 0.0627487525343895]}