{"lstm.weight_ih_l0": [[-0.009684240445494652, -0.008854571729898453, -0.008322693407535553, -0.008177296258509159, -0.008413601666688919, -0.008932622149586678, -0.009601599536836147, -0.010223054327070713, -0.010696164332330227, -0.010908951051533222, -0.010797780938446522, -0.010413840413093567, -0.009797319769859314, -0.009100647643208504, -0.008383749052882195, -0.007773303426802158], [0.08828898519277573, 0.07393088191747665, 0.05918751284480095, 0.04507472738623619, 0.032219212502241135, 0.021068159490823746, 0.01225970033556223, 0.006284644827246666, 0.0032706349156796932, 0.0030786313582211733, 0.0054184203036129475, 0.010255866684019566, 0.016804775223135948, 0.024758702144026756, 0.03351432457566261, 0.042693283408880234], [-0.022247781977057457, -0.02346235327422619, -0.024604730308055878, -0.02564544789493084, -0.026555927470326424, -0.02736414410173893, -0.02803703397512436, -0.028593122959136963, -0.029028931632637978, -0.029348406940698624, -0.029606062918901443, -0.029796211048960686, -0.029935993254184723, -0.030056115239858627, -0.030145898461341858, -0.0302658099681139], [-0.011404216289520264, -0.009478623047471046, -0.007807514630258083, -0.0065529728308320045, -0.005806736648082733, -0.005439631640911102, -0.005360832437872887, -0.005268747918307781, -0.005123763810843229, -0.0049052247777581215, -0.00460890494287014, -0.004316022153943777, -0.0041978489607572556, -0.004539382643997669, -0.005470451898872852, -0.007202482782304287], [0.14171834290027618, 0.15231721103191376, 0.1604022979736328, 0.16605252027511597, 0.16958732903003693, 0.17159663140773773, 0.17277763783931732, 0.17397986352443695, 0.17585405707359314, 0.178916335105896, 0.18363717198371887, 0.1900206059217453, 0.19801145792007446, 0.2072586715221405, 0.21743331849575043, 0.22805066406726837], [-0.015033604577183723, -0.015224900096654892, -0.015390463173389435, -0.015537151135504246, -0.015663033351302147, -0.015758177265524864, -0.015795299783349037, -0.01575055904686451, -0.015613783150911331, -0.01536870002746582, -0.015012986026704311, -0.014552799053490162, -0.014008790254592896, -0.013406986370682716, -0.012782428413629532, -0.012167292647063732], [-0.04213682934641838, -0.03738909587264061, -0.03308269754052162, -0.02958664298057556, -0.027159756049513817, -0.02600553259253502, -0.026218809187412262, -0.027701053768396378, -0.030232828110456467, -0.03351732715964317, -0.03715755045413971, -0.04082248732447624, -0.04418517276644707, -0.0470079630613327, -0.0491170771420002, -0.05044892057776451], [0.01812772825360298, 0.017102180048823357, 0.015990864485502243, 0.01461799442768097, 0.01281773578375578, 0.010388605296611786, 0.007196242921054363, 0.003140095854178071, -0.0018347118748351932, -0.007677698507905006, -0.01430133543908596, -0.02160293236374855, -0.0293588750064373, -0.037394698709249496, -0.045438461005687714, -0.05325216054916382], [0.0017593663651496172, 0.002082960680127144, 0.0023480281233787537, 0.002520868554711342, 0.0025657652877271175, 0.0025029401294887066, 0.0023418390192091465, 0.00208084168843925, 0.0017261309549212456, 0.0013298915000632405, 0.0009467708878219128, 0.0006265862612053752, 0.00042280065827071667, 0.0003683647373691201, 0.0005000806413590908, 0.0008221163880079985], [0.029816940426826477, 0.022409919649362564, 0.014975463040173054, 0.00778567511588335, 0.0010546979028731585, -0.004904155619442463, -0.010040448047220707, -0.014291933737695217, -0.01756325736641884, -0.019919712096452713, -0.021331151947379112, -0.022049641236662865, -0.022175807505846024, -0.02178960293531418, -0.02091277204453945, -0.019600529223680496], [0.012777101248502731, 0.016345489770174026, 0.019225899130105972, 0.021116817370057106, 0.02189389429986477, 0.02158210799098015, 0.020360836759209633, 0.01850583218038082, 0.016355954110622406, 0.014336040243506432, 0.012867358513176441, 0.012307556346058846, 0.012842719443142414, 0.01455800049006939, 0.01730247214436531, 0.020832788199186325], [-0.0013222771231085062, -0.0015461195725947618, -0.0017791936406865716, -0.0020096604712307453, -0.0022326624020934105, -0.00243900204077363, -0.0026220562867820263, -0.002771701430901885, -0.0028869593515992165, -0.002957792952656746, -0.002988865366205573, -0.0029805193189531565, -0.0029388689436018467, -0.0028710393235087395, -0.0027826533187180758, -0.0026796944439411163], [0.009437320753932, 0.008378643542528152, 0.007362836971879005, 0.006453369744122028, 0.005690290592610836, 0.005075116641819477, 0.004613264463841915, 0.004273790866136551, 0.004015516024082899, 0.0038159340620040894, 0.0036411613691598177, 0.0034664722625166178, 0.003280475502833724, 0.003066182369366288, 0.0028050898108631372, 0.0024852692149579525], [-0.03140746057033539, -0.044249143451452255, -0.0561334528028965, -0.06660817563533783, -0.07548270374536514, -0.08242283016443253, -0.08751974254846573, -0.09099326282739639, -0.09315638244152069, -0.09450718760490417, -0.09533429145812988, -0.09613360464572906, -0.09718622267246246, -0.09889056533575058, -0.1013895571231842, -0.10473435372114182], [-0.011375904083251953, -0.012402156367897987, -0.012915877625346184, -0.012883830815553665, -0.012293362990021706, -0.011155607178807259, -0.009505920112133026, -0.007398937363177538, -0.004955131560564041, -0.0023194816894829273, 0.00035425263922661543, 0.002892628312110901, 0.0051606022752821445, 0.007004082202911377, 0.008323421701788902, 0.009046669118106365], [0.011126826517283916, 0.009461279958486557, 0.007444991730153561, 0.005312968511134386, 0.0033170771785080433, 0.001733681419864297, 0.0007679297123104334, 0.0006660649087280035, 0.0015223720110952854, 0.0033856623340398073, 0.006186939310282469, 0.009721554815769196, 0.013757376931607723, 0.01794300228357315, 0.0219621229916811, 0.025484923273324966], [-0.004364627413451672, -0.0030165596399456263, -0.0017164279706776142, -0.000528506760019809, 0.0004713260568678379, 0.0013276180252432823, 0.002049006288871169, 0.0026136678643524647, 0.0029906919226050377, 0.0031890813261270523, 0.0032451413571834564, 0.0031510908156633377, 0.0028980644419789314, 0.002481612376868725, 0.0019343029707670212, 0.0012064676266163588], [-0.019177226349711418, -0.01958572305738926, -0.019733762368559837, -0.01959763839840889, -0.019196774810552597, -0.01854918897151947, -0.017702987417578697, -0.01671345718204975, -0.0156363807618618, -0.014492519199848175, -0.013299986720085144, -0.01204932201653719, -0.01070796512067318, -0.009219367057085037, -0.007554108276963234, -0.005703350994735956], [0.1557905077934265, 0.15965992212295532, 0.16215766966342926, 0.16309517621994019, 0.16227538883686066, 0.15970870852470398, 0.15550732612609863, 0.1498042345046997, 0.14277517795562744, 0.1346537321805954, 0.1257687658071518, 0.11644347757101059, 0.10690851509571075, 0.09745635092258453, 0.08828821033239365, 0.07958280295133591], [0.002564268419519067, 0.003070874372497201, 0.0035707633942365646, 0.0040570576675236225, 0.004517727997153997, 0.004952542018145323, 0.005357345566153526, 0.0057195150293409824, 0.006043785251677036, 0.0063094282522797585, 0.0065085976384580135, 0.006638036575168371, 0.00668862322345376, 0.006681149825453758, 0.006598178297281265, 0.0064191618002951145], [-0.2939777672290802, -0.29884424805641174, -0.2981265187263489, -0.29191383719444275, -0.28102144598960876, -0.26625657081604004, -0.24875539541244507, -0.22990447282791138, -0.2109653651714325, -0.19300289452075958, -0.17655383050441742, -0.16184063255786896, -0.14853063225746155, -0.13634899258613586, -0.12478065490722656, -0.11388290673494339], [0.002915719524025917, 0.0030578291043639183, 0.0032985133584588766, 0.0036553828977048397, 0.004150626249611378, 0.0047951326705515385, 0.00559812830761075, 0.0065494501031935215, 0.007624058052897453, 0.008810140192508698, 0.010084293782711029, 0.011395926587283611, 0.0126907117664814, 0.013916515745222569, 0.015035375952720642, 0.01600932702422142], [-0.023643286898732185, -0.01826530322432518, -0.013014179654419422, -0.008076638914644718, -0.003659838577732444, 0.0002000473323278129, 0.003422301262617111, 0.0060247210785746574, 0.008050319738686085, 0.009641285985708237, 0.010977300815284252, 0.012241566553711891, 0.013631281442940235, 0.015212807804346085, 0.017089705914258957, 0.019079938530921936], [-0.02401617355644703, -0.02237609773874283, -0.020992126315832138, -0.020002778619527817, -0.01956886425614357, -0.019642671570181847, -0.020305123180150986, -0.02147991955280304, -0.023054489865899086, -0.02478768303990364, -0.026383928954601288, -0.0275777168571949, -0.028063911944627762, -0.02762746810913086, -0.026101119816303253, -0.02346326969563961], [0.00635729031637311, 0.0058454954996705055, 0.005250058602541685, 0.004617270082235336, 0.0039628418162465096, 0.003346929093822837, 0.0027994883712381124, 0.002364405430853367, 0.0020846340339630842, 0.002062649466097355, 0.002386034233495593, 0.0031524007208645344, 0.004420725163072348, 0.006203509867191315, 0.008489888161420822, 0.011177677661180496], [0.11934200674295425, 0.1207120418548584, 0.1214904710650444, 0.12177188694477081, 0.12166864424943924, 0.12135890126228333, 0.12104860693216324, 0.1209312379360199, 0.12114518135786057, 0.12179158627986908, 0.12290604412555695, 0.12435635179281235, 0.12600678205490112, 0.1276349127292633, 0.12901738286018372, 0.12993764877319336], [-0.017085716128349304, -0.016897909343242645, -0.016716143116354942, -0.016611112281680107, -0.016677498817443848, -0.016908656805753708, -0.017335139214992523, -0.017946641892194748, -0.018743572756648064, -0.0196984950453043, -0.020757148042321205, -0.021889708936214447, -0.02303459495306015, -0.02416173368692398, -0.02518637478351593, -0.026069507002830505], [-0.012143896892666817, -0.010887622833251953, -0.009910001419484615, -0.00923614576458931, -0.008931571617722511, -0.009028098545968533, -0.009657860733568668, -0.010837442241609097, -0.012589243240654469, -0.014880605041980743, -0.01757263019680977, -0.02057882957160473, -0.0236581489443779, -0.02661738730967045, -0.0292052049189806, -0.031223690137267113], [-0.030366282910108566, -0.02966264635324478, -0.02892153151333332, -0.02816692553460598, -0.02734275907278061, -0.02643541619181633, -0.025436783209443092, -0.02436826564371586, -0.023187803104519844, -0.02188020758330822, -0.020478591322898865, -0.019037839025259018, -0.01763196289539337, -0.016257012262940407, -0.014957922510802746, -0.013705139979720116], [-0.03200090676546097, -0.03293914347887039, -0.03406154736876488, -0.03537246584892273, -0.036891382187604904, -0.03858819976449013, -0.04046740382909775, -0.042486682534217834, -0.044629525393247604, -0.04688300937414169, -0.049176279455423355, -0.051482778042554855, -0.05373406410217285, -0.05589654669165611, -0.05788378417491913, -0.059648655354976654], [-0.001456074882298708, -0.0016990277217701077, -0.0018513099057599902, -0.0019323136657476425, -0.001970847137272358, -0.0020062471739947796, -0.0020762449130415916, -0.00222763535566628, -0.0024922876618802547, -0.002898738021031022, -0.0034413160756230354, -0.004112502094358206, -0.004885491915047169, -0.005725463852286339, -0.006596632767468691, -0.00745236175134778], [-0.045832131057977676, -0.04747231304645538, -0.04905390366911888, -0.05040625110268593, -0.05124995484948158, -0.05153031647205353, -0.05103813484311104, -0.04982978105545044, -0.047918304800987244, -0.04529406130313873, -0.04217388853430748, -0.03860373795032501, -0.03488421440124512, -0.03102058917284012, -0.02704133838415146, -0.022837240248918533], [-0.029163092374801636, -0.024315830320119858, -0.019484126940369606, -0.015033699572086334, -0.011199905537068844, -0.00814475305378437, -0.006007994059473276, -0.004757019691169262, -0.004331860225647688, -0.00459251319989562, -0.005344421602785587, -0.006428047548979521, -0.0077120233327150345, -0.009068824350833893, -0.010462994687259197, -0.011857138946652412], [0.01392546109855175, 0.01293957605957985, 0.011879876255989075, 0.011057557538151741, 0.010957553051412106, 0.011530043557286263, 0.012917542830109596, 0.015015321783721447, 0.01772409863770008, 0.02095588855445385, 0.024668922647833824, 0.028718257322907448, 0.03297543525695801, 0.03730751574039459, 0.04149179905653, 0.04560396075248718], [0.001414663391187787, 0.002204407472163439, 0.002948240377008915, 0.003671448677778244, 0.004317933227866888, 0.004934560041874647, 0.005508332513272762, 0.0060176970437169075, 0.006453862413764, 0.006850527133792639, 0.007268526591360569, 0.007779212668538094, 0.00849087629467249, 0.009468630887567997, 0.010770327411592007, 0.0123802674934268], [-0.008798176422715187, -0.008809147402644157, -0.008760691620409489, -0.008629710413515568, -0.008441280573606491, -0.008180905133485794, -0.00785487238317728, -0.007474538870155811, -0.007032661698758602, -0.006480510346591473, -0.005794005002826452, -0.00493193045258522, -0.0038666813634335995, -0.002545466646552086, -0.000962601974606514, 0.0008607545169070363], [-0.0054663787595927715, -0.004863172769546509, -0.004553241655230522, -0.004572543781250715, -0.004853927530348301, -0.0053910156711936, -0.00613596523180604, -0.007053480949252844, -0.008145221509039402, -0.009358899667859077, -0.01070365309715271, -0.01216086931526661, -0.013739636167883873, -0.015402736142277718, -0.017133288085460663, -0.01883384957909584], [-0.09838242828845978, -0.09894539415836334, -0.0997539833188057, -0.10068235546350479, -0.10166965425014496, -0.10247166454792023, -0.10296577215194702, -0.10307782888412476, -0.10255899280309677, -0.10172510147094727, -0.0999029129743576, -0.09718121588230133, -0.09352412074804306, -0.08889614790678024, -0.08337612450122833, -0.07713688164949417], [0.009378680028021336, 0.008946588262915611, 0.008456924930214882, 0.007936337031424046, 0.0074159204959869385, 0.0069061280228197575, 0.0064551918767392635, 0.006099678575992584, 0.005848652683198452, 0.005697617772966623, 0.005600770004093647, 0.005514182616025209, 0.0053808256052434444, 0.005131914746016264, 0.00472488347440958, 0.0041102939285337925], [0.011805029585957527, 0.012347958981990814, 0.012731079943478107, 0.012906044721603394, 0.012732121162116528, 0.012308911420404911, 0.011625798419117928, 0.010723331943154335, 0.009564352221786976, 0.008191170170903206, 0.006624606437981129, 0.004842826165258884, 0.0028903642669320107, 0.000741958268918097, -0.001492876559495926, -0.0038059756625443697], [0.004139362834393978, 0.004341306164860725, 0.00458416435867548, 0.004882057663053274, 0.005222784820944071, 0.00558799272403121, 0.005959794390946627, 0.006303878501057625, 0.006594885606318712, 0.006804784294217825, 0.006904652342200279, 0.006858070380985737, 0.006643501576036215, 0.006241159047931433, 0.005658759735524654, 0.004908270668238401], [0.03309260681271553, 0.03149930760264397, 0.02979441173374653, 0.028125809505581856, 0.02667616680264473, 0.025599602609872818, 0.024971093982458115, 0.024847278371453285, 0.02519243396818638, 0.026012517511844635, 0.027229422703385353, 0.028831128031015396, 0.030716627836227417, 0.032864127308130264, 0.03508123755455017, 0.03729056566953659], [0.0001493162999395281, 0.00012810587941203266, 0.00010985008702846244, 9.705015690997243e-05, 9.278385550715029e-05, 9.518151637166739e-05, 0.00010014768486144021, 0.00010723177547333762, 0.00011463192640803754, 0.00012049188080709428, 0.00012114599667256698, 0.00011614781396929175, 0.00010748150816652924, 9.532386320643127e-05, 8.106165478238836e-05, 6.606690294574946e-05], [0.010987835004925728, 0.012352155521512032, 0.014023992232978344, 0.015843965113162994, 0.0176407378166914, 0.01919000968337059, 0.020320208743214607, 0.020833104848861694, 0.020590541884303093, 0.019477568566799164, 0.01747816987335682, 0.014606314711272717, 0.010987289249897003, 0.006793227046728134, 0.0022915597073733807, -0.002277899533510208], [0.0014779528137296438, 0.0014878811780363321, 0.001497304649092257, 0.0015119777526706457, 0.001536527182906866, 0.0015764683485031128, 0.0016329584177583456, 0.0017070784233510494, 0.0017966055311262608, 0.0018953674007207155, 0.001999156316742301, 0.002100894460454583, 0.0021950623486191034, 0.0022778308484703302, 0.002347786445170641, 0.0024043694138526917], [-0.024366648867726326, -0.02169463038444519, -0.01928742602467537, -0.01728208176791668, -0.015789484605193138, -0.014771743677556515, -0.014217538759112358, -0.014167963527143002, -0.014551879838109016, -0.015129461884498596, -0.015624916180968285, -0.015692980960011482, -0.015065187588334084, -0.013464723713696003, -0.010769032873213291, -0.006932389922440052], [-0.008282914757728577, -0.009193308651447296, -0.009944414719939232, -0.010434122756123543, -0.010585049167275429, -0.010365244932472706, -0.009775630198419094, -0.008844301104545593, -0.007621634751558304, -0.006169420201331377, -0.004527891054749489, -0.002748409053310752, -0.0008807735284790397, 0.0010237614624202251, 0.0029154792428016663, 0.0047275470569729805], [0.07835079729557037, 0.08062383532524109, 0.08228109031915665, 0.08333945274353027, 0.08389909565448761, 0.08407360315322876, 0.08399081230163574, 0.08369579911231995, 0.08334045857191086, 0.08308002352714539, 0.08310513943433762, 0.0836167261004448, 0.0846816897392273, 0.08642538636922836, 0.08873100578784943, 0.0915452316403389], [-0.006187873892486095, -0.004602758679538965, -0.003201305167749524, -0.002109418623149395, -0.0014262027107179165, -0.0011372959706932306, -0.0012327885488048196, -0.0016328206984326243, -0.0022850593086332083, -0.003175079822540283, -0.004282730631530285, -0.005656699649989605, -0.007257114630192518, -0.009157984517514706, -0.011271325871348381, -0.013526150025427341], [0.03478902205824852, 0.03219339996576309, 0.029566820710897446, 0.02698863483965397, 0.024513309821486473, 0.02219332940876484, 0.020053520798683167, 0.01810934953391552, 0.016353879123926163, 0.014756658114492893, 0.013278133235871792, 0.011871401220560074, 0.010500065982341766, 0.009121769107878208, 0.007708940654993057, 0.006241255439817905], [0.0012910568621009588, 0.001652850885875523, 0.0020109403412789106, 0.0023587204050272703, 0.002689327346161008, 0.00300078047439456, 0.0032913032919168472, 0.003558049676939845, 0.003800411941483617, 0.004016865976154804, 0.004205569624900818, 0.004363867454230785, 0.004487677477300167, 0.004575847182422876, 0.004628792870789766, 0.004645842127501965], [0.02887238748371601, 0.029555030167102814, 0.030320854857563972, 0.031249163672327995, 0.03230844810605049, 0.03348063305020332, 0.034690242260694504, 0.03576549515128136, 0.03662055730819702, 0.03719886392354965, 0.037496667355298996, 0.037519633769989014, 0.03739967569708824, 0.037251174449920654, 0.0372016578912735, 0.03734839707612991], [0.0008381445659324527, 0.0007983425748534501, 0.0007517769699916244, 0.000706738792359829, 0.0006678093341179192, 0.0006435654358938336, 0.0006404699524864554, 0.0006610455457121134, 0.0007124970434233546, 0.0007913652807474136, 0.0008925800211727619, 0.0010050098644569516, 0.001115989638492465, 0.0012108992086723447, 0.0012769836466759443, 0.0013001488987356424], [0.011811916716396809, 0.011523868888616562, 0.011178053915500641, 0.010854759253561497, 0.01054102648049593, 0.010318187065422535, 0.010138995945453644, 0.010038461536169052, 0.010069292038679123, 0.01029751356691122, 0.010720553807914257, 0.011347580701112747, 0.012188892811536789, 0.0132282804697752, 0.014480960555374622, 0.015826862305402756], [-0.0009722082759253681, -0.0010269442573189735, -0.001080070505850017, -0.0011272125411778688, -0.00116611341945827, -0.001191699760966003, -0.0012000150745734572, -0.0011830406729131937, -0.0011426769196987152, -0.0010810267413035035, -0.0010010781697928905, -0.0009088170481845737, -0.0008094635559245944, -0.0007109132129698992, -0.0006173023721203208, -0.0005300916964188218], [-0.013758420012891293, -0.013495971448719501, -0.013339336030185223, -0.013380109332501888, -0.013504927046597004, -0.01378047838807106, -0.014183822087943554, -0.014747521840035915, -0.015545006841421127, -0.016695622354745865, -0.018469201400876045, -0.02106349729001522, -0.024745650589466095, -0.029588717967271805, -0.035636693239212036, -0.042652495205402374], [-0.021040325984358788, -0.01792912930250168, -0.014493833296000957, -0.01093544065952301, -0.007433649152517319, -0.004215688910335302, -0.0014806934632360935, 0.0006405093008652329, 0.002070778049528599, 0.0027685377281159163, 0.002778972964733839, 0.0021413853392004967, 0.0009883659658953547, -0.0005497324746102095, -0.0022996978368610144, -0.004070310853421688], [-0.02852180041372776, -0.029029356315732002, -0.02951885759830475, -0.02996479906141758, -0.030392631888389587, -0.03076397068798542, -0.03110632486641407, -0.03138315677642822, -0.03166459500789642, -0.03195684775710106, -0.03222368285059929, -0.032421551644802094, -0.0324721522629261, -0.032336946576833725, -0.031941331923007965, -0.031286925077438354], [0.03349202126264572, 0.03486476466059685, 0.036059606820344925, 0.03697007894515991, 0.037480250000953674, 0.03746175765991211, 0.036879099905490875, 0.035741545259952545, 0.03403177484869957, 0.031784724444150925, 0.029099101200699806, 0.026061901822686195, 0.022788483649492264, 0.019385214895009995, 0.016035297885537148, 0.012764100916683674], [0.0034022449981421232, 0.0034964894875884056, 0.003583095734938979, 0.003656533546745777, 0.0037104187067598104, 0.003742861095815897, 0.0037524665240198374, 0.003741626627743244, 0.0037110100965946913, 0.003661488415673375, 0.0035927959252148867, 0.0035033104941248894, 0.003389146877452731, 0.0032509872689843178, 0.003091013291850686, 0.0029121784027665854], [-0.011030484922230244, -0.011562165804207325, -0.012059853412210941, -0.012436226941645145, -0.012610681354999542, -0.01251126080751419, -0.01209233608096838, -0.011334310285747051, -0.010236583650112152, -0.008789555169641972, -0.007031104061752558, -0.005004560109227896, -0.0027866759337484837, -0.00043852010276168585, 0.0019327705958858132, 0.004255186766386032], [0.00047101039672270417, 9.943766053766012e-05, -0.00027851719642058015, -0.0006547512602992356, -0.0010254870867356658, -0.0013861232437193394, -0.0017354886513203382, -0.0020715154241770506, -0.0023825624957680702, -0.0026567578315734863, -0.0028764090966433287, -0.0030278076883405447, -0.003101787995547056, -0.0030902535654604435, -0.0029921168461441994, -0.002815973712131381], [-0.008583001792430878, -0.009471110999584198, -0.010391628369688988, -0.011253493838012218, -0.012001974508166313, -0.012567108497023582, -0.012918034568428993, -0.013059371151030064, -0.012986822985112667, -0.012713953852653503, -0.012278523296117783, -0.011691765859723091, -0.011003095656633377, -0.010188611224293709, -0.009240199811756611, -0.008165737614035606], [-0.018182389438152313, -0.01664646901190281, -0.015158122405409813, -0.013769510202109814, -0.012538363225758076, -0.01145857386291027, -0.010511631146073341, -0.009676910936832428, -0.008919507265090942, -0.008159532211720943, -0.007321704179048538, -0.006339114159345627, -0.005152621306478977, -0.003730664262548089, -0.0020398572087287903, -0.00010422535706311464], [-0.008603733964264393, -0.007146027404814959, -0.005871444940567017, -0.00487665506079793, -0.004171053878962994, -0.003701074980199337, -0.003387800185009837, -0.003073312109336257, -0.002720427233725786, -0.002231922000646591, -0.0015489256475120783, -0.0006997299497015774, 0.00033197185257449746, 0.001421755412593484, 0.002556696068495512, 0.0036317207850515842], [0.035618387162685394, 0.03389030322432518, 0.03225038945674896, 0.030795341357588768, 0.029605897143483162, 0.02846783585846424, 0.027549495920538902, 0.026707470417022705, 0.025981862097978592, 0.02537905052304268, 0.025014081969857216, 0.025188976898789406, 0.02578393556177616, 0.02689351886510849, 0.028382238000631332, 0.03030923195183277], [-0.004952807445079088, -0.005056979600340128, -0.005290671717375517, -0.005643882788717747, -0.0060477484948933125, -0.006499032024294138, -0.006904712878167629, -0.007235281635075808, -0.007462272886186838, -0.007576138246804476, -0.007612578105181456, -0.007572089787572622, -0.007491505704820156, -0.007397985551506281, -0.0073157791048288345, -0.0072876038029789925], [0.011231272481381893, 0.012882941402494907, 0.01377763319760561, 0.01378555502742529, 0.012934166938066483, 0.011468623764812946, 0.009705569595098495, 0.008046741597354412, 0.00664893351495266, 0.005654164589941502, 0.005105329677462578, 0.004903246648609638, 0.004833949729800224, 0.004629211034625769, 0.004056297708302736, 0.002894200850278139], [0.02315826714038849, 0.027472490444779396, 0.029970329254865646, 0.03064560703933239, 0.02977301925420761, 0.027710920199751854, 0.024814264848828316, 0.021575959399342537, 0.01850532740354538, 0.016002612188458443, 0.014506052248179913, 0.01421323698014021, 0.015235736034810543, 0.017520736902952194, 0.02090480364859104, 0.025254452601075172], [-0.006879062857478857, -0.0066351317800581455, -0.006454911548644304, -0.006339892745018005, -0.006274750921875238, -0.006239478010684252, -0.006199713796377182, -0.00612218352034688, -0.005991702433675528, -0.005781194195151329, -0.005482403561472893, -0.005095102358609438, -0.0046349032782018185, -0.004118958488106728, -0.0035798929166048765, -0.0030410911422222853], [-0.0026399882044643164, -0.0063715833239257336, -0.009685488417744637, -0.012172643095254898, -0.013726870529353619, -0.014306673780083656, -0.014107364229857922, -0.01331092044711113, -0.01220748107880354, -0.01116253063082695, -0.01034960150718689, -0.010008623823523521, -0.010144051164388657, -0.0108634689822793, -0.011929281987249851, -0.01324480026960373], [-0.018672198057174683, -0.0186413936316967, -0.017478957772254944, -0.015145824290812016, -0.011848346330225468, -0.007905872538685799, -0.0037334836088120937, 0.0002763018710538745, 0.0037378387060016394, 0.006292156875133514, 0.007809136528521776, 0.00824816431850195, 0.007824119180440903, 0.006753921043127775, 0.005405806470662355, 0.004092361778020859], [0.0038159112446010113, 0.004139167722314596, 0.004419485107064247, 0.004632093477994204, 0.004743069410324097, 0.004759614355862141, 0.004691367037594318, 0.004548606462776661, 0.004334777593612671, 0.004090634174644947, 0.0038644084706902504, 0.003700928296893835, 0.0036459071561694145, 0.003724026959389448, 0.003961420152336359, 0.004351821728050709], [-0.06179686263203621, -0.06401324272155762, -0.06632039695978165, -0.0686054676771164, -0.07086393237113953, -0.0730040892958641, -0.07492397725582123, -0.07675959169864655, -0.0784296840429306, -0.07980989664793015, -0.08098099380731583, -0.08184847235679626, -0.08244501799345016, -0.0827842652797699, -0.08288657665252686, -0.08279719948768616], [0.011887145228683949, 0.010583153925836086, 0.009339689277112484, 0.008157323114573956, 0.007050399202853441, 0.006152164191007614, 0.005529235117137432, 0.005297696217894554, 0.0055847372859716415, 0.006543314550071955, 0.00824570283293724, 0.010877462103962898, 0.014428787864744663, 0.01896262727677822, 0.024349240586161613, 0.03035503439605236], [-0.0006120886537246406, -0.00043051576358266175, -0.00026804814115166664, -0.0001207602908834815, 9.471819794271141e-06, 0.00012411233910825104, 0.00022366078337654471, 0.00031277627567760646, 0.0003897648421116173, 0.00046220840886235237, 0.0005262909107841551, 0.0005853720940649509, 0.0006372141069732606, 0.0006816486129537225, 0.0007169045857153833, 0.0007440129993483424], [-0.010980923660099506, -0.012077382765710354, -0.012995043769478798, -0.013646924868226051, -0.013975284062325954, -0.013964234851300716, -0.013626284897327423, -0.013019133359193802, -0.012215848080813885, -0.011295255273580551, -0.010350928641855717, -0.009471243247389793, -0.008722933009266853, -0.008167369291186333, -0.00784916989505291, -0.007790815085172653], [-0.03582437336444855, -0.03722744435071945, -0.0390160009264946, -0.041061628609895706, -0.04335685074329376, -0.04581192508339882, -0.04830053448677063, -0.05076829716563225, -0.053192660212516785, -0.05550520494580269, -0.05759895220398903, -0.059275880455970764, -0.06055283546447754, -0.0613907165825367, -0.06169517710804939, -0.061527300626039505], [-0.02596220187842846, -0.027971578761935234, -0.030467554926872253, -0.03332056477665901, -0.036250315606594086, -0.03926992043852806, -0.041998326778411865, -0.044483255594968796, -0.04655304551124573, -0.04845067113637924, -0.05042827129364014, -0.05277186632156372, -0.0561506561934948, -0.061014339327812195, -0.06734407693147659, -0.07531585544347763], [0.012794572860002518, 0.008941873908042908, 0.004390254151076078, -0.0005733666475862265, -0.0056334491819143295, -0.010373908095061779, -0.014454782009124756, -0.017401864752173424, -0.018958106637001038, -0.01888447441160679, -0.01705607771873474, -0.013608548790216446, -0.008759976364672184, -0.0030635069124400616, 0.0029775158036500216, 0.008797145448625088], [-0.017453983426094055, -0.016695160418748856, -0.016241587698459625, -0.015999075025320053, -0.016161832958459854, -0.016702253371477127, -0.017734630033373833, -0.01926642656326294, -0.021310588344931602, -0.02386738918721676, -0.026715151965618134, -0.02954697795212269, -0.03204300254583359, -0.03390471637248993, -0.03480672091245651, -0.03473655879497528], [-0.009601431898772717, -0.010780303739011288, -0.011762886308133602, -0.012467724271118641, -0.012846624478697777, -0.01288377121090889, -0.012611583806574345, -0.012091442011296749, -0.011392866261303425, -0.01055043376982212, -0.009591911919414997, -0.008499781601130962, -0.007231243420392275, -0.005708219017833471, -0.003893590532243252, -0.0017766945529729128], [-0.02702576294541359, -0.029251374304294586, -0.03164278715848923, -0.03426788002252579, -0.03719180077314377, -0.0404086634516716, -0.04391120374202728, -0.04768023267388344, -0.05169103667140007, -0.055863577872514725, -0.06010971590876579, -0.06436074525117874, -0.06855607032775879, -0.0725732371211052, -0.07626650482416153, -0.07954322546720505], [0.005945161916315556, 0.0065338825806975365, 0.007134496700018644, 0.007736230734735727, 0.00832375232130289, 0.008880897425115108, 0.009400730021297932, 0.009860609658062458, 0.010262462310492992, 0.01058446615934372, 0.010805499739944935, 0.010915079154074192, 0.01089963037520647, 0.010770571418106556, 0.010503549128770828, 0.010101944208145142], [-0.06300847977399826, -0.07226799428462982, -0.08160842210054398, -0.09052031487226486, -0.09819740802049637, -0.10418368130922318, -0.10807986557483673, -0.10975043475627899, -0.10919905453920364, -0.10647062957286835, -0.10210664570331573, -0.09700796753168106, -0.09198473393917084, -0.08801595866680145, -0.08548017591238022, -0.0848405584692955], [0.006410778965801001, 0.00564335472881794, 0.004892130382359028, 0.004187127109616995, 0.003557051531970501, 0.003014408517628908, 0.0025638623628765345, 0.0022025920916348696, 0.001910284161567688, 0.0016970760188996792, 0.0015537496656179428, 0.0014688364462926984, 0.0014190210495144129, 0.0013858642196282744, 0.0013449793914332986, 0.0012677081394940615], [0.027865953743457794, 0.0280758049339056, 0.0281573086977005, 0.028033141046762466, 0.027525704354047775, 0.02658512443304062, 0.025096440687775612, 0.023105449974536896, 0.020619798451662064, 0.01773921400308609, 0.014649955555796623, 0.011570693925023079, 0.008846820332109928, 0.0066608223132789135, 0.005331039894372225, 0.004960022866725922], [0.0009523637709207833, 0.0025391806848347187, 0.003936431836336851, 0.004989930894225836, 0.005531510338187218, 0.005627891048789024, 0.005151345394551754, 0.004149710293859243, 0.0027442954014986753, 0.0011815736070275307, -0.00022827397333458066, -0.0012090360978618264, -0.001442645094357431, -0.0006814150838181376, 0.0012544849887490273, 0.004417484160512686], [0.005480877589434385, 0.003927203826606274, 0.0023174381349235773, 0.0007041876669973135, -0.0008927022572606802, -0.00239664688706398, -0.0037474967539310455, -0.004892268218100071, -0.005775584373623133, -0.006311470177024603, -0.006414197385311127, -0.006002888083457947, -0.005023104604333639, -0.0034932070411741734, -0.0014615673571825027, 0.0009403636213392019], [0.017077548429369926, 0.015237759798765182, 0.013059843331575394, 0.010569320991635323, 0.00790177471935749, 0.0052841901779174805, 0.0029682787135243416, 0.0012220153585076332, 0.00022743779118172824, 9.585998486727476e-05, 0.000809170538559556, 0.002199622103944421, 0.004043135792016983, 0.005978340283036232, 0.00763847678899765, 0.008683024905622005], [-0.002271072007715702, -0.0012241445947438478, -0.0002321520005352795, 0.0006528549711219966, 0.0013595714699476957, 0.0019063542131334543, 0.00228764652274549, 0.0025189651641994715, 0.0026120904367417097, 0.002595379250124097, 0.0025083308573812246, 0.002367256674915552, 0.002207219135016203, 0.0020428320858627558, 0.0019203327829018235, 0.0018562822369858623], [0.013631943613290787, 0.015116745606064796, 0.016918256878852844, 0.019027724862098694, 0.021429335698485374, 0.024126866832375526, 0.027107199653983116, 0.030355457216501236, 0.033803604543209076, 0.03745061904191971, 0.0412631630897522, 0.045207664370536804, 0.049344174563884735, 0.053692787885665894, 0.05825309082865715, 0.06296128034591675], [0.02291053906083107, 0.02293720468878746, 0.022988853976130486, 0.023128142580389977, 0.023389268666505814, 0.023736905306577682, 0.02413974702358246, 0.024529457092285156, 0.024860354140400887, 0.02510160580277443, 0.025252068415284157, 0.02532506175339222, 0.02534969337284565, 0.025413496419787407, 0.02557004615664482, 0.025853434577584267], [-0.008849689736962318, -0.008968546986579895, -0.009468335658311844, -0.010387805290520191, -0.011699170805513859, -0.01329028606414795, -0.015012392774224281, -0.016670910641551018, -0.0181005597114563, -0.019183216616511345, -0.019852211698889732, -0.02014796994626522, -0.020162945613265038, -0.020021453499794006, -0.019840270280838013, -0.01972009614109993], [-0.008746243081986904, -0.009309276938438416, -0.009781105443835258, -0.010145237669348717, -0.01040281169116497, -0.010575385764241219, -0.010694663040339947, -0.01079978421330452, -0.010925611481070518, -0.01109409611672163, -0.01130423042923212, -0.011561481282114983, -0.011852338910102844, -0.01216933410614729, -0.012501481920480728, -0.012829172424972057], [-0.028480902314186096, -0.0282425656914711, -0.027898302301764488, -0.027497991919517517, -0.02684411033987999, -0.02605835348367691, -0.02509700134396553, -0.023995906114578247, -0.0228227861225605, -0.021666759625077248, -0.020712751895189285, -0.020169837400317192, -0.02038673311471939, -0.02140401490032673, -0.02331666462123394, -0.025985341519117355], [-0.018531378358602524, -0.0179342869669199, -0.01716744527220726, -0.016357792541384697, -0.015729853883385658, -0.015455012209713459, -0.015750814229249954, -0.016701333224773407, -0.018291166052222252, -0.02042684331536293, -0.022929567843675613, -0.02538972720503807, -0.027444640174508095, -0.0286503117531538, -0.02875220961868763, -0.027548272162675858], [0.016059203073382378, 0.017298832535743713, 0.018375569954514503, 0.01939423941075802, 0.020543348044157028, 0.02180449478328228, 0.023335710167884827, 0.025239262729883194, 0.027541331946849823, 0.030320357531309128, 0.033564433455467224, 0.037307318300008774, 0.04146241769194603, 0.045966606587171555, 0.050662413239479065, 0.055444490164518356], [0.016356756910681725, 0.017209134995937347, 0.01798751950263977, 0.018697194755077362, 0.019284173846244812, 0.019772808998823166, 0.020167386159300804, 0.02043086476624012, 0.020560458302497864, 0.020584603771567345, 0.020544717088341713, 0.02051880769431591, 0.020593877881765366, 0.02085658721625805, 0.02131221815943718, 0.02194635197520256], [-0.012602199800312519, -0.01294976007193327, -0.013210848905146122, -0.013349679298698902, -0.013370736502110958, -0.01325639896094799, -0.013009903952479362, -0.012642359361052513, -0.01215705182403326, -0.011535005643963814, -0.010762209072709084, -0.009822899475693703, -0.008706340566277504, -0.0073729925788939, -0.005821979604661465, -0.004066627938300371], [0.049180906265974045, 0.04553994908928871, 0.04123466834425926, 0.03619404509663582, 0.030637070536613464, 0.024622436612844467, 0.018398983404040337, 0.01207813248038292, 0.005753308534622192, -0.00037884118501096964, -0.006446816027164459, -0.012434886768460274, -0.01850399188697338, -0.024612657725811005, -0.030916834250092506, -0.037261445075273514], [0.07220301032066345, 0.07352858781814575, 0.07487858831882477, 0.07620358467102051, 0.07748682051897049, 0.07872048020362854, 0.07997067272663116, 0.08118561655282974, 0.08230429887771606, 0.08331317454576492, 0.08418741822242737, 0.08488637953996658, 0.08535631000995636, 0.08564604073762894, 0.085696741938591, 0.0855320617556572], [0.002688263077288866, 0.001957076834514737, 0.0012554016429930925, 0.0006156553281471133, 5.692928971257061e-05, -0.0004271500511094928, -0.0008082775748334825, -0.0010743410093709826, -0.0012494941474869847, -0.0013727699406445026, -0.0014932320918887854, -0.0016505781095474958, -0.0018882689764723182, -0.0022463116329163313, -0.0027576338034123182, -0.0034282575361430645], [0.010065235197544098, 0.010204873979091644, 0.010294003412127495, 0.010342110879719257, 0.010271035134792328, 0.010133333504199982, 0.009912500157952309, 0.009618197567760944, 0.009209832176566124, 0.008681963197886944, 0.008025170303881168, 0.0072086649015545845, 0.006246263161301613, 0.005120853893458843, 0.0039031191263347864, 0.002602639375254512], [0.0064366161823272705, 0.006720989942550659, 0.00703226076439023, 0.007377397269010544, 0.007740797474980354, 0.00810700561851263, 0.008462708443403244, 0.00878177396953106, 0.009045978076756, 0.009235850535333157, 0.009329176507890224, 0.009296415373682976, 0.009117336943745613, 0.008779206313192844, 0.008285991847515106, 0.007644901983439922], [0.03088543377816677, 0.030651044100522995, 0.030193371698260307, 0.029437188059091568, 0.02840523235499859, 0.027178168296813965, 0.02587205171585083, 0.024631671607494354, 0.023612026125192642, 0.022976677864789963, 0.02281169407069683, 0.023211583495140076, 0.024135226383805275, 0.02557930164039135, 0.027381140738725662, 0.02944512479007244], [0.0006247680867090821, 0.0005275451112538576, 0.0004324245674069971, 0.00034543839865364134, 0.0002711351844482124, 0.00020509358728304505, 0.00014754233416169882, 9.939944720827043e-05, 6.194825982674956e-05, 3.381754504516721e-05, 1.0686228051781654e-05, -5.627982318401337e-06, -1.3529497664421797e-05, -1.3509677955880761e-05, -2.7319765649735928e-06, 1.4912511687725782e-05], [-0.006480356212705374, -0.005221364088356495, -0.0036548059433698654, -0.001948613440617919, -0.000309220515191555, 0.0009850442875176668, 0.0016959087224677205, 0.0015982360346242785, 0.0005265953950583935, -0.0016166376881301403, -0.004776725545525551, -0.008839668706059456, -0.01354911271482706, -0.018614115193486214, -0.023663079366087914, -0.028371352702379227], [0.0025669047608971596, 0.002751133404672146, 0.0029174613300710917, 0.003064074320718646, 0.003190078539773822, 0.0032943682745099068, 0.003375202650204301, 0.0034333497751504183, 0.003468551905825734, 0.0034829177893698215, 0.0034800295252352953, 0.0034642789978533983, 0.0034405330661684275, 0.003413525642827153, 0.0033890167251229286, 0.0033702722284942865], [0.01753174141049385, 0.022214530035853386, 0.026333654299378395, 0.02952689304947853, 0.03150995075702667, 0.03231997787952423, 0.03197463974356651, 0.030519988387823105, 0.028127076104283333, 0.02527656778693199, 0.02250329963862896, 0.020365849137306213, 0.019325891509652138, 0.0198375154286623, 0.02202589251101017, 0.025870610028505325], [-0.002732632216066122, -0.003014804795384407, -0.003218624275177717, -0.0032823283690959215, -0.0031562030781060457, -0.002820080379024148, -0.0022604309488087893, -0.001481591840274632, -0.0005051896441727877, 0.0006448631756938994, 0.0019441419281065464, 0.003360200207680464, 0.004841482266783714, 0.006345023401081562, 0.00781556311994791, 0.009190968237817287], [0.0014465205604210496, 0.00012055202387273312, -0.0012873709201812744, -0.0027700024656951427, -0.0043387808836996555, -0.005971936509013176, -0.007645193953067064, -0.009395057335495949, -0.011175881139934063, -0.012962963432073593, -0.014658834785223007, -0.01615358144044876, -0.017336774617433548, -0.018095696344971657, -0.018443994224071503, -0.01837374083697796], [-0.0035861218348145485, -0.0029106000438332558, -0.002329703886061907, -0.0019736362155526876, -0.0019452974665910006, -0.002188381040468812, -0.002652334049344063, -0.003216253826394677, -0.0038519904483109713, -0.004554638639092445, -0.005349448882043362, -0.0063581084832549095, -0.007611628156155348, -0.009284384548664093, -0.01133525837212801, -0.013726415112614632], [-0.008085730485618114, -0.009678877890110016, -0.011226280592381954, -0.012701313942670822, -0.01409684307873249, -0.015409299172461033, -0.016635246574878693, -0.017779573798179626, -0.01884884014725685, -0.019860271364450455, -0.020840227603912354, -0.021805793046951294, -0.02276589348912239, -0.023736553266644478, -0.02471993677318096, -0.02571895346045494], [0.0022456010337918997, 0.002261693123728037, 0.002255368046462536, 0.002233580220490694, 0.0022018624003976583, 0.002165864920243621, 0.0021314467303454876, 0.002100159414112568, 0.0020735098514705896, 0.002050708280876279, 0.002029100898653269, 0.002005970571190119, 0.001977559644728899, 0.001941388240084052, 0.0018964445916935802, 0.0018411753699183464], [0.017792053520679474, 0.017936354503035545, 0.0184981357306242, 0.0195157453417778, 0.02081233821809292, 0.02229163609445095, 0.023684028536081314, 0.02466527558863163, 0.02512199431657791, 0.024998566135764122, 0.02441783994436264, 0.02352694422006607, 0.022693539038300514, 0.02219792827963829, 0.022302379831671715, 0.02318589761853218], [-0.0003584346268326044, -0.00018264086975250393, -8.523129508830607e-06, 0.00016297114780172706, 0.00033109565265476704, 0.0004980383673682809, 0.0006674081087112427, 0.0008398954523727298, 0.0010223346762359142, 0.0012129276292398572, 0.001408753334544599, 0.001600730698555708, 0.0017815196188166738, 0.0019423103658482432, 0.002072317525744438, 0.0021592178381979465], [0.023876283317804337, 0.02376612462103367, 0.02359650284051895, 0.023425977677106857, 0.023247715085744858, 0.023140626028180122, 0.023138325661420822, 0.023308537900447845, 0.023730391636490822, 0.02444535121321678, 0.025473451241850853, 0.026879360899329185, 0.028697175905108452, 0.030914010480046272, 0.03350129723548889, 0.03630019351840019], [0.0005469729658216238, 0.0007184032583609223, 0.0008871540194377303, 0.0010528374696150422, 0.0012165650259703398, 0.001377481035888195, 0.0015356969088315964, 0.0016907481476664543, 0.001842631259933114, 0.0019922645296901464, 0.0021393755450844765, 0.0022831850219517946, 0.0024233136791735888, 0.0025582273956388235, 0.002686374122276902, 0.0028032094705849886], [-0.039672739803791046, -0.04100918769836426, -0.04167930781841278, -0.04167629033327103, -0.040803730487823486, -0.03912210464477539, -0.03653647005558014, -0.03313996270298958, -0.02902156673371792, -0.024519577622413635, -0.02024383656680584, -0.01675332523882389, -0.01477191224694252, -0.014705603010952473, -0.01696646586060524, -0.021382145583629608], [-0.021537000313401222, -0.02360900677740574, -0.02458547055721283, -0.024080781266093254, -0.02189326286315918, -0.01788140833377838, -0.012072468176484108, -0.00463076401501894, 0.004187524318695068, 0.014248048886656761, 0.025197463110089302, 0.03662797808647156, 0.04810735955834389, 0.05916780233383179, 0.06932979077100754, 0.07843329012393951], [-0.014192427508533001, -0.012558161281049252, -0.01107601448893547, -0.009819373488426208, -0.008908243849873543, -0.008384290151298046, -0.008284038864076138, -0.00855861883610487, -0.009199774824082851, -0.010153064504265785, -0.011267888359725475, -0.01240257453173399, -0.01336351502686739, -0.01405191607773304, -0.014336197637021542, -0.014222968369722366], [0.008553331717848778, 0.009181298315525055, 0.009790163487195969, 0.01024649292230606, 0.010440818965435028, 0.010236949659883976, 0.009593918919563293, 0.008551361039280891, 0.007068045902997255, 0.005173836834728718, 0.0029314749408513308, 0.000436159287346527, -0.0022007732186466455, -0.004875051788985729, -0.007443476468324661, -0.009863465093076229], [0.001435750862583518, 0.0015322804683819413, 0.001625071745365858, 0.0017078861128538847, 0.0017761639319360256, 0.0018289103172719479, 0.0018644792726263404, 0.0018818716052919626, 0.0018799947574734688, 0.0018581905169412494, 0.0018155887955799699, 0.0017501820111647248, 0.0016595673514530063, 0.0015453691594302654, 0.00141030247323215, 0.001258071162737906], [0.0007766682538203895, -0.0003831147332675755, -0.0016001446638256311, -0.002751670777797699, -0.003722124733030796, -0.004417328629642725, -0.004770143888890743, -0.004751510918140411, -0.004364074673503637, -0.0036095622926950455, -0.002537851920351386, -0.0012018034467473626, 0.00031115624005906284, 0.0019292880315333605, 0.0035451047588139772, 0.005069779232144356], [-0.0014878668589517474, -0.0019244729774072766, -0.002334666671231389, -0.002717700321227312, -0.0030743740499019623, -0.0034081365447491407, -0.003722459077835083, -0.004020776599645615, -0.004300620406866074, -0.004553584847599268, -0.00476527214050293, -0.004922805353999138, -0.005016231443732977, -0.005033944267779589, -0.004971994552761316, -0.004831982776522636], [-0.002680845558643341, -0.003141229972243309, -0.0034604123793542385, -0.0036113872192800045, -0.0035662888549268246, -0.0033466494642198086, -0.002958234865218401, -0.002423422411084175, -0.0017859216313809156, -0.0010854627471417189, -0.00039831933099776506, 0.00020632003725040704, 0.0006843492155894637, 0.00101857737172395, 0.0012115607969462872, 0.0012853220105171204], [0.0003248529974371195, 0.0016227690503001213, 0.002875650767236948, 0.0040221489034593105, 0.0049849385395646095, 0.005703974049538374, 0.006100896745920181, 0.006108818110078573, 0.005678578279912472, 0.004859180189669132, 0.003724165726453066, 0.0023798304609954357, 0.0009682368254289031, -0.00039393582846969366, -0.0015849827323108912, -0.0025447309017181396], [0.0253529641777277, 0.027514580637216568, 0.02781732939183712, 0.026430422440171242, 0.023839447647333145, 0.020635323598980904, 0.017520850524306297, 0.015280785970389843, 0.01460802461951971, 0.01616133749485016, 0.020202375948429108, 0.026587815955281258, 0.03512498736381531, 0.045226823538541794, 0.05615261197090149, 0.06721531599760056], [-0.07141327857971191, -0.07518081367015839, -0.07868879288434982, -0.08110670000314713, -0.08051186800003052, -0.07756741344928741, -0.07149340212345123, -0.06281330436468124, -0.05189291015267372, -0.03861726447939873, -0.023514550179243088, -0.007444274146109819, 0.00959088932722807, 0.027651596814393997, 0.04548558592796326, 0.06316537410020828], [-0.0034846721682697535, -0.002746256999671459, -0.0028097655158489943, -0.0032766186632215977, -0.0036332407034933567, -0.0038012443110346794, -0.003410033881664276, -0.002309990581125021, -0.00031507841777056456, 0.0023873362224549055, 0.00550810294225812, 0.00857064314186573, 0.011211681179702282, 0.013066776096820831, 0.013737930916249752, 0.013124348595738411], [-0.18068856000900269, -0.18486790359020233, -0.1792372763156891, -0.1634744554758072, -0.1390145868062973, -0.10830000787973404, -0.07440266013145447, -0.040965549647808075, -0.01123262569308281, 0.012960601598024368, 0.02963372692465782, 0.03919784352183342, 0.042121585458517075, 0.04113342612981796, 0.03811046853661537, 0.03593131899833679], [0.6414691209793091, 0.7761507630348206, 0.8808231353759766, 0.9437993168830872, 0.9639773368835449, 0.9449690580368042, 0.8957381248474121, 0.8274062871932983, 0.7502496838569641, 0.6751237511634827, 0.6084384918212891, 0.5537304282188416, 0.5096380114555359, 0.4743393063545227, 0.44394946098327637, 0.4163195788860321], [-0.023137953132390976, -0.02949194237589836, -0.03598407283425331, -0.04206697642803192, -0.04713844135403633, -0.050936225801706314, -0.05313101038336754, -0.053714923560619354, -0.05252121388912201, -0.0493471585214138, -0.044491201639175415, -0.03797789290547371, -0.03010771982371807, -0.021067723631858826, -0.01137752179056406, -0.0012314975028857589], [0.06391949206590652, 0.05754682794213295, 0.054076679050922394, 0.05333241820335388, 0.05595652386546135, 0.061592359095811844, 0.06960276514291763, 0.07948649674654007, 0.0903358906507492, 0.10063948482275009, 0.10811802744865417, 0.11090607196092606, 0.1069469302892685, 0.09517669677734375, 0.07461906224489212, 0.046405643224716187], [-0.1504157930612564, -0.22612257301807404, -0.3055887520313263, -0.3837430477142334, -0.4525165855884552, -0.5075562596321106, -0.5432031154632568, -0.5571290254592896, -0.5469492673873901, -0.5115153789520264, -0.4572128653526306, -0.38837072253227234, -0.314202219247818, -0.24123279750347137, -0.17864757776260376, -0.12805306911468506], [-0.01619938388466835, -0.018463416025042534, -0.020542053505778313, -0.022126417607069016, -0.022544819861650467, -0.02195584774017334, -0.020057950168848038, -0.016949012875556946, -0.012686481699347496, -0.0077673085033893585, -0.0031866568606346846, 3.0292896553874016e-05, 0.0007212820928543806, -0.0018787828739732504, -0.008554674685001373, -0.019143639132380486], [0.03562299534678459, 0.06835273653268814, 0.0966351106762886, 0.11592338234186172, 0.12467905133962631, 0.12292417138814926, 0.11189623177051544, 0.09253150224685669, 0.06677544116973877, 0.037061478942632675, 0.0064218733459711075, -0.02197779342532158, -0.04785960912704468, -0.0684080719947815, -0.08396940678358078, -0.09452009201049805], [-0.42419227957725525, -0.5630930066108704, -0.6802886128425598, -0.7636333703994751, -0.800697386264801, -0.7968826293945312, -0.7518876791000366, -0.6733188033103943, -0.5674091577529907, -0.4445536732673645, -0.3267046809196472, -0.22610792517662048, -0.16378870606422424, -0.14689834415912628, -0.18796870112419128, -0.27851155400276184], [-0.012525559403002262, -0.0127096027135849, -0.01283541414886713, -0.013026772998273373, -0.01340850256383419, -0.014093601144850254, -0.015136361122131348, -0.01668321155011654, -0.018671320751309395, -0.020887115970253944, -0.02324158325791359, -0.025387445464730263, -0.02707408182322979, -0.027986155822873116, -0.027937952429056168, -0.02669365704059601], [0.022635310888290405, 0.030345410108566284, 0.03688926249742508, 0.04153414070606232, 0.043625783175230026, 0.04288307949900627, 0.039264433085918427, 0.032815538346767426, 0.023874441161751747, 0.012823949567973614, 0.00016751023940742016, -0.013788236305117607, -0.02850748598575592, -0.043612267822027206, -0.05839390307664871, -0.07220328599214554], [0.04056747257709503, 0.03991430625319481, 0.03578798472881317, 0.028537696227431297, 0.018877044320106506, 0.007603960577398539, -0.004209980834275484, -0.015294571407139301, -0.02475648559629917, -0.03194702789187431, -0.036180529743433, -0.037677302956581116, -0.03578616678714752, -0.03073396347463131, -0.02295037917792797, -0.01291442196816206], [-0.20652706921100616, -0.23887135088443756, -0.3157244324684143, -0.45400214195251465, -0.6297968029975891, -0.8465192317962646, -1.0700942277908325, -1.2856905460357666, -1.495444416999817, -1.7229434251785278, -2.02492618560791, -2.4646167755126953, -3.1200218200683594, -4.048138618469238, -5.280311584472656, -6.7971978187561035], [-0.09677103906869888, -0.08640430122613907, -0.07257319241762161, -0.05921792611479759, -0.04642167687416077, -0.03881420940160751, -0.03707078471779823, -0.04365089535713196, -0.061969563364982605, -0.09754608571529388, -0.15789787471294403, -0.25051528215408325, -0.3826817572116852, -0.5573137402534485, -0.7733249664306641, -1.0231026411056519], [0.10281338542699814, 0.13623376190662384, 0.16834323108196259, 0.19843395054340363, 0.22251376509666443, 0.24252504110336304, 0.25738003849983215, 0.26867353916168213, 0.2774716913700104, 0.28510844707489014, 0.29788661003112793, 0.3192782998085022, 0.3554772436618805, 0.40778976678848267, 0.47942084074020386, 0.5656337141990662], [-0.0315689742565155, -0.04023171216249466, -0.04703747481107712, -0.05120961368083954, -0.0528874546289444, -0.05207313969731331, -0.04955018311738968, -0.04610968381166458, -0.042093850672245026, -0.036977801471948624, -0.03007953055202961, -0.019846512004733086, -0.004726813640445471, 0.016978342086076736, 0.04587511718273163, 0.08187223970890045], [0.246719628572464, 0.2555682063102722, 0.2611638605594635, 0.26274776458740234, 0.2588176429271698, 0.2500520646572113, 0.23664577305316925, 0.21908174455165863, 0.19794119894504547, 0.17378593981266022, 0.1480492502450943, 0.12158539146184921, 0.09505562484264374, 0.06871452182531357, 0.043715354055166245, 0.019822822883725166], [0.03708673268556595, 0.04117847606539726, 0.044756338000297546, 0.04738907516002655, 0.04806431382894516, 0.046738460659980774, 0.04293327033519745, 0.036694057285785675, 0.028143171221017838, 0.017874237149953842, 0.0075217923149466515, -0.0014637577114626765, -0.007085901685059071, -0.008055679500102997, -0.0029036798514425755, 0.008462287485599518], [1.1811734437942505, 1.6619189977645874, 2.130382776260376, 2.551241397857666, 2.89076828956604, 3.14142107963562, 3.2881875038146973, 3.3304641246795654, 3.2754440307617188, 3.1467113494873047, 2.988213062286377, 2.8409736156463623, 2.7553133964538574, 2.7705540657043457, 2.9157533645629883, 3.191009759902954], [-0.025283003225922585, -0.029584204778075218, -0.0339990109205246, -0.038275182247161865, -0.04245433211326599, -0.04622920975089073, -0.04951988160610199, -0.052140623331069946, -0.0540366992354393, -0.05490691214799881, -0.05427251756191254, -0.05171966552734375, -0.04683518409729004, -0.039551958441734314, -0.029732123017311096, -0.01792767643928528], [0.1125159040093422, 0.10113628953695297, 0.08810096234083176, 0.07405545562505722, 0.060093868523836136, 0.04693180322647095, 0.035572830587625504, 0.026244625449180603, 0.019261224195361137, 0.01462647970765829, 0.011710521765053272, 0.009371548891067505, 0.006325399037450552, 0.001460545463487506, -0.006281276699155569, -0.0171092189848423], [-0.03759532421827316, -0.0370611771941185, -0.0353206992149353, -0.032231759279966354, -0.027607280761003494, -0.02215195819735527, -0.01593618281185627, -0.009608474560081959, -0.003787735942751169, 0.0004406541702337563, 0.001909418380819261, -0.00028691586339846253, -0.007102824281901121, -0.019024012610316277, -0.03593787923455238, -0.057135820388793945], [0.032291583716869354, 0.032571256160736084, 0.03229493275284767, 0.031465332955121994, 0.029589511454105377, 0.027134086936712265, 0.02379603497684002, 0.019794752821326256, 0.015376771800220013, 0.01134373340755701, 0.009065590798854828, 0.009697839617729187, 0.014722079038619995, 0.024977020919322968, 0.04103264585137367, 0.06223921850323677], [0.04057382047176361, 0.041346482932567596, 0.04374999180436134, 0.0482860803604126, 0.05563979223370552, 0.0654180496931076, 0.07773715257644653, 0.09213981032371521, 0.10830909013748169, 0.12542778253555298, 0.14223544299602509, 0.15776513516902924, 0.17076914012432098, 0.17999815940856934, 0.18471013009548187, 0.184536412358284], [-0.036777738481760025, -0.037336140871047974, -0.03681918606162071, -0.03505594655871391, -0.03183944895863533, -0.02772870659828186, -0.022892137989401817, -0.017885437235236168, -0.013012824580073357, -0.008878533728420734, -0.006255527026951313, -0.00569904875010252, -0.007823712192475796, -0.012721355073153973, -0.020592497661709785, -0.0308754350990057], [0.006860494613647461, 0.006966918241232634, 0.006963635794818401, 0.006932944059371948, 0.006884601898491383, 0.006779072806239128, 0.006794209126383066, 0.0070097907446324825, 0.007497635670006275, 0.00840693712234497, 0.009706984274089336, 0.011100813746452332, 0.012291785329580307, 0.012792977504432201, 0.012555829249322414, 0.01136466208845377], [-0.09583169221878052, -0.10143387317657471, -0.10542501509189606, -0.10712610930204391, -0.10616122931241989, -0.10276187211275101, -0.09722816944122314, -0.09041738510131836, -0.08283427357673645, -0.07510700821876526, -0.06770928204059601, -0.060781702399253845, -0.054535944014787674, -0.048469968140125275, -0.04251392185688019, -0.03606405109167099], [-0.02191046252846718, -0.022831834852695465, -0.025797070935368538, -0.03061542846262455, -0.03681003674864769, -0.043971702456474304, -0.051294416189193726, -0.05808684602379799, -0.06343051791191101, -0.06635027378797531, -0.06660418957471848, -0.06373925507068634, -0.05798431485891342, -0.04931890219449997, -0.03865616396069527, -0.026460563763976097], [-0.0039168717339634895, -0.00168353202752769, 0.0025152137968689203, 0.008236994035542011, 0.014824509620666504, 0.02115909941494465, 0.026257924735546112, 0.029003283008933067, 0.028749749064445496, 0.02503775618970394, 0.017773672938346863, 0.007294042967259884, -0.0056619360111653805, -0.019954422488808632, -0.03441628813743591, -0.04757184535264969], [-0.09098561853170395, -0.09920626133680344, -0.10720252245664597, -0.11395665258169174, -0.11841563135385513, -0.12080121040344238, -0.12070084363222122, -0.11835185438394547, -0.11359644681215286, -0.10741549730300903, -0.10151039808988571, -0.09727028012275696, -0.09630084782838821, -0.09946247190237045, -0.10794933140277863, -0.12127555906772614], [-0.1231326088309288, -0.10783712565898895, -0.0926097109913826, -0.0780624970793724, -0.06890388578176498, -0.06578287482261658, -0.07201806455850601, -0.0882270485162735, -0.11353710293769836, -0.14409366250038147, -0.17177900671958923, -0.18814967572689056, -0.18250785768032074, -0.14763444662094116, -0.07747247815132141, 0.026617325842380524], [0.03145945817232132, 0.03434159979224205, 0.03827556595206261, 0.04382869601249695, 0.04947255924344063, 0.054879821836948395, 0.05894124507904053, 0.06074989214539528, 0.05979077145457268, 0.055131323635578156, 0.04700807109475136, 0.03501250222325325, 0.019561216235160828, 0.000363676343113184, -0.02093653567135334, -0.04437170922756195], [-0.029812965542078018, -0.03356894105672836, -0.036723583936691284, -0.038671210408210754, -0.03835873305797577, -0.03560711070895195, -0.02987785078585148, -0.02124728076159954, -0.010075018741190434, 0.0026839287020266056, 0.015305126085877419, 0.025935892015695572, 0.032433733344078064, 0.03326088562607765, 0.027005774900317192, 0.013467482291162014], [0.0188723336905241, 0.020668333396315575, 0.022045955061912537, 0.022907882928848267, 0.02333863265812397, 0.02323230914771557, 0.022775594145059586, 0.022153321653604507, 0.021417902782559395, 0.020324472337961197, 0.018715273588895798, 0.016327206045389175, 0.012729366309940815, 0.0076185110956430435, 0.0008280196343548596, -0.007715234067291021], [-0.11033011227846146, -0.1463174670934677, -0.18061335384845734, -0.21366287767887115, -0.2418273687362671, -0.26615163683891296, -0.2854566276073456, -0.3004220426082611, -0.3109284043312073, -0.3173574209213257, -0.3252575397491455, -0.3383471667766571, -0.3630760610103607, -0.4019169211387634, -0.458863228559494, -0.5298792123794556], [0.0981517881155014, 0.10173425823450089, 0.1049964427947998, 0.10785507410764694, 0.11008106917142868, 0.11157456040382385, 0.11246505379676819, 0.11306130886077881, 0.11372627317905426, 0.11446277052164078, 0.11569879949092865, 0.11786403506994247, 0.12097357213497162, 0.12548193335533142, 0.13125744462013245, 0.13812464475631714], [0.01537865400314331, 0.012283389456570148, 0.009324226528406143, 0.006758679170161486, 0.005269736982882023, 0.004497746471315622, 0.004848213866353035, 0.006299269385635853, 0.008556545712053776, 0.010790050029754639, 0.011558719910681248, 0.009421906433999538, 0.0028428351506590843, -0.009428340941667557, -0.027951763942837715, -0.05216890946030617], [0.030069556087255478, 0.038422148674726486, 0.04552624374628067, 0.050804365426301956, 0.053653452545404434, 0.054092682898044586, 0.052202071994543076, 0.04840701445937157, 0.04320521280169487, 0.03702014684677124, 0.03047567419707775, 0.02399897761642933, 0.017982177436351776, 0.012473391368985176, 0.007771762553602457, 0.0035989549942314625], [0.0049634152092039585, 0.007537477184087038, 0.008964288048446178, 0.00882591214030981, 0.006634857505559921, 0.0025547039695084095, -0.0034189498983323574, -0.010960226878523827, -0.019544346258044243, -0.028221409767866135, -0.03591348975896835, -0.0414934940636158, -0.04385535046458244, -0.042258575558662415, -0.03623458743095398, -0.025951644405722618], [-0.11442375928163528, -0.12815815210342407, -0.13889890909194946, -0.14711663126945496, -0.1535199135541916, -0.15929894149303436, -0.16550637781620026, -0.17290690541267395, -0.1816338747739792, -0.19102010130882263, -0.20006953179836273, -0.20660729706287384, -0.2088116854429245, -0.20420633256435394, -0.19196844100952148, -0.17098653316497803], [-0.0011929298052564263, -0.0007253722287714481, -0.00035070240846835077, -0.0001324033655691892, -0.00012667212286032736, -0.0003736432990990579, -0.0008903467678464949, -0.001646729651838541, -0.0025936514139175415, -0.0036241982597857714, -0.0046375892125070095, -0.005441295448690653, -0.0058753881603479385, -0.0058009629137814045, -0.005144829396158457, -0.003918060101568699], [0.0507931262254715, 0.05942559614777565, 0.07186463475227356, 0.08637769520282745, 0.10150659829378128, 0.1146950051188469, 0.12368371337652206, 0.1262361854314804, 0.12057559192180634, 0.10483396053314209, 0.07829857617616653, 0.04051797091960907, -0.007573206443339586, -0.06413660198450089, -0.1266605108976364, -0.19156832993030548], [0.0217792559415102, 0.02563953585922718, 0.029319971799850464, 0.03272031620144844, 0.03576013818383217, 0.03850319981575012, 0.040976282209157944, 0.04319582134485245, 0.04511811584234238, 0.04658949002623558, 0.04752538353204727, 0.04769666865468025, 0.04690902680158615, 0.04501861333847046, 0.04197833314538002, 0.03776257857680321], [-0.14118212461471558, -0.16374675929546356, -0.1819491982460022, -0.19287754595279694, -0.19442851841449738, -0.18735270202159882, -0.17130117118358612, -0.14717110991477966, -0.1168939620256424, -0.08453409373760223, -0.055238306522369385, -0.03431372344493866, -0.026611102744936943, -0.03649471700191498, -0.06558015942573547, -0.11294060945510864], [-0.023499947041273117, -0.023961162194609642, -0.02474343404173851, -0.025653520599007607, -0.026434971019625664, -0.027266034856438637, -0.027967866510152817, -0.02860741689801216, -0.029083548113703728, -0.029582824558019638, -0.030290771275758743, -0.031195204704999924, -0.032447125762701035, -0.0339563824236393, -0.0358571819961071, -0.038011159747838974], [-0.10321357846260071, -0.08657973259687424, -0.06871486455202103, -0.050554532557725906, -0.0333511158823967, -0.017810437828302383, -0.0047225053422153, 0.005592536646872759, 0.012934921309351921, 0.01708928309381008, 0.01829662173986435, 0.016475893557071686, 0.011818579398095608, 0.004434062168002129, -0.005060980096459389, -0.0161135196685791], [0.02576238475739956, 0.023691797628998756, 0.021884413436055183, 0.02105332538485527, 0.021470656618475914, 0.022876420989632607, 0.025258868932724, 0.028154172003269196, 0.03152051940560341, 0.03542216494679451, 0.04036378115415573, 0.04696987196803093, 0.0558926984667778, 0.0677826851606369, 0.08275911957025528, 0.1005949005484581], [-0.05358479544520378, -0.051796868443489075, -0.049817923456430435, -0.04735866189002991, -0.044222764670848846, -0.04022867977619171, -0.03540503606200218, -0.029483534395694733, -0.022523706778883934, -0.014838708564639091, -0.006469773128628731, 0.0023006449919193983, 0.011204035952687263, 0.019890060648322105, 0.02795543149113655, 0.03498181700706482], [0.017828069627285004, 0.018570441752672195, 0.01866663433611393, 0.01806640811264515, 0.016759097576141357, 0.015076858922839165, 0.013278663158416748, 0.01165564265102148, 0.010456644929945469, 0.010041066445410252, 0.01078003365546465, 0.012929940596222878, 0.016612689942121506, 0.02181222476065159, 0.028374001383781433, 0.0358562134206295], [0.030109502375125885, 0.04384610801935196, 0.05990609899163246, 0.07678815722465515, 0.09410185366868973, 0.11005529016256332, 0.12393537908792496, 0.13453994691371918, 0.14041899144649506, 0.13965283334255219, 0.13016937673091888, 0.10978340357542038, 0.07672101259231567, 0.030446292832493782, -0.02825758419930935, -0.09698949754238129], [0.001821528421714902, 0.002084891777485609, 0.0027261299546808004, 0.0035196980461478233, 0.004102993756532669, 0.004164746031165123, 0.0033891028724610806, 0.0014924585120752454, -0.0017870455048978329, -0.006601432338356972, -0.012720408849418163, -0.019796129316091537, -0.027305077761411667, -0.03470795974135399, -0.04129241406917572, -0.04655357822775841], [0.018860293552279472, 0.01902991533279419, 0.019124986603856087, 0.01906956359744072, 0.018889835104346275, 0.01860167272388935, 0.018138844519853592, 0.01775313727557659, 0.01763818971812725, 0.017871327698230743, 0.018478523939847946, 0.01988903619349003, 0.022545101121068, 0.026466967537999153, 0.031831834465265274, 0.03842908889055252], [-0.007278486154973507, -0.00904272310435772, -0.010562891140580177, -0.01179017685353756, -0.012699014507234097, -0.013346564024686813, -0.013727403245866299, -0.013916057534515858, -0.014028898440301418, -0.01429036445915699, -0.01492459699511528, -0.01608176715672016, -0.017948301509022713, -0.020682411268353462, -0.024198872968554497, -0.028347671031951904], [0.13747282326221466, 0.19274987280368805, 0.2479640394449234, 0.3006356358528137, 0.34427177906036377, 0.3783382177352905, 0.39916524291038513, 0.40551215410232544, 0.3978392481803894, 0.37978455424308777, 0.3609692454338074, 0.3509971797466278, 0.3619782626628876, 0.4023579955101013, 0.47874221205711365, 0.5890583992004395], [1.0775083303451538, 1.4962133169174194, 1.8476041555404663, 2.099287509918213, 2.2320189476013184, 2.2479259967803955, 2.155019998550415, 1.9718647003173828, 1.7216144800186157, 1.4274970293045044, 1.1198185682296753, 0.8158268332481384, 0.533694863319397, 0.28056877851486206, 0.06581032276153564, -0.1143793985247612], [-0.06571297347545624, -0.07975214719772339, -0.0946006253361702, -0.10906278342008591, -0.12084870785474777, -0.12927673757076263, -0.13274714350700378, -0.13082003593444824, -0.12309882789850235, -0.10947085171937943, -0.09236668795347214, -0.07343929260969162, -0.056037042289972305, -0.04219858720898628, -0.0349787138402462, -0.03438336029648781], [0.08194572478532791, 0.09333497285842896, 0.10434523969888687, 0.11418689042329788, 0.12231415510177612, 0.12822631001472473, 0.13158099353313446, 0.1321844905614853, 0.1300148069858551, 0.12494649738073349, 0.11725547909736633, 0.10729873925447464, 0.09565441310405731, 0.08295277506113052, 0.06989746540784836, 0.05699320137500763], [0.012724287807941437, 0.015176843851804733, 0.017632003873586655, 0.019935520365834236, 0.022022776305675507, 0.023718444630503654, 0.024979425594210625, 0.025752441957592964, 0.025936923921108246, 0.025304267182946205, 0.023691881448030472, 0.020874397829174995, 0.016665814444422722, 0.010937216691672802, 0.0038018065970391035, -0.004538937006145716], [0.01356471236795187, 0.02273540571331978, 0.03178490325808525, 0.03986264392733574, 0.046200208365917206, 0.050241872668266296, 0.051584392786026, 0.0501386821269989, 0.045841626822948456, 0.038621362298727036, 0.028862062841653824, 0.016770917922258377, 0.0028716190718114376, -0.012416977435350418, -0.028330979868769646, -0.04422194883227348], [-0.0024002548307180405, -0.0014456656062975526, -0.00026897044153884053, 0.0011070629116147757, 0.0026677274145185947, 0.004393328912556171, 0.0062956977635622025, 0.008281981572508812, 0.010090879164636135, 0.011309455148875713, 0.011584943160414696, 0.010535519570112228, 0.007791559211909771, 0.003151427488774061, -0.0034017569851130247, -0.011766623705625534], [-0.18565255403518677, -0.22015827894210815, -0.25135132670402527, -0.2762892544269562, -0.29408973455429077, -0.30442729592323303, -0.3083004951477051, -0.3072442412376404, -0.30262231826782227, -0.29593148827552795, -0.2895216941833496, -0.28542083501815796, -0.2845492959022522, -0.288449764251709, -0.2970614433288574, -0.3099004626274109], [0.08839327096939087, 0.10901626944541931, 0.1261044442653656, 0.13779884576797485, 0.14253923296928406, 0.14103847742080688, 0.1332247406244278, 0.12010179460048676, 0.10319430381059647, 0.0847146213054657, 0.06755705177783966, 0.054177094250917435, 0.04701591283082962, 0.04774267598986626, 0.05712195113301277, 0.074683777987957], [-0.006133347284048796, -0.0036737059708684683, -0.0019243780989199877, -0.0010986466659232974, -0.001133088138885796, -0.0018365881405770779, -0.0028577062766999006, -0.003669990226626396, -0.004065492190420628, -0.003902918193489313, -0.003004641504958272, -0.0015592128038406372, 0.00023820536443963647, 0.002009674673900008, 0.003582904813811183, 0.004564099479466677], [0.08812560141086578, 0.09049905091524124, 0.09343467652797699, 0.09742657095193863, 0.10223888605833054, 0.10696787387132645, 0.11056940257549286, 0.1115584746003151, 0.10997585952281952, 0.10623832792043686, 0.10068973153829575, 0.09446650743484497, 0.08881793171167374, 0.08542323112487793, 0.08488889783620834, 0.08843673020601273], [-0.03115636110305786, -0.031662531197071075, -0.032281260937452316, -0.03300556540489197, -0.033800411969423294, -0.034767426550388336, -0.0358184389770031, -0.03697234392166138, -0.0381680503487587, -0.03938392922282219, -0.04062561318278313, -0.04181636869907379, -0.04293020814657211, -0.043928589671850204, -0.04471489414572716, -0.04531456530094147], [-0.005934759508818388, -0.0033036554232239723, -0.0014338704058900476, -0.0005857197102159262, -0.0007464635418727994, -0.0016323173185810447, -0.0028920541517436504, -0.0038151931948959827, -0.004300964996218681, -0.004366595763713121, -0.004077218007296324, -0.003750063944607973, -0.003907748963683844, -0.0052371700294315815, -0.008113916032016277, -0.013002357445657253], [-0.04752860963344574, -0.04737662896513939, -0.05163654685020447, -0.06036745384335518, -0.07274921983480453, -0.08797334879636765, -0.10479341447353363, -0.12135468423366547, -0.1365717649459839, -0.14919595420360565, -0.15808050334453583, -0.1626199632883072, -0.16302500665187836, -0.15930935740470886, -0.1520480066537857, -0.1417687088251114], [-0.009712441824376583, -0.009537149220705032, -0.009470203891396523, -0.009517550468444824, -0.009664993733167648, -0.009879367426037788, -0.010103095322847366, -0.010260644368827343, -0.010314068756997585, -0.010200213640928268, -0.009901421144604683, -0.009400421753525734, -0.00873582623898983, -0.007924766279757023, -0.00703256344422698, -0.006101318169385195], [-0.027065906673669815, -0.035862039774656296, -0.044310323894023895, -0.05200754106044769, -0.05891447141766548, -0.06518761813640594, -0.07090883702039719, -0.07612662762403488, -0.08067250996828079, -0.08437304198741913, -0.08664629608392715, -0.08692927658557892, -0.08459717035293579, -0.07923854142427444, -0.07053437829017639, -0.05847444757819176], [0.007006067782640457, 0.004839821252971888, 0.0031903907656669617, 0.0019478067988529801, 0.0009036281844601035, -0.0002251605037599802, -0.0017385677201673388, -0.003959914669394493, -0.007141014561057091, -0.011463112197816372, -0.01694144681096077, -0.02354825660586357, -0.03104805015027523, -0.03923943266272545, -0.047742053866386414, -0.05625816807150841], [0.005701304879039526, 0.006144560407847166, 0.0064855036325752735, 0.006659741513431072, 0.006591000594198704, 0.006319782696664333, 0.005858459509909153, 0.005247015971690416, 0.004491931293159723, 0.003674608189612627, 0.002906056586652994, 0.002266207244247198, 0.001840217155404389, 0.0016757836565375328, 0.001825973391532898, 0.0022934270091354847], [-0.036482855677604675, -0.03878020867705345, -0.04123140498995781, -0.04382278025150299, -0.04649805650115013, -0.049127981066703796, -0.05160580202937126, -0.053927093744277954, -0.05602870509028435, -0.05772506073117256, -0.05894124507904053, -0.059529904276132584, -0.05943867936730385, -0.05856863781809807, -0.05690478906035423, -0.054480601102113724], [0.026744868606328964, 0.027018878608942032, 0.026538927108049393, 0.0250729750841856, 0.02264578267931938, 0.019463710486888885, 0.015876295045018196, 0.012375296093523502, 0.00948394276201725, 0.007790595758706331, 0.007838346995413303, 0.01007109135389328, 0.014602966606616974, 0.02142443135380745, 0.030101599171757698, 0.040015220642089844], [-0.0003046706260647625, -0.00031503834179602563, -0.000352392322383821, -0.0004035711463075131, -0.0004738766292575747, -0.0005552907823584974, -0.0006463814061135054, -0.0007297977572306991, -0.0008116817916743457, -0.0008778420742601156, -0.0009358696406707168, -0.0009819496190175414, -0.0010200749384239316, -0.0010628440650179982, -0.001118805492296815, -0.0011942575220018625], [0.027130771428346634, 0.024806130677461624, 0.022600041702389717, 0.020731613039970398, 0.01933799870312214, 0.018498098477721214, 0.018222937360405922, 0.018477054312825203, 0.01916460506618023, 0.020183730870485306, 0.02141832746565342, 0.022732386365532875, 0.02403208427131176, 0.025185981765389442, 0.026070138439536095, 0.026578865945339203], [0.00018259775242768228, 0.0004214721266180277, 0.0011922710109502077, 0.0025530706625431776, 0.004348637070506811, 0.006383919157087803, 0.00859080906957388, 0.010663330554962158, 0.012409686110913754, 0.013472633436322212, 0.013679930940270424, 0.01297091506421566, 0.011278856545686722, 0.008532618172466755, 0.005012184847146273, 0.0006530793616548181], [-0.051611967384815216, -0.0633036270737648, -0.07102882117033005, -0.07431060075759888, -0.07293638586997986, -0.06707630306482315, -0.05711865425109863, -0.043757256120443344, -0.028113292530179024, -0.011344311758875847, 0.005427067168056965, 0.020967984572052956, 0.0343901701271534, 0.04467800259590149, 0.05116216465830803, 0.05330926924943924], [0.020841753110289574, 0.01596318744122982, 0.01021876372396946, 0.003931891638785601, -0.002393487375229597, -0.00815333891659975, -0.012822101823985577, -0.01568501442670822, -0.016333533450961113, -0.014449287205934525, -0.009921224787831306, -0.0030025874730199575, 0.0059299832209944725, 0.016087692230939865, 0.02672651782631874, 0.03702482581138611], [-0.006000436842441559, -0.004312443546950817, -0.002697288990020752, -0.0011664670892059803, 7.04457052052021e-05, 0.0010771029628813267, 0.001743003842420876, 0.0020036958158016205, 0.0017297780141234398, 0.0008414335316047072, -0.0005332066211849451, -0.002288836520165205, -0.004287294577807188, -0.0064229462295770645, -0.008438575081527233, -0.010331002064049244], [-0.0251658596098423, -0.027354519814252853, -0.028948336839675903, -0.029819060117006302, -0.02995704486966133, -0.02936345338821411, -0.028143756091594696, -0.026420313864946365, -0.024323297664523125, -0.02189684472978115, -0.019171779975295067, -0.016105642542243004, -0.01263879332691431, -0.00866108387708664, -0.004148305393755436, 0.0008615859551355243], [0.09002651274204254, 0.09072193503379822, 0.09093639999628067, 0.09070317447185516, 0.08998452872037888, 0.08890120685100555, 0.08748701214790344, 0.08579570800065994, 0.08377187699079514, 0.0813593938946724, 0.07857044786214828, 0.07530159503221512, 0.07157260179519653, 0.06747747957706451, 0.06313803791999817, 0.05866469442844391], [0.006684550549834967, 0.007427834905683994, 0.008154922164976597, 0.008877633139491081, 0.009565007872879505, 0.010212752968072891, 0.010793072171509266, 0.01129315048456192, 0.011744708754122257, 0.01205072458833456, 0.012151353992521763, 0.012062105350196362, 0.011794373393058777, 0.011580036953091621, 0.011244280263781548, 0.010653099976480007], [0.11314674466848373, 0.14043423533439636, 0.16892139613628387, 0.19727283716201782, 0.22403405606746674, 0.24788543581962585, 0.2677028477191925, 0.2826195955276489, 0.29219183325767517, 0.2964041531085968, 0.2959859371185303, 0.2919688820838928, 0.28607362508773804, 0.2796434164047241, 0.27421292662620544, 0.270352840423584], [-0.0010595812927931547, -0.0014962776331230998, -0.0018169383984059095, -0.0019884887151420116, -0.0019726743921637535, -0.0017506423173472285, -0.0013004824286326766, -0.0006102966144680977, 0.0003080348251387477, 0.001475637312978506, 0.002873002551496029, 0.004469834268093109, 0.006204997189342976, 0.008008838631212711, 0.009800663217902184, 0.011492973193526268], [0.011150901205837727, 0.01296218205243349, 0.01459334883838892, 0.01599644497036934, 0.0168414618819952, 0.01720009185373783, 0.016877450048923492, 0.01597353257238865, 0.014447346329689026, 0.012441640719771385, 0.010327905416488647, 0.008345368318259716, 0.006936788558959961, 0.006208380218595266, 0.006557578220963478, 0.007819914259016514], [-0.017566870898008347, -0.013057987205684185, -0.009200245141983032, -0.0065988702699542046, -0.00576422642916441, -0.006353268399834633, -0.008515500463545322, -0.011914554052054882, -0.01636449247598648, -0.02117530070245266, -0.025620870292186737, -0.029085956513881683, -0.030807025730609894, -0.030408570542931557, -0.027494164183735847, -0.022017523646354675], [-0.006632136180996895, -0.009112324565649033, -0.01157834567129612, -0.014052977785468102, -0.016623755916953087, -0.019151484593749046, -0.021583685651421547, -0.023681197315454483, -0.025228437036275864, -0.025922447443008423, -0.025347508490085602, -0.023237349465489388, -0.019401559606194496, -0.013846242800354958, -0.0067160241305828094, 0.0016206421423703432], [0.06285788863897324, 0.062469642609357834, 0.05933114141225815, 0.053184837102890015, 0.04440755024552345, 0.03388051316142082, 0.022885126993060112, 0.012914537452161312, 0.005251978058367968, 0.0008689839742146432, 0.00030353624606505036, 0.0033065369352698326, 0.00924059096723795, 0.017002267763018608, 0.025316689163446426, 0.032943278551101685], [-0.01793922670185566, -0.017130855470895767, -0.01636248081922531, -0.015752991661429405, -0.015447692945599556, -0.01541528757661581, -0.01567632518708706, -0.016173653304576874, -0.01692464016377926, -0.017913352698087692, -0.01908048242330551, -0.02044982649385929, -0.021985536441206932, -0.02369915321469307, -0.025502560660243034, -0.02734490856528282], [0.01798851042985916, 0.020577311515808105, 0.022935207933187485, 0.025006238371133804, 0.027007263153791428, 0.029083313420414925, 0.031321968883275986, 0.03382902964949608, 0.03648040071129799, 0.03922533616423607, 0.041984472423791885, 0.04458403214812279, 0.046942975372076035, 0.0491296611726284, 0.051124993711709976, 0.05292617902159691], [0.022350622341036797, 0.023403726518154144, 0.024611523374915123, 0.025994030758738518, 0.027503948658704758, 0.02909914217889309, 0.030705345794558525, 0.03217509388923645, 0.03348645567893982, 0.03467103838920593, 0.035779330879449844, 0.03688269108533859, 0.03807000815868378, 0.03951029106974602, 0.04121455177664757, 0.04325472563505173], [-0.04613698646426201, -0.047909073531627655, -0.05014659836888313, -0.05284871533513069, -0.05596807971596718, -0.05936874821782112, -0.0629279837012291, -0.0664529800415039, -0.0698108971118927, -0.07293933629989624, -0.07574186474084854, -0.07826649397611618, -0.08054079115390778, -0.08263684064149857, -0.08454123139381409, -0.08623659610748291], [-0.008565668947994709, -0.008813467808067799, -0.00883499626070261, -0.008650206960737705, -0.00829638633877039, -0.007842211052775383, -0.007370267529040575, -0.0070006148889660835, -0.0068316082470119, -0.006948711816221476, -0.00737515464425087, -0.008096590638160706, -0.009048166684806347, -0.010132030583918095, -0.011256550438702106, -0.012324811890721321], [-0.012875850312411785, -0.014919714070856571, -0.016249878332018852, -0.016641028225421906, -0.01580793224275112, -0.014071227051317692, -0.01153052318841219, -0.008764064870774746, -0.005984852556139231, -0.0034638752695173025, -0.001723467605188489, -0.001112057245336473, -0.0020688932854682207, -0.00439959391951561, -0.008325175382196903, -0.01315322145819664], [-0.026604730635881424, -0.02084398828446865, -0.015148699283599854, -0.009893309324979782, -0.005379670299589634, -0.0017971183406189084, 0.000681909907143563, 0.0021031307987868786, 0.0025431879330426455, 0.002204929944127798, 0.001327986130490899, 0.00020058202790096402, -0.0009678362403064966, -0.0019390058005228639, -0.002650173380970955, -0.003011398483067751], [0.12030010670423508, 0.12388637661933899, 0.12701785564422607, 0.13000527024269104, 0.13323679566383362, 0.13668598234653473, 0.14044561982154846, 0.14431431889533997, 0.14832806587219238, 0.15253695845603943, 0.15701735019683838, 0.16196958720684052, 0.16739793121814728, 0.17345339059829712, 0.17997315526008606, 0.18717150390148163], [0.010655459016561508, 0.01225895993411541, 0.013692645356059074, 0.014976916834712029, 0.015935547649860382, 0.01667802408337593, 0.017173783853650093, 0.01743170991539955, 0.017449920997023582, 0.017275964841246605, 0.017039518803358078, 0.016904029995203018, 0.017092784866690636, 0.017815805971622467, 0.019123833626508713, 0.02091953717172146], [-0.00962543673813343, -0.010371034033596516, -0.010823000222444534, -0.01091932412236929, -0.010736295022070408, -0.010240412317216396, -0.009487569332122803, -0.008485267870128155, -0.007274116389453411, -0.005754451267421246, -0.003880817908793688, -0.0015361825935542583, 0.001332285930402577, 0.004844910465180874, 0.008975397795438766, 0.013653519563376904], [0.014372645877301693, 0.011573257856070995, 0.007407578639686108, 0.0019807356875389814, -0.004401269368827343, -0.011469743214547634, -0.018846599385142326, -0.026258261874318123, -0.0335448682308197, -0.040494102984666824, -0.0471503883600235, -0.05348212644457817, -0.05955671891570091, -0.06527175009250641, -0.07062584161758423, -0.07538848370313644], [-0.06691837310791016, -0.06954563409090042, -0.07188741862773895, -0.07378430664539337, -0.07507479190826416, -0.075441874563694, -0.0746416449546814, -0.07236254215240479, -0.06863487511873245, -0.06368601322174072, -0.05768232047557831, -0.05114159733057022, -0.044642042368650436, -0.038813598453998566, -0.033913638442754745, -0.03031075745820999], [0.005339302588254213, 0.004285869188606739, 0.0032143795397132635, 0.002175966277718544, 0.0012501395540311933, 0.0004314649850130081, -0.00021763348195236176, -0.0006609509000554681, -0.0009049602667801082, -0.0009822574211284518, -0.0009599967743270099, -0.00090682168956846, -0.0009246018016710877, -0.0011025003623217344, -0.001521662576124072, -0.002208920195698738], [0.014285982586443424, 0.01430901512503624, 0.014226467348635197, 0.01402222365140915, 0.013513030484318733, 0.012833175249397755, 0.011968320235610008, 0.011020268313586712, 0.009838743135333061, 0.008389911614358425, 0.006644845474511385, 0.004505873657763004, 0.001967022893950343, -0.001069642137736082, -0.004504186101257801, -0.008344217203557491], [0.006586096715182066, 0.006758876610547304, 0.006981081794947386, 0.007294171489775181, 0.007709191180765629, 0.0082186134532094, 0.008801610209047794, 0.009387969970703125, 0.009914140217006207, 0.010305688716471195, 0.010494078509509563, 0.01040141936391592, 0.009970211423933506, 0.009150880388915539, 0.007938683032989502, 0.006351904943585396], [0.03614801540970802, 0.0344892255961895, 0.03280411660671234, 0.03116251341998577, 0.029698768630623817, 0.02856365405023098, 0.027828706428408623, 0.027605503797531128, 0.027880452573299408, 0.02877972088754177, 0.030216779559850693, 0.03227344900369644, 0.03479352220892906, 0.03784114122390747, 0.04112556204199791, 0.044556885957717896], [-0.0008977921097539365, -0.0009342282428406179, -0.0009534753044135869, -0.0009559511090628803, -0.0009403412695974112, -0.0009136225562542677, -0.0008857037755660713, -0.0008585915784351528, -0.0008358426275663078, -0.0008187076891772449, -0.0008118088589981198, -0.0008142741862684488, -0.0008168636122718453, -0.0008153719245456159, -0.0008041929104365408, -0.0007806927314959466], [-0.004091833718121052, -0.0014285838697105646, 0.002142178127542138, 0.006290107499808073, 0.010661577805876732, 0.014733102172613144, 0.018080176785588264, 0.02017717808485031, 0.02068808302283287, 0.01928824745118618, 0.01591230370104313, 0.010590599849820137, 0.003589387983083725, -0.004710033535957336, -0.013749814592301846, -0.022973433136940002], [0.003407818265259266, 0.0035216123796999454, 0.003629486309364438, 0.003733420744538307, 0.0038343146443367004, 0.003930571489036083, 0.004019452258944511, 0.004098169039934874, 0.004161101765930653, 0.00419923011213541, 0.0042068543843925, 0.004179788287729025, 0.004114339128136635, 0.004014212172478437, 0.0038842561189085245, 0.003731001866981387], [-0.015703603625297546, -0.00956674199551344, -0.004102267790585756, 0.0002493743668310344, 0.003082435578107834, 0.004538409877568483, 0.0045844437554478645, 0.0033461321145296097, 0.0009640128118917346, -0.0020384779199957848, -0.005010760854929686, -0.007378386799246073, -0.008618480525910854, -0.008256861940026283, -0.006123426370322704, -0.0021721008233726025], [-0.005058454815298319, -0.006817713845521212, -0.008427217602729797, -0.009695095010101795, -0.010485720820724964, -0.010718698613345623, -0.010345141403377056, -0.009332885965704918, -0.007676645182073116, -0.005405666306614876, -0.002528195036575198, 0.0008862434769980609, 0.004750245250761509, 0.008941368199884892, 0.013300660997629166, 0.01762799173593521], [0.055479295551776886, 0.05663777142763138, 0.05750899761915207, 0.05795606970787048, 0.057882387191057205, 0.05739319324493408, 0.056464098393917084, 0.055066172033548355, 0.05331309512257576, 0.05145461484789848, 0.04980626702308655, 0.048704832792282104, 0.048489078879356384, 0.049512267112731934, 0.05181015282869339, 0.055435240268707275], [-0.00705845607444644, -0.0070031206123530865, -0.007064486853778362, -0.00739977415651083, -0.007949450984597206, -0.008659999817609787, -0.009360806085169315, -0.009860174730420113, -0.010137271136045456, -0.010319809429347515, -0.01060935202986002, -0.011420832015573978, -0.01306126732379198, -0.015933221206068993, -0.020144639536738396, -0.025601351633667946], [0.010713242925703526, 0.0076791876927018166, 0.00466127460822463, 0.0017437676433473825, -0.0010146164568141103, -0.0035825632512569427, -0.0059229047037661076, -0.008026971481740475, -0.009884542785584927, -0.011534125544130802, -0.013010017573833466, -0.01435038074851036, -0.015583041124045849, -0.016755791381001472, -0.017888326197862625, -0.01901870034635067], [0.0027790190652012825, 0.002914167009294033, 0.003041971242055297, 0.0031610731966793537, 0.0032702975440770388, 0.0033671993296593428, 0.0034534332808107138, 0.0035230950452387333, 0.003578075673431158, 0.003614061512053013, 0.003628914011642337, 0.003619038499891758, 0.0035781171172857285, 0.0035045298282057047, 0.0033983474131673574, 0.0032611223869025707], [0.039721760898828506, 0.04157891497015953, 0.04363397881388664, 0.045701928436756134, 0.04748569428920746, 0.04903632029891014, 0.0500214546918869, 0.050097618252038956, 0.0491705983877182, 0.047415778040885925, 0.04524946212768555, 0.04308755695819855, 0.04170456901192665, 0.04156043007969856, 0.043124761432409286, 0.04659280180931091], [0.001839181175455451, 0.0019299930427223444, 0.001984742470085621, 0.002011542674154043, 0.002022220753133297, 0.002034190110862255, 0.0020663575269281864, 0.002128699328750372, 0.002239752793684602, 0.002399214543402195, 0.0026026489213109016, 0.0028288864996284246, 0.0030551739037036896, 0.0032529854215681553, 0.0033901093993335962, 0.003438653890043497], [0.02702188305556774, 0.022885875776410103, 0.018417688086628914, 0.014350084587931633, 0.01046940591186285, 0.007256060838699341, 0.004628970753401518, 0.0031250547617673874, 0.0029515312053263187, 0.004618039820343256, 0.009105433709919453, 0.017223425209522247, 0.029936006292700768, 0.04757746309041977, 0.07044420391321182, 0.09748748689889908], [0.0007848459645174444, 0.0008337311446666718, 0.0008722370257601142, 0.0009051121887750924, 0.0009376195957884192, 0.0009751614416018128, 0.0010248952312394977, 0.0010969056747853756, 0.0011899590026587248, 0.0013020365731790662, 0.0014264939818531275, 0.001555097522214055, 0.0016794016119092703, 0.0017941247206181288, 0.0018938108114525676, 0.0019728008192032576], [-0.012278453446924686, -0.014149668626487255, -0.015933861956000328, -0.017605647444725037, -0.018882811069488525, -0.019793590530753136, -0.020239898934960365, -0.02028687112033367, -0.020051714032888412, -0.019756248220801353, -0.01989307627081871, -0.020845793187618256, -0.023151928558945656, -0.027006929740309715, -0.0326678641140461, -0.03988179937005043], [-0.05136212334036827, -0.03871053084731102, -0.024889076128602028, -0.010459494777023792, 0.00388116342946887, 0.017350271344184875, 0.029158027842640877, 0.03864549472928047, 0.04537130892276764, 0.0491720587015152, 0.050148751586675644, 0.04832853004336357, 0.044221680611371994, 0.038407351821660995, 0.03144686296582222, 0.024083582684397697], [-0.03191665560007095, -0.03022359311580658, -0.028577620163559914, -0.027056660503149033, -0.025817768648266792, -0.024936549365520477, -0.024499470368027687, -0.024438221007585526, -0.024816812947392464, -0.025661032646894455, -0.026804212480783463, -0.02809864655137062, -0.029318993911147118, -0.030342787504196167, -0.03095817379653454, -0.031205493956804276], [-0.012209718115627766, -0.010416519828140736, -0.008532164618372917, -0.006827895063906908, -0.005573860835283995, -0.0051178475841879845, -0.005571439862251282, -0.006955374032258987, -0.009293558076024055, -0.012675276957452297, -0.016965972259640694, -0.02207646146416664, -0.027859538793563843, -0.034155115485191345, -0.04065791890025139, -0.047277774661779404], [0.004010290373116732, 0.004197434522211552, 0.004381935112178326, 0.004557629115879536, 0.004714603535830975, 0.004845983348786831, 0.004942876752465963, 0.005001344718039036, 0.00501440791413188, 0.004975997377187014, 0.004880418069660664, 0.004723964259028435, 0.004500900395214558, 0.0042163291946053505, 0.003876726608723402, 0.00348874693736434], [-0.008898311294615269, -0.009833534248173237, -0.010971791110932827, -0.012169519439339638, -0.013280624523758888, -0.01412686612457037, -0.014583978801965714, -0.014547416940331459, -0.013941274955868721, -0.012637968175113201, -0.010634713806211948, -0.007918846793472767, -0.004585739225149155, -0.0006936033605597913, 0.003544608596712351, 0.007964475080370903], [-0.0035717312712222338, -0.003945714328438044, -0.004309564363211393, -0.004669133108109236, -0.005031817592680454, -0.005396781023591757, -0.005765173118561506, -0.006134959869086742, -0.00648638466373086, -0.006789771839976311, -0.0070068687200546265, -0.007104858756065369, -0.007055965252220631, -0.006843507755547762, -0.006462351884692907, -0.005918968003243208], [-0.009798040613532066, -0.011228597722947598, -0.012658030726015568, -0.013960788957774639, -0.015008003450930119, -0.015691356733441353, -0.015950525179505348, -0.01576940156519413, -0.015153808519244194, -0.014134545810520649, -0.012809406965970993, -0.011251876130700111, -0.00958490464836359, -0.007824333384633064, -0.005994507111608982, -0.004110473673790693], [-0.01331151183694601, -0.011469517834484577, -0.009600195102393627, -0.007760284468531609, -0.006120378151535988, -0.004740440286695957, -0.003770137205719948, -0.003271697089076042, -0.0033507198095321655, -0.0039919582195580006, -0.005082151386886835, -0.0065316250547766685, -0.008140567690134048, -0.00976831279695034, -0.011219587177038193, -0.012428157031536102]], "lstm.weight_hh_l0": [[0.06572438776493073, 0.10978369414806366, -0.004771486856043339, 0.05474197864532471, 0.047756269574165344, 0.003312598215416074, -0.03397899493575096, 0.197760209441185, 0.014176158234477043, -0.15618544816970825, 0.0433117039501667, 0.004778028465807438, 0.013351642526686192, -0.030600253492593765, -0.13362053036689758, 0.17061543464660645, 0.022144118323922157, -0.03431208059191704, 0.058257125318050385, 0.029059700667858124, 0.10577717423439026, -0.0011697392910718918, 0.039339326322078705, 0.009399156086146832, -0.08287181705236435, 0.012545743957161903, -0.05067678168416023, 0.23672527074813843, 0.04036300629377365, -0.0290147103369236, -0.004472429398447275, -0.08038449287414551, -0.12551963329315186, -0.11047820746898651, -0.03657145798206329, -0.005425674840807915, -0.08737441897392273, 0.14148929715156555, 0.023130448535084724, 0.004473014269024134, 0.030256237834692, 0.04074887931346893, 0.03392079100012779, -0.05242278426885605, 0.00637730723246932, 0.044321998953819275, 0.039942752569913864, -0.060247693210840225, 0.042408984154462814, 0.0185449980199337, -0.016984233632683754, 0.003738044062629342, 0.011451879516243935, -0.06407766789197922, -0.012910577468574047, -0.05338849127292633, 0.11845480650663376, 0.08033287525177002, -0.11176358908414841, -0.01114201545715332, -0.005945105105638504, 0.029976187273859978, 0.02612213045358658, 0.026635795831680298], [0.2251436412334442, 0.3865034878253937, -0.0784844309091568, 0.8976260423660278, -0.509645402431488, -0.05467842146754265, -0.1248069629073143, -0.5780947208404541, 0.07279032468795776, 0.24967969954013824, -0.15760748088359833, 0.01563117280602455, -0.06208455562591553, -0.34670236706733704, -0.8248756527900696, -0.4780583083629608, 0.5405396819114685, 0.08007021248340607, -0.18714416027069092, 0.003425066126510501, -0.48244884610176086, 0.07311660051345825, -0.06468711793422699, 0.3395724892616272, -0.12730011343955994, -0.09481889009475708, 0.302755743265152, 0.4707445502281189, -0.21646694839000702, 0.2944713234901428, -0.002127021085470915, 0.36704540252685547, 0.3814573585987091, 0.1359207183122635, 0.12367277592420578, -0.12742161750793457, -1.1445399522781372, -0.2303534746170044, -0.351244181394577, 0.0574004240334034, 0.03757258877158165, -0.08269456028938293, 0.04486561194062233, -0.22147110104560852, 0.09592751413583755, 0.2755138874053955, 0.24426902830600739, 0.16407035291194916, 0.3281119763851166, -0.02746138535439968, 0.0715232864022255, -0.358289897441864, -0.04845260828733444, -0.04905201867222786, 0.039358511567115784, 1.0410510301589966, 0.4574832618236542, 0.011397984810173512, -0.04426099732518196, -0.12905359268188477, 0.13612380623817444, 0.11969327926635742, 0.9813313484191895, -0.002805529162287712], [-0.025339918211102486, 0.14547859132289886, -0.061611585319042206, -0.013329049572348595, -0.004937207326292992, 0.010127119719982147, -0.046248964965343475, 0.001993883401155472, 0.004460830241441727, 0.012183462269604206, 0.026600364595651627, 0.005288927350193262, -0.024869512766599655, -0.09422165900468826, 0.04772245138883591, 0.08325085043907166, 0.06957285106182098, 0.0003319658571854234, -0.013072028756141663, 0.018153607845306396, -0.07593919336795807, 0.008382673375308514, -0.0653081014752388, 0.06404944509267807, -0.08947634696960449, -0.1438894271850586, -0.014410754665732384, 0.12608946859836578, -0.03196460008621216, 0.0008934664074331522, -0.024917589500546455, -0.03985459730029106, 0.10798649489879608, 0.02471325360238552, -0.0008543675648979843, 0.028239887207746506, -0.0928630605340004, 0.039486195892095566, 0.003350859507918358, 0.03854839876294136, 0.019234701991081238, 0.007269938942044973, 0.016795564442873, -0.10483301430940628, 0.013366560451686382, 0.034226443618535995, 0.023591579869389534, -0.01827237568795681, 0.0022495153825730085, 0.004560496658086777, 0.01908586174249649, -0.03242159262299538, 0.008777162060141563, -0.009402930736541748, 0.0023742388002574444, 0.006231506355106831, -0.022286538034677505, 0.03841029107570648, -0.09459030628204346, -0.01293153502047062, -0.010888694785535336, 0.017517367377877235, 0.023170625790953636, -0.04836302995681763], [-0.030090589076280594, 0.0005258958553895354, 0.07895030081272125, -0.051534008234739304, -0.07913291454315186, 0.01304399874061346, -0.15771180391311646, -0.018608372658491135, 0.011063216254115105, -0.06427249312400818, -0.04609355702996254, -0.04858946055173874, -0.04210178926587105, 0.08154448866844177, -0.08344822376966476, -0.08958342671394348, -0.0748584195971489, 0.038932088762521744, -0.05769016593694687, -0.001597476308234036, 0.15544919669628143, -0.012423468753695488, -0.2295524924993515, -0.026094159111380577, 0.08717525750398636, 0.2397628128528595, 0.04690142720937729, -0.16814018785953522, -0.04023006558418274, 0.03345031291246414, 0.054112933576107025, 0.1895214021205902, -0.006500431336462498, -0.04989384487271309, 0.002607823582366109, -0.04079980030655861, 0.268003910779953, 0.026655878871679306, 0.019606254994869232, -0.03354370594024658, -0.05617327243089676, 0.0649508386850357, -0.006529517471790314, 0.12447517365217209, 0.00021445195307023823, -0.03882407024502754, -0.032429322600364685, -0.045151613652706146, 0.09011639654636383, 0.004104159772396088, -0.0021150612737983465, 0.11522563546895981, -0.009067462757229805, 0.17126105725765228, -0.0029113146010786295, -0.2888168692588806, -0.03261793777346611, -0.08821923285722733, 0.15000402927398682, 0.009158180095255375, -0.026886027306318283, -0.029481742531061172, -0.019345903769135475, 0.08817335218191147], [0.1144658625125885, 0.550414502620697, 0.07045270502567291, -0.28629812598228455, 0.17280778288841248, -0.04809435084462166, 0.48105156421661377, 0.08615849912166595, 0.0008574073435738683, -0.48270514607429504, -0.15727809071540833, 0.0755019560456276, -0.02917284145951271, 0.9344805479049683, -1.8250532150268555, -0.027498356997966766, 0.4591454863548279, -0.19249631464481354, -0.05722106993198395, -0.020634150132536888, 1.2169588804244995, -0.08913317322731018, -0.1023738831281662, -0.49128007888793945, -0.06443487852811813, -0.47420749068260193, -0.17854709923267365, -0.008564561605453491, -0.17050160467624664, -0.16869492828845978, -0.06696107983589172, -0.39464107155799866, 0.007069232873618603, -0.44540759921073914, -0.06129683554172516, 0.017192699015140533, -0.6479039788246155, 0.5473960638046265, 0.02907802164554596, 0.13226856291294098, 0.0347755067050457, 0.1892559975385666, -0.026957562193274498, 0.09251603484153748, -0.032330580055713654, -0.20661009848117828, 0.06250971555709839, 0.15978826582431793, -0.23819558322429657, 0.2701193392276764, -0.03524220734834671, -0.36037883162498474, 0.0038293092511594296, -0.2710230052471161, 0.01738244667649269, 0.21368908882141113, -0.20930859446525574, 0.06905888020992279, -0.18291661143302917, 0.004010251723229885, 0.13256096839904785, 0.02126171626150608, -0.08816923201084137, 0.33886095881462097], [0.009844631887972355, -0.011844043619930744, 0.0036351976450532675, 0.010127546265721321, 0.009777850471436977, 0.014645452611148357, -0.0447317510843277, -0.02127750590443611, 0.012792607769370079, 0.007337668444961309, 0.010172968730330467, -0.005458689760416746, 0.0003080272872466594, -0.012516466900706291, 0.04049641266465187, -0.01930072531104088, -0.02592059224843979, 0.019032200798392296, -0.0016834695124998689, 0.0014819303760305047, -0.0059021394699811935, 0.020701654255390167, 0.004334054887294769, 0.025804108008742332, -0.015866631641983986, 0.053833700716495514, 0.018965652212500572, -0.0027399170212447643, 0.014537611976265907, 0.028012868016958237, 0.0020915844943374395, 0.0167993251234293, 0.030607623979449272, -0.015170639380812645, 0.016334954649209976, -0.0010580342495813966, -0.023149646818637848, -0.10074883699417114, -0.004362401086837053, -0.02965780347585678, -0.008537017740309238, 0.0007327970815822482, 0.00031693963683210313, -0.005390200298279524, 0.0006676101475022733, 0.024255959317088127, 0.0021159301977604628, 0.006980088073760271, 0.013401458039879799, -0.00908696185797453, 0.002864436712116003, 0.0026802716311067343, -0.00015716845518909395, -0.035857394337654114, -0.004007781855762005, -0.01140508521348238, -0.03464687615633011, -0.0016364655457437038, 0.0014218112919479609, 0.0012008444173261523, -0.022252164781093597, -0.0019595311023294926, -0.00880740862339735, -0.018280766904354095], [-0.24633389711380005, 0.0739489197731018, -0.009634137153625488, 