{"lstm.weight_ih_l0": [[-0.22747431695461273], [0.8376753330230713], [-0.14647729694843292], [-0.09464360773563385], [0.45514294505119324], [0.008641570806503296], [-0.09755293279886246], [1.5908167362213135], [-0.005750670563429594], [-0.784062385559082], [-0.5018430352210999], [0.6165755987167358], [-0.6481137871742249], [-2.1838526725769043], [10.36989688873291], [3.577303647994995], [-5.758053779602051], [1.3449407815933228], [0.06752420961856842], [-0.028933178633451462], [-0.150613933801651], [-0.1755329668521881], [0.6207728385925293], [0.5310909152030945]], "lstm.weight_hh_l0": [[0.12567441165447235, -0.4396624267101288, 0.437849223613739, 0.42862993478775024, -0.28697869181632996, -0.35370224714279175], [-0.4157409369945526, -0.2888457179069519, -0.3257521986961365, 0.5240128040313721, 0.06783664971590042, 0.030714502558112144], [-0.5486063361167908, -0.7781211733818054, -0.5045340061187744, -1.0388753414154053, -0.14398223161697388, 0.7891675233840942], [-0.1169145330786705, 0.259570449590683, 0.42218145728111267, 0.057181160897016525, 0.14377819001674652, 0.30484098196029663], [-1.6056965589523315, -0.8695110082626343, 1.975827932357788, 1.223130702972412, -1.8593904972076416, 1.017289161682129], [0.2338980883359909, -0.7097687125205994, -0.9089893698692322, 0.5131527185440063, 0.2998548150062561, -0.26844075322151184], [-0.09425777196884155, 0.08264977484941483, 0.32235127687454224, 0.072292260825634, -0.3900025486946106, -0.03717495873570442], [0.09286658465862274, -0.7449886202812195, 2.1445348262786865, 0.589411199092865, -0.578659176826477, -0.31456828117370605], [-0.10047082602977753, -0.18359537422657013, 0.16402408480644226, -0.49960091710090637, 0.5248662233352661, -0.1364392191171646], [0.04600326716899872, 0.1853642612695694, -0.35022616386413574, 0.28655287623405457, 0.33924171328544617, 0.2562057077884674], [-0.29240408539772034, -0.33698412775993347, 0.11539022624492645, 0.7671806216239929, 0.26371607184410095, 0.0054355827160179615], [-0.036969877779483795, 0.060377344489097595, 0.2678792178630829, -0.9835852980613708, 0.1265893578529358, 1.237558364868164], [0.5764033198356628, 0.018794432282447815, -1.155165672302246, -0.37020665407180786, 0.20174415409564972, -0.2002287358045578], [0.2249714434146881, 0.10369447618722916, -1.2512788772583008, -0.43407344818115234, 0.10903047770261765, 0.39639559388160706], [0.1139235869050026, 0.5216863751411438, 0.43576663732528687, -0.036023423075675964, -0.013570770621299744, -0.1740262508392334], [0.3276134729385376, 0.12377861887216568, 0.9716242551803589, 0.443787157535553, 0.050425127148628235, 0.29212409257888794], [0.020304812118411064, 0.4975022077560425, -1.2798230648040771, -0.7084341645240784, 0.9574735760688782, -0.7288119196891785], [0.15850748121738434, 0.4106767475605011, 0.14258649945259094, 0.251385897397995, -0.052465859800577164, 0.5999284386634827], [-0.24178552627563477, -0.24214933812618256, 1.2048999071121216, 0.40585190057754517, -0.3580331802368164, 0.0469147227704525], [-0.17156895995140076, -0.3872775137424469, -0.7215509414672852, 0.8866970539093018, -0.2149520218372345, 0.4761821925640106], [-0.1849566251039505, -0.7980313897132874, -0.7348207831382751, -1.0838364362716675, 0.0827823057770729, 1.1488325595855713], [-0.2497425228357315, 0.38453397154808044, 0.03496013581752777, -0.1241716518998146, -0.05966657027602196, 0.6185780763626099], [-0.33890795707702637, 0.13575345277786255, 1.0238215923309326, -0.36702707409858704, -0.20259417593479156, 0.881199300289154], [-0.7605620622634888, -0.6904135346412659, -0.13716475665569305, 0.23600828647613525, 0.0930401012301445, 0.8115576505661011]], "lstm.bias_ih_l0": [0.15779800713062286, 0.26205042004585266, 1.2056688070297241, 0.7996674180030823, 0.4781862497329712, -0.3396868407726288, 0.14128322899341583, 0.062062449753284454, -0.20813687145709991, -0.11266191303730011, -0.028604157269001007, 0.9063666462898254, -0.41739150881767273, -0.3206557333469391, -0.15398482978343964, -0.2545287609100342, 0.07640256732702255, 0.3022751212120056, 0.5215237736701965, 0.2793728709220886, 1.044785499572754, 0.18138980865478516, 0.4183911681175232, 0.060699962079524994], "lstm.bias_hh_l0": [0.23720039427280426, 0.354246586561203, 1.0315464735031128, 0.6888508796691895, 0.38080263137817383, -0.37445372343063354, 0.4955779016017914, -0.013767221942543983, -0.5531824827194214, -0.10853186994791031, -0.11099530756473541, 0.4134087562561035, 0.10451095551252365, 0.3107180595397949, 0.20455819368362427, 0.11747457087039948, -0.08809755742549896, -0.14387209713459015, -0.08723936975002289, 0.20927794277668, 1.1753009557724, 0.8688223361968994, 0.6647452712059021, 0.28945907950401306], "dense.weight": [[-0.056627653539180756, 1.0467876195907593, 0.9494237303733826, -0.42041054368019104, -1.6268051862716675, -0.2907307744026184]], "dense.bias": [-0.34323829412460327]}