{"lstm.weight_ih_l0": [[-0.0006543026538565755, -0.0006341405096463859, -0.0006172993453219533, -0.0006032438832335174, -0.0005905637517571449, -0.000577160157263279, -0.0005607843049801886, -0.0005393136525526643, -0.000511499703861773, -0.0004769380611833185, -0.00043613853631541133, -0.0003906956990249455, -0.0003424813039600849, -0.0002936203090939671, -0.0002453983179293573, -0.00019881816115230322], [-0.00021071660739835352, -0.00019206746947020292, -0.00017398400814272463, -0.00015627924585714936, -0.00013844287605024874, -0.00011982465366600081, -9.977385343518108e-05, -7.740923319943249e-05, -5.2321025577839464e-05, -2.4360904717468657e-05, 6.2083818193059415e-06, 3.8649392081424594e-05, 7.182093395385891e-05, 0.00010416048462502658, 0.0001342288451269269, 0.00016074477753136307], [7.056203321553767e-05, 7.89818586781621e-05, 9.391401545144618e-05, 0.0001137325307354331, 0.0001371049729641527, 0.00016292952932417393, 0.0001901589275803417, 0.0002185031771659851, 0.00024673427105881274, 0.0002741196076385677, 0.00029987277230247855, 0.0003234335745219141, 0.0003430880606174469, 0.00035670213401317596, 0.00036345183616504073, 0.00036186265060678124], [-0.01022789254784584, -0.011521711014211178, -0.012117656879127026, -0.012019169516861439, -0.011306320317089558, -0.010124597698450089, -0.008688784204423428, -0.007298531010746956, -0.006305456627160311, -0.006014243233948946, -0.0065936073660850525, -0.008178246207535267, -0.010718917474150658, -0.014035762287676334, -0.017900466918945312, -0.022006455808877945], [-0.009582946076989174, -0.012450674548745155, -0.015176208689808846, -0.01768874190747738, -0.019963271915912628, -0.02200338989496231, -0.023855801671743393, -0.025567786768078804, -0.027172809466719627, -0.028676290065050125, -0.030058031901717186, -0.03127545863389969, -0.03226415812969208, -0.03295715153217316, -0.03329167142510414, -0.03324361890554428], [-0.00018450748757459223, -0.00021137914154678583, -0.0002491045161150396, -0.00028894207207486033, -0.0003220718936063349, -0.0003413570229895413, -0.0003428534255363047, -0.0003260319645050913, -0.0002931947819888592, -0.0002478028181940317, -0.00019435388094279915, -0.0001373616250930354, -8.10095079941675e-05, -2.9475530027411878e-05, 1.4351418940350413e-05, 4.759681178256869e-05], [-0.0003092192346230149, -0.0003028817882295698, -0.0002896091027650982, -0.00027033736114390194, -0.0002466660225763917, -0.00022031636035535485, -0.0001926275435835123, -0.00016450625844299793, -0.00013643510465044528, -0.00010827428195625544, -7.95224477769807e-05, -4.956529301125556e-05, -1.7915805074153468e-05, 1.5775243809912354e-05, 5.121622598380782e-05, 8.771462307777256e-05], [-0.0005006626015529037, -0.0004926592228002846, -0.00048386689741164446, -0.000474550761282444, -0.00046455004485324025, -0.00045383634278550744, -0.0004422092461027205, -0.000429314561188221, -0.00041536547360010445, -0.0004004009533673525, -0.00038424856029450893, -0.00036669441033154726, -0.00034843487082980573, -0.0003299441887065768, -0.0003115906729362905, -0.00029392485157586634], [9.202126966556534e-05, 8.714768046047539e-05, 8.162583253579214e-05, 7.550176815129817e-05, 6.895323895150796e-05, 6.21238723397255e-05, 5.522559877135791e-05, 4.8421228711958975e-05, 4.1738028812687844e-05, 3.511232353048399e-05, 2.8449210731196217e-05, 2.1624748114845715e-05, 1.4393592209671624e-05, 6.591340934392065e-06, -1.8765949789667502e-06, -1.103041176975239e-05], [-0.03565012663602829, -0.03479824960231781, -0.0337199792265892, -0.032399944961071014, -0.03090912662446499, -0.02923503704369068, -0.027427801862359047, -0.025478854775428772, -0.02340204082429409, -0.021288810297846794, -0.01921280100941658, -0.01722235232591629, -0.01535565871745348, -0.013614042662084103, -0.01199797447770834, -0.010520550422370434], [-0.00029375526355579495, -0.0002641596947796643, -0.00023442860401701182, -0.00020372416474856436, -0.0001713841047603637, -0.00013702656724490225, -0.00010060273780254647, -6.259874498937279e-05, -2.4067914637271315e-05, 1.3563971151597798e-05, 4.8827947466634214e-05, 8.050911856116727e-05, 0.00010774386464618146, 0.00012999962200410664, 0.00014791861758567393, 0.00016215615323744714], [-0.0007664131699129939, -0.0006464264006353915, -0.0005293264403007925, -0.0004160903044976294, -0.0003068948572035879, -0.00020121906709391624, -9.842732106335461e-05, 3.040673618670553e-06, 0.00010329371434636414, 0.00020250529632903636, 0.0003003667516168207, 0.0003963698400184512, 0.0004886608803644776, 0.0005747489631175995, 0.0006533608539029956, 0.0007232487550936639], [0.00014072205522097647, 0.00012063555186614394, 9.649166895542294e-05, 7.130760786822066e-05, 4.832158447243273e-05, 3.0081711884122342e-05, 1.8179860489908606e-05, 1.2601718481164426e-05, 1.1979587725363672e-05, 1.3736345863435417e-05, 1.4784607628826052e-05, 1.2366726878099144e-05, 4.44176112068817e-06, -9.711096936371177e-06, -2.888240123866126e-05, -5.0874943553935736e-05], [0.0015036218101158738, 0.0015680133365094662, 0.0016214456409215927, 0.0016628408338874578, 0.0016937432810664177, 0.0017179353162646294, 0.0017406221013516188, 0.0017683545593172312, 0.001806576270610094, 0.0018588340608403087, 0.0019263254944235086, 0.002007062779739499, 0.002096339361742139, 0.002187402220442891, 0.0022731570061296225, 0.00234709563665092], [-0.00018265242397319525, -0.00016107522242236882, -0.00014774251030758023, -0.00013751200458500534, -0.0001261740835616365, -0.00011034866474801674, -8.758221520110965e-05, -5.680453614331782e-05, -1.8287515558768064e-05, 2.660450991243124e-05, 7.53105414332822e-05, 0.00012442450679372996, 0.00017012325406540185, 0.00020827571279369295, 0.00023561831039842218, 0.00024947483325377107], [0.016993597149848938, 0.015957456082105637, 0.014980309642851353, 0.01420711912214756, 0.01375515852123499, 0.013728832826018333, 0.014177688397467136, 0.015100128017365932, 0.01646304689347744, 0.01814752072095871, 0.02000906877219677, 0.021855788305401802, 0.023501120507717133, 0.024751996621489525, 0.025427093729376793, 0.025421123951673508], [-0.015963558107614517, -0.01339634507894516, -0.009883560240268707, -0.005614063236862421, -0.0008459127857349813, 0.0040391841903328896, 0.008629594929516315, 0.012553952634334564, 0.015518736094236374, 0.017365001142024994, 0.018124936148524284, 0.017945539206266403, 0.017064353451132774, 0.01579226739704609, 0.014382213354110718, 0.01305647473782301], [-0.00033381316461600363, -0.00025679863756522536, -0.00019870907999575138, -0.0001571682805661112, -0.00012926093768328428, -0.00011181304580532014, -0.00010181751713389531, -9.680177026893944e-05, -9.477447747485712e-05, -9.416030661668628e-05, -9.400479757459834e-05, -9.370424231747165e-05, -9.307840809924528e-05, -9.209925337927416e-05, -9.080706513486803e-05, -8.929642353905365e-05], [-3.7217185308691114e-05, -3.8955622585490346e-05, -4.304297181079164e-05, -4.6584729716414586e-05, -4.6591987484134734e-05, -3.992913116235286e-05, -2.3841656002332456e-05, 3.461977030383423e-06, 4.24780955654569e-05, 9.258447244064882e-05, 0.00015204722876660526, 0.00021837929671164602, 0.0002888463204726577, 0.00036056721000932157, 0.0004311499069444835, 0.0004979344666935503], [6.8770328653045e-05, 0.00010456567542860284, 0.00012040752335451543, 0.00011856774654006585, 0.00010216502414550632, 7.473169534932822e-05, 3.979848770541139e-05, 9.504001354798675e-07, -3.913958789780736e-05, -7.816723518772051e-05, -0.00011388809798518196, -0.00014487351290881634, -0.0001709359639789909, -0.00019258179236203432, -0.00021050301438663155, -0.000226129952352494], [0.00026349048130214214, 0.00023754745780024678, 0.0001848522515501827, 0.00010174783528782427, -3.4423283068463206e-06, -0.00011264726344961673, -0.00020554834918584675, -0.0002680035540834069, -0.0002954003866761923, -0.0002918296668212861, -0.0002672442642506212, -0.00023403263185173273, -0.00020365674572531134, -0.00018509096116758883, -0.00018270660075359046, -0.00019754027016460896], [0.11024577915668488, 0.10989908874034882, 0.10906982421875, 0.1085733100771904, 0.10906942933797836, 0.11093304306268692, 0.11413445323705673, 0.11832316219806671, 0.12282494455575943, 0.12668198347091675, 0.12902545928955078, 0.12902875244617462, 0.12610560655593872, 0.12010519951581955, 0.11110825836658478, 0.09964893013238907], [-0.0003209022688679397, -0.0003423974267207086, -0.00036278460174798965, -0.00038169289473444223, -0.0003989711112808436, -0.00041477970080450177, -0.0004293430829420686, -0.00044308823999017477, -0.0004562541435007006, -0.0004689519992098212, -0.0004812032566405833, -0.0004927565460093319, -0.0005036026705056429, -0.0005135469837114215, -0.000522518646903336, -0.0005304465303197503], [-0.0019168498693034053, -0.0018845093436539173, -0.0018515883712098002, -0.0018202344654127955, -0.0017914719646796584, -0.0017642152961343527, -0.0017359382472932339, -0.0017024307744577527, -0.0016595579218119383, -0.0016036008019000292, -0.0015317893121391535, -0.0014430491719394922, -0.0013383077457547188, -0.0012203399091959, -0.0010926526738330722, -0.000958977616392076], [0.013649968430399895, 0.01291502732783556, 0.011316508054733276, 0.008844776079058647, 0.005553076043725014, 0.0015624844236299396, -0.0028939638286828995, -0.007559583522379398, -0.012124680913984776, -0.016280634328722954, -0.019720396026968956, -0.022181835025548935, -0.023396380245685577, -0.023250777274370193, -0.0217446219176054, -0.019020037725567818], [0.001239259261637926, -0.0012871325016021729, -0.004520343616604805, -0.00788686703890562, -0.010901998728513718, -0.01301773451268673, -0.013940449804067612, -0.01365519966930151, -0.012048402801156044, -0.009364420548081398, -0.005873026791960001, -0.0018912914674729109, 0.0022555356845259666, 0.006261011119931936, 0.009804151020944118, 0.012777714058756828], [0.00020803016377612948, 0.00020546941959764808, 0.00020441589003894478, 0.00020682558533735573, 0.000214984014746733, 0.00023075805802363902, 0.0002555682440288365, 0.0002902332053054124, 0.00033396357321180403, 0.0003841610159724951, 0.00043721855035983026, 0.000488875200971961, 0.0005346829420886934, 0.0005709192482754588, 0.0005948617472313344, 0.0006052152020856738], [-5.684726784238592e-05, 1.0446416126796976e-05, 7.493533485103399e-05, 0.0001392023405060172, 0.00020529245375655591, 0.0002740881172940135, 0.0003452581004239619, 0.0004173035849817097, 0.0004878387844655663, 0.0005542086437344551, 0.0006139463512226939, 0.0006655409233644605, 0.0007084595854394138, 0.0007434107828885317, 0.0007718061679042876, 0.000795320316683501], [0.00022429769160225987, 0.00024261506041511893, 0.00033599615562707186, 0.0005038551171310246, 0.0007410504622384906, 0.0010302683804184198, 0.0013556878548115492, 0.001694847596809268, 0.002033409895375371, 0.0023491340689361095, 0.002624521031975746, 0.002837947802618146, 0.002981394063681364, 0.003054537810385227, 0.003055577166378498, 0.003008148167282343], [0.03842809051275253, 0.0392010323703289, 0.04039500281214714, 0.042029544711112976, 0.043964680284261703, 0.04606457054615021, 0.04816494882106781, 0.05007525905966759, 0.051672033965587616, 0.052864234894514084, 0.05357055738568306, 0.05379839614033699, 0.05353254824876785, 0.05287185311317444, 0.051936693489551544, 0.05085943639278412], [0.00023147554020397365, 0.00021234476298559457, 0.00019385699124541134, 0.00017622012819629163, 0.0001596315996721387, 0.00014415424084290862, 0.0001298203569604084, 0.00011653990077320486, 0.00010408433445263654, 9.227282862411812e-05, 8.09668272268027e-05, 6.997649325057864e-05, 5.90073577768635e-05, 4.7933601308614016e-05, 3.676426422316581e-05, 2.5308254407718778e-05], [-8.548017649445683e-05, -9.163802315015346e-05, -9.47586668189615e-05, -9.42350598052144e-05, -8.987190813058987e-05, -8.208063809433952e-05, -7.159152301028371e-05, -5.9627975133480504e-05, -4.7650148189859465e-05, -3.704242408275604e-05, -2.8479003958636895e-05, -2.2316111426334828e-05, -1.8598475435283035e-05, -1.690206045168452e-05, -1.6317537301802076e-05, -1.5869612980168313e-05], [-0.00016811392561066896, -0.00016800087178125978, -0.00018211003043688834, -0.00020890063024125993, -0.0002441488322801888, -0.00028150039725005627, -0.000313813507091254, -0.0003338754759170115, -0.0003364450531080365, -0.00031849683728069067, -0.00027931187651120126, -0.00022116224863566458, -0.00014860215014778078, -6.744289566995576e-05, 1.6635298379696906e-05, 9.847771434579045e-05], [-0.0047511630691587925, -0.0042542689479887486, -0.003761680331081152, -0.0033766822889447212, -0.0032387101091444492, -0.00345208658836782, -0.004075814038515091, -0.0050937277264893055, -0.006357397884130478, -0.007679272908717394, -0.008801219053566456, -0.009464544244110584, -0.009469039738178253, -0.008685607463121414, -0.007066613528877497, -0.004686765372753143], [-0.00012494047405198216, -4.216928209643811e-05, 3.495538840070367e-05, 0.00010735425894381478, 0.0001760432933224365, 0.00024162966292351484, 0.0003043025790248066, 0.0003636410692706704, 0.0004187603772152215, 0.00046870653750374913, 0.0005124893505126238, 0.0005493605276569724, 0.0005785468383692205, 0.0005994460079818964, 0.0006113878916949034, 0.000613636220805347], [0.0029613671358674765, -0.0006829198682680726, -0.0048455726355314255, -0.009380494244396687, -0.014152457006275654, -0.0190525334328413, -0.024029094725847244, -0.028979964554309845, -0.03380981460213661, -0.03832484036684036, -0.04237721860408783, -0.045712754130363464, -0.04811681807041168, -0.04942746460437775, -0.04955492168664932, -0.048559676855802536], [-0.0007157443324103951, -0.000701671524439007, -0.0006884654285386205, -0.000674985465593636, -0.0006596705061383545, -0.0006402246654033661, -0.0006142494385130703, -0.0005797067424282432, -0.0005356230540201068, -0.0004823349299840629, -0.00042121639125980437, -0.0003547301748767495, -0.00028618070064112544, -0.00021898555860389024, -0.00015571956464555115, -9.809150651562959e-05], [-0.0002118766715284437, -0.0002569118223618716, -0.0002993521047756076, -0.0003414106322452426, -0.0003852214722428471, -0.00043306173756718636, -0.00048648545634932816, -0.0005453758058138192, -0.0006088251248002052, -0.0006745204445905983, -0.0007387183140963316, -0.000798206077888608, -0.0008499530958943069, -0.0008916766964830458, -0.0009218533523380756, -0.0009396134992130101], [-4.700021236203611e-05, -0.00011233346594963223, -0.0001935507752932608, -0.0002824546827469021, -0.000369142071576789, -0.00044376077130436897, -0.0004987994325347245, -0.0005305667291395366, -0.0005391977610997856, -0.0005273431306704879, -0.0004995288327336311, -0.00046097300946712494, -0.0004166986618656665, -0.0003715648490469903, -0.00032892997842282057, -0.00029192297370173037], [0.00024505527107976377, 0.00026655831607058644, 0.00027613778365775943, 0.0002726251841522753, 0.00025611085584387183, 0.0002280756161781028, 0.00019117894407827407, 0.00014850350271444768, 0.00010324278264306486, 5.760687054134905e-05, 1.317635178565979e-05, -2.9424787499010563e-05, -7.045583333820105e-05, -0.00011088326573371887, -0.0001515102048870176, -0.00019332603551447392], [-0.00012415590754244477, -0.00013117335038259625, -0.0001450587878935039, -0.00016380366287194192, -0.0001850564149208367, -0.00020605040481314063, -0.00022412958787754178, -0.00023743617930449545, -0.0002451449981890619, -0.0002472341002430767, -0.0002446581784170121, -0.0002391286543570459, -0.00023240626615006477, -0.00022627934231422842, -0.0002214352716691792, -0.00021848440519534051], [-0.017083309590816498, -0.01990044303238392, -0.022790471091866493, -0.025626307353377342, -0.02839955873787403, -0.030964946374297142, -0.03328825533390045, -0.035296160727739334, -0.036891959607601166, -0.03797215595841408, -0.03844403102993965, -0.038244038820266724, -0.037334758788347244, -0.03574853762984276, -0.03350858390331268, -0.03070540726184845], [-0.02267158217728138, -0.022699063643813133, -0.022236743941903114, -0.02126956917345524, -0.019733482971787453, -0.01768684573471546, -0.015119340270757675, -0.012099377810955048, -0.008756730705499649, -0.005199398845434189, -0.0015830540796741843, 0.001943799783475697, 0.00532453041523695, 0.008491129614412785, 0.011458507739007473, 0.014263364486396313], [0.0042920466512441635, 0.005141056142747402, 0.005964810028672218, 0.006610629614442587, 0.006942945998162031, 0.006873379461467266, 0.00637847650796175, 0.0055043650791049, 0.004378447774797678, 0.003144398331642151, 0.0019907024689018726, 0.0011078515090048313, 0.0006555243162438273, 0.0007435476873070002, 0.001391436206176877, 0.0025826958008110523], [-9.92298882920295e-05, -9.694260370451957e-05, -9.439147834200412e-05, -9.129419777309522e-05, -8.717950549907982e-05, -8.150195208145306e-05, -7.369705417659134e-05, -6.315887731034309e-05, -4.950761285726912e-05, -3.258469223510474e-05, -1.2520722521003336e-05, 1.0222251148661599e-05, 3.489299342618324e-05, 6.058287908672355e-05, 8.643341425340623e-05, 0.00011168429045937955], [-0.0003384750452823937, -0.00029893056489527225, -0.00025369669310748577, -0.0002023099223151803, -0.00014493928756564856, -8.228801743825898e-05, -1.5676723705837503e-05, 5.328353290678933e-05, 0.00012258281640242785, 0.00019046633678954095, 0.00025536175235174596, 0.0003162869543302804, 0.0003727500152308494, 0.0004250352503731847, 0.0004737520357593894, 0.0005198088474571705], [-0.01513838954269886, -0.011408907361328602, -0.006854251958429813, -0.0020172838121652603, 0.0025713692884892225, 0.0063506499864161015, 0.008978561498224735, 0.010314342565834522, 0.010449567809700966, 0.009739053435623646, 0.008678876794874668, 0.00782252661883831, 0.007625775411725044, 0.00838484987616539, 0.010139509104192257, 0.012804662808775902], [0.00012246232654433697, 0.00010608532465994358, 8.93175310920924e-05, 7.206430746009573e-05, 5.441452231025323e-05, 3.630360879469663e-05, 1.7773178115021437e-05, -1.0227595339529216e-06, -2.0076062355656177e-05, -3.923408439732157e-05, -5.845139457960613e-05, -7.763683970551938e-05, -9.696972847450525e-05, -0.00011651136446744204, -0.00013627877342514694, -0.00015631323913112283], [-0.0002955992822535336, -0.00033376747160218656, -0.0003823275619652122, -0.0004307667550165206, -0.00046675841440446675, -0.0004795947461389005, -0.0004632108611986041, -0.0004171233740635216, -0.00034603854874148965, -0.0002573588280938566, -0.00016027435776777565, -6.433013186324388e-05, 2.1927851776126772e-05, 9.156423038803041e-05, 0.0001406734372721985, 0.000168163503985852], [-0.06476577371358871, -0.06689121574163437, -0.06877384334802628, -0.07027623057365417, -0.07133495807647705, -0.071912482380867, -0.07206493616104126, -0.0718880295753479, -0.07145410776138306, -0.07084912061691284, -0.0701725035905838, -0.06949596107006073, -0.06887847930192947, -0.06833551824092865, -0.06786314398050308, -0.06742697209119797], [-0.0002650706155691296, -0.00023914914345368743, -0.00021063946769572794, -0.00018194473523180932, -0.00015518991858698428, -0.00013250864867586643, -0.00011539291881490499, -0.00010458446922712028, -0.00010083604865940288, -0.00010434983414597809, -0.00011516483209561557, -0.0001330712257185951, -0.00015820314001757652, -0.00019053865980822593, -0.00022920637275092304, -0.00027353898622095585], [0.00017132273933384567, 0.00017503750859759748, 0.00017144995217677206, 0.00016291768406517804, 0.00015186937525868416, 0.00014037199434824288, 0.00012955199053976685, 0.00011956806702073663, 0.00010972087329719216, 9.892162779578939e-05, 8.612341480329633e-05, 7.071108848322183e-05, 5.2839008276350796e-05, 3.3475014788564295e-05, 1.4589168131351471e-05, -1.6943085938692093e-06], [-0.0002943610306829214, -0.0002925987937487662, -0.000291693489998579, -0.0002896554651670158, -0.0002851125318557024, -0.00027753133326768875, -0.0002670894027687609, -0.00025490211555734277, -0.00024269305868074298, -0.00023243186296895146, -0.00022585500846616924, -0.00022418286243919283, -0.0002278747269883752, -0.00023633097589481622, -0.00024827924789860845, -0.00026205164613202214], [-0.00043251970782876015, -0.0003837759140878916, -0.0003332769265398383, -0.0002802861272357404, -0.0002244754577986896, -0.00016594289627391845, -0.00010498343908693641, -4.216377419652417e-05, 2.150248474208638e-05, 8.479046664433554e-05, 0.00014614875544793904, 0.0002039306564256549, 0.00025638402439653873, 0.0003017356211785227, 0.0003393127699382603, 0.0003690191952046007], [0.0008036033250391483, 0.00019457645248621702, -0.00048727088142186403, -0.0012816572561860085, -0.0022390452213585377, -0.003357980400323868, -0.004612543620169163, -0.005917166359722614, -0.007151664700359106, -0.00818230863660574, -0.008872912265360355, -0.009110168553888798, -0.008806688711047173, -0.007919780910015106, -0.006460803560912609, -0.004482963588088751], [-0.12274434417486191, -0.10019805282354355, -0.07450366765260696, -0.04942626878619194, -0.028298137709498405, -0.01371988095343113, -0.006990334019064903, -0.008617307990789413, -0.01811010017991066, -0.03414842113852501, -0.054795052856206894, -0.07807368785142899, -0.10213930159807205, -0.12556011974811554, -0.14709152281284332, -0.1661635786294937], [-0.031954340636730194, -0.0299944169819355, -0.027982912957668304, -0.025910884141921997, -0.02377650886774063, -0.02153806947171688, -0.01914415881037712, -0.016503939405083656, -0.013550329022109509, -0.010252932086586952, -0.00662516662850976, -0.002678150776773691, 0.001500331680290401, 0.005836538039147854, 0.010274864733219147, 0.014763018116354942], [0.00030769233126193285, 0.00022203350090421736, 0.0001367203367408365, 5.222811159910634e-05, -3.1111499993130565e-05, -0.00011277857993263751, -0.00019229133613407612, -0.00026911322493106127, -0.00034311789204366505, -0.00041417661122977734, -0.000482084637042135, -0.0005466886796057224, -0.0006082954350858927, -0.0006673430325463414, -0.0007241079583764076, -0.0007788464426994324], [-0.037705887109041214, -0.03737069293856621, -0.036889683455228806, -0.03650330752134323, -0.03644825890660286, -0.0368678942322731, -0.03787489980459213, -0.0393931120634079, -0.04124757647514343, -0.04318172484636307, -0.04500851035118103, -0.046422816812992096, -0.04725155979394913, -0.04734422639012337, -0.0466294139623642, -0.04518405720591545], [-0.023812953382730484, -0.02520833909511566, -0.02632945589721203, -0.027217954397201538, -0.027884669601917267, -0.028334081172943115, -0.028555978089571, -0.02855769172310829, -0.02832118608057499, -0.027858566492795944, -0.027192020788788795, -0.026401761919260025, -0.02556772157549858, -0.024780817329883575, -0.02414046786725521, -0.023714160546660423], [-0.0012403128203004599, -0.0011180059518665075, -0.001005647354759276, -0.000904816493857652, -0.0008156375261023641, -0.0007379502058029175, -0.0006710924790240824, -0.0006136838346719742, -0.0005654356209561229, -0.0005251566180959344, -0.0004913138109259307, -0.0004623098357114941, -0.0004378075827844441, -0.00041764939669519663, -0.0004009949043393135, -0.00038789905374869704], [0.00010688421025406569, 9.584303916199133e-05, 8.551486098440364e-05, 7.63271891628392e-05, 6.869449862278998e-05, 6.28694542683661e-05, 5.901955591980368e-05, 5.714385770261288e-05, 5.7190241932403296e-05, 5.8989389799535275e-05, 6.223527452675626e-05, 6.654992466792464e-05, 7.135180203476921e-05, 7.614941569045186e-05, 8.049065945670009e-05, 8.414140029344708e-05], [-0.001159682055003941, -0.0011723614297807217, -0.0011811626609414816, -0.0011857541976496577, -0.0011860498925670981, -0.001181742292828858, -0.0011726516531780362, -0.001158199505880475, -0.0011381340445950627, -0.0011123837903141975, -0.0010809939121827483, -0.0010443665087223053, -0.0010032030986621976, -0.0009583354694768786, -0.0009102396434172988, -0.000859550666064024], [0.00020961614791303873, 0.00018206614186055958, 0.0001417806197423488, 9.254144970327616e-05, 3.887584898620844e-05, -1.414900179952383e-05, -6.187852704897523e-05, -0.00010151168680749834, -0.0001321203599218279, -0.00015405382146127522, -0.0001695385726634413, -0.00018131948309019208, -0.0001921503571793437, -0.00020403548842296004, -0.00021694033057428896, -0.0002304156223544851], [0.00030962866730988026, 0.0003157164028380066, 0.00031652074540033937, 0.00031240444513969123, 0.0003046981291845441, 0.0002952355716843158, 0.00028637947980314493, 0.0002801950031425804, 0.000278072984656319, 0.00028038941673003137, 0.00028604839462786913, 0.00029284757329151034, 0.00029784144135192037, 0.0002980886783916503, 0.00029132701456546783, 0.0002760370261967182], [0.000258629210293293, 0.00022287864703685045, 0.00018390493642073125, 0.00014370158896781504, 0.00010491165448911488, 7.031055429251865e-05, 4.3087387894047424e-05, 2.6296640498912893e-05, 2.2210735551198013e-05, 3.2419193303212523e-05, 5.7645909691927955e-05, 9.728758595883846e-05, 0.00014949441538192332, 0.0002107904729200527, 0.0002770551363937557, 0.00034333643270656466], [-0.0002542061556596309, -0.0002460302785038948, -0.00023487844737246633, -0.00021930996445007622, -0.00019798663561232388, -0.00017035004566423595, -0.00013590420712716877, -9.425214375369251e-05, -4.603885463438928e-05, 8.524861186742783e-06, 6.832549115642905e-05, 0.00013270266936160624, 0.00020018985378555954, 0.0002695495786610991, 0.00033986769267357886, 0.0004103040846530348], [-0.03991848975419998, -0.0419812947511673, -0.04314292594790459, -0.04335039108991623, -0.0426771305501461, -0.04130984842777252, -0.039513494819402695, -0.037685249000787735, -0.03628045693039894, -0.035724058747291565, -0.03622475638985634, -0.037949711084365845, -0.04081551730632782, -0.044561050832271576, -0.04887683689594269, -0.05330672487616539], [-0.004530145786702633, -0.005312318913638592, -0.005985965020954609, -0.006463805679231882, -0.006711245980113745, -0.0067484392784535885, -0.006644377484917641, -0.006492759566754103, -0.006387940142303705, -0.006402822211384773, -0.006590595934540033, -0.006956498604267836, -0.0074797808192670345, -0.008112862706184387, -0.008799794130027294, -0.009485384449362755], [0.0007185974973253906, 0.000752585066948086, 0.0007753911195322871, 0.0007874791044741869, 0.000789367244578898, 0.0007826323271729052, 0.0007688873447477818, 0.0007499888888560236, 0.0007275562966242433, 0.000703014840837568, 0.0006772819324396551, 0.0006509263766929507, 0.000624182284809649, 0.0005968482000753284, 0.0005693130078725517, 0.000541595509275794], [0.00012180159683339298, 0.00011575823737075552, 0.00010662666318239644, 9.500808664597571e-05, 8.164080645656213e-05, 6.763733108527958e-05, 5.442577094072476e-05, 4.3595955503406e-05, 3.667210694402456e-05, 3.473511605989188e-05, 3.829229899565689e-05, 4.7229030315065756e-05, 6.0554291849257424e-05, 7.704448944423348e-05, 9.530069655738771e-05, 0.00011402012023609132], [0.00025770586216822267, 0.0002643356565386057, 0.00026867297128774226, 0.00027060951106250286, 0.00027024481096304953, 0.00026743984199129045, 0.0002626970235724002, 0.0002561376604717225, 0.0002480778202880174, 0.00023867921845521778, 0.0002284990478074178, 0.00021814796491526067, 0.00020739834872074425, 0.0001965366827789694, 0.00018585131329018623, 0.0001753603428369388], [9.378209506394342e-05, 9.58360469667241e-05, 9.77902309386991e-05, 9.966881771106273e-05, 0.00010156336065847427, 0.00010352719255024567, 0.00010572494647931308, 0.0001082442031474784, 0.00011126524623250589, 0.00011487736628623679, 0.00011913424532394856, 0.00012404751032590866, 0.000129495543660596, 0.00013535720063373446, 0.000141454569529742, 0.00014756459859199822], [0.016046565026044846, 0.015621300786733627, 0.015177980996668339, 0.014779975637793541, 0.014528362080454826, 0.014483858831226826, 0.014641420915722847, 0.01488712802529335, 0.015076985582709312, 0.01516721025109291, 0.015092238783836365, 0.014768954366445541, 0.014114325866103172, 0.013108694925904274, 0.011801393702626228, 0.010262914933264256], [-0.0002008149604080245, -0.00019796872220467776, -0.00019579078070819378, -0.00019286292081233114, -0.00018811013433150947, -0.000180851697223261, -0.0001707306073512882, -0.00015779866953380406, -0.00014298966561909765, -0.00012730099842883646, -0.00011218531290069222, -9.87791718216613e-05, -8.763788355281577e-05, -7.920609641587362e-05, -7.281075522769243e-05, -6.759347161278129e-05], [0.0008092940552160144, 0.0008291362901218235, 0.0008437918731942773, 0.0008544811862520874, 0.0008621860761195421, 0.0008671843097545207, 0.0008703453931957483, 0.0008725483203306794, 0.000873988086823374, 0.0008752985741011798, 0.0008763141231611371, 0.0008771457360126078, 0.0008775940514169633, 0.0008773976587690413, 0.0008772907895036042, 0.0008776556351222098], [0.00012098542356397957, 0.00011539569095475599, 0.00010720430873334408, 9.91117994999513e-05, 9.362671698909253e-05, 9.287249122280627e-05, 9.791131014935672e-05, 0.00010845272481674328, 0.00012275049812160432, 0.00013817186118103564, 0.00015132637054193765, 0.00015899838763289154, 0.00015896539844106883, 0.00015018464182503521, 0.00013366425991989672, 0.00011136203829664737], [0.0007271490758284926, 0.0007217655656859279, 0.000711729982867837, 0.0006957108853384852, 0.0006745406426489353, 0.0006516083376482129, 0.000632754759863019, 0.0006249735015444458, 0.0006345934234559536, 0.0006653778837062418, 0.0007181568071246147, 0.0007902879733592272, 0.0008758110925555229, 0.0009669342543929815, 0.0010557217756286263, 0.0011348809348419309], [0.00027916731778532267, 0.00033426526351831853, 0.0003868340572807938, 0.0004350700764916837, 0.0004774424305651337, 0.0005132652586326003, 0.0005423789843916893, 0.0005652006948366761, 0.0005824570544064045, 0.000594997894950211, 0.0006034444668330252, 0.0006084307096898556, 0.0006105524371378124, 0.000610320596024394, 0.0006086832727305591, 0.0006063783657737076], [0.05738163739442825, 0.05637286603450775, 0.054710596799850464, 0.05254930630326271, 0.0500728003680706, 0.04746460169553757, 0.04489856958389282, 0.042516712099313736, 0.04043053090572357, 0.03867195546627045, 0.037236135452985764, 0.03607784956693649, 0.035149797797203064, 0.03436822444200516, 0.03362969309091568, 0.03284910321235657], [0.021915728226304054, 0.018546000123023987, 0.015061935409903526, 0.011761629953980446, 0.008882501162588596, 0.0066720787435770035, 0.005282564088702202, 0.004762801341712475, 0.005120820831507444, 0.00629398413002491, 0.008119313977658749, 0.010418547317385674, 0.012903068214654922, 0.01527609582990408, 0.0172288678586483, 0.01851576194167137], [0.00013940689677838236, 0.00013337293057702482, 0.00012297320063225925, 0.00010942056542262435, 9.367306483909488e-05, 7.66614539315924e-05, 5.929185135755688e-05, 4.2206200305372477e-05, 2.585453330539167e-05, 1.0450420631968882e-05, -3.995744009444024e-06, -1.7591553842066787e-05, -3.063154508708976e-05, -4.335971607360989e-05, -5.594849426415749e-05, -6.85577979311347e-05], [-0.00014789123088121414, -0.00012802462151739746, -9.755913924891502e-05, -5.5064650950953364e-05, -5.753390723839402e-07, 6.459690484916791e-05, 0.0001378689194098115, 0.00021620083134621382, 0.0002961013524327427, 0.00037448323564603925, 0.0004482036456465721, 0.0005144125898368657, 0.0005708548706024885, 0.0006162485806271434, 0.0006501218886114657, 0.0006725143757648766], [0.0005814558826386929, 0.0007322512101382017, 0.0008815688779577613, 0.001023151446133852, 0.001151632284745574, 0.001262475154362619, 0.0013534806203097105, 0.0014239255106076598, 0.0014742035418748856, 0.0015057673444971442, 0.00152061996050179, 0.0015211317222565413, 0.0015092759858816862, 0.0014871583553031087, 0.001457091188058257, 0.0014210387598723173], [0.0004808516532648355, 0.0005316509050317109, 0.0005684451316483319, 0.000589739705901593, 0.0005955716478638351, 0.0005877447547391057, 0.0005691018886864185, 0.0005429795710369945, 0.0005126323085278273, 0.00048067723400890827, 0.0004490754217840731, 0.00041914760367944837, 0.0003917728317901492, 0.0003672944149002433, 0.0003464294713921845, 0.00032939555239863694], [0.01223543006926775, 0.005814338102936745, -5.6348624639213085e-05, -0.005113058257848024, -0.009146147407591343, -0.012245601043105125, -0.014618763700127602, -0.01679215021431446, -0.01934134215116501, -0.02280575968325138, -0.02760370261967182, -0.03400680422782898, -0.04203405976295471, -0.05144970491528511, -0.0618748664855957, -0.07274593412876129], [0.00011041549441870302, 0.0001239433913724497, 0.0001379793684463948, 0.0001514786563348025, 0.0001632195053389296, 0.0001720616564853117, 0.00017681348253972828, 0.00017654011026024818, 0.00017069431487470865, 0.00015932424867060035, 0.00014317489694803953, 0.0001234476949321106, 0.00010172313341172412, 7.977912900969386e-05, 5.8916575653711334e-05, 4.004361107945442e-05], [0.0015713443281129003, 0.0016044008079916239, 0.0016210650792345405, 0.0016188641311600804, 0.0015974367270246148, 0.0015586769441142678, 0.0015070632798597217, 0.0014487899607047439, 0.0013904118677601218, 0.001337922876700759, 0.0012947807554155588, 0.001261887839064002, 0.0012374246725812554, 0.001217353972606361, 0.0011971689527854323, 0.0011723297648131847], [-0.0044823456555604935, -0.0035176409874111414, -0.0018878900445997715, 0.0002160114818252623, 0.002519578207284212, 0.00470925634726882, 0.006439690478146076, 0.007497482467442751, 0.007715961895883083, 0.007071059662848711, 0.005590416956692934, 0.0034219117369502783, 0.0006772292545065284, -0.0024239015765488148, -0.005696408450603485, -0.008940454572439194], [-0.002383159939199686, -0.0023700231686234474, -0.002181091345846653, -0.0018613473512232304, -0.0014774065930396318, -0.0010715345852077007, -0.0006970674148760736, -0.0003838104894384742, -0.00018297089263796806, -0.0001466730609536171, -0.00029025005642324686, -0.0005653940606862307, -0.0008916121441870928, -0.0012291709426790476, -0.0015543187037110329, -0.0018648181576281786], [0.00016012722335290164, 0.0001446339301764965, 0.00012215084279887378, 9.502410830464214e-05, 6.661388033535331e-05, 4.08193955081515e-05, 2.116296673193574e-05, 1.0423531421110965e-05, 9.854194104264025e-06, 1.822271224227734e-05, 3.280338569311425e-05, 4.927969348500483e-05, 6.269341974984854e-05, 6.899480649735779e-05, 6.54660034342669e-05, 5.093100480735302e-05], [9.586371015757322e-05, 6.299625965766609e-05, 2.54874539677985e-05, -1.3477787433657795e-05, -5.0683833251241595e-05, -8.342917135450989e-05, -0.00011002403334714472, -0.0001296353730140254, -0.0001427854149369523, -0.00015146036457736045, -0.00015834493387956172, -0.00016631200560368598, -0.00017796664906200022, -0.00019465533841867, -0.00021671710419468582, -0.00024329086591023952], [0.005589512176811695, 0.005942310206592083, 0.00627210084348917, 0.006608203984797001, 0.006982495076954365, 0.00740596791729331, 0.00788754504173994, 0.00841605942696333, 0.008971428498625755, 0.009515691548585892, 0.010013837367296219, 0.010422155261039734, 0.010715457610785961, 0.010878391563892365, 0.01090225949883461, 0.010804107412695885], [0.053138330578804016, 0.05334048345685005, 0.053260695189237595, 0.053086407482624054, 0.05293627828359604, 0.05287114903330803, 0.05291298031806946, 0.05300420522689819, 0.05312396213412285, 0.053176119923591614, 0.05306440591812134, 0.05270318314433098, 0.052092235535383224, 0.051266591995954514, 0.05029120668768883, 0.04927866533398628], [0.00022873535635881126, 0.00022335571702569723, 0.0002161922020604834, 0.0002067560562863946, 0.00019466664525680244, 0.00017963912978302687, 0.0001618394162505865, 0.00014156682300381362, 0.00011928984895348549, 9.576225420460105e-05, 7.180132524808869e-05, 4.80812304886058e-05, 2.5138746423181146e-05, 3.5291523090563715e-06, -1.6450969269499183e-05, -3.484258922981098e-05], [-3.0502123991027474e-05, -3.2160642149392515e-05, -3.185344394296408e-05, -2.9547409212682396e-05, -2.5702254788484424e-05, -2.111181674990803e-05, -1.655369851505384e-05, -1.3179756933823228e-05, -1.180985418614e-05, -1.2987460650037974e-05, -1.6582787793595344e-05, -2.1945212210994214e-05, -2.8426213248167187e-05, -3.4897828300017864e-05, -4.0128317777998745e-05, -4.31606313213706e-05], [0.0010579080553725362, 0.0010809657396748662, 0.0010929174022749066, 0.0010889723198488355, 0.0010672389762476087, 0.0010295124957337976, 0.0009810994379222393, 0.0009294925257563591, 0.0008822450181469321, 0.0008452089969068766, 0.0008216548012569547, 0.0008111949427984655, 0.0008106133318506181, 0.0008149167988449335, 0.0008187965722754598, 0.0008177186828106642], [0.01952889934182167, 0.019607000052928925, 0.019492095336318016, 0.019515229389071465, 0.0199142899364233, 0.02075454406440258, 0.021957017481327057, 0.023330021649599075, 0.024655263870954514, 0.025729354470968246, 0.026509439572691917, 0.02702900767326355, 0.027389876544475555, 0.02774859219789505, 0.02823781594634056, 0.02901328355073929], [-0.00014985913003329188, -0.00015848292969167233, -0.00015977547445800155, -0.00015025472384877503, -0.00012711217277683318, -8.901344699552283e-05, -3.65132000297308e-05, 2.824518014676869e-05, 0.00010158455552300438, 0.00017921868129633367, 0.00025652223848737776, 0.0003292770416010171, 0.0003940284950658679, 0.0004486591788008809, 0.000492079823743552, 0.0005244642961770296], [-0.024189330637454987, -0.02341778390109539, -0.022390451282262802, -0.021294204518198967, -0.020379668101668358, -0.019878489896655083, -0.020034661516547203, -0.02094944380223751, -0.022628478705883026, -0.02496730536222458, -0.027874352410435677, -0.031121637672185898, -0.0344935804605484, -0.03774047642946243, -0.040601857006549835, -0.04288063198328018], [0.0006499668234027922, 0.0006703732069581747, 0.0006814986700192094, 0.0006839002016931772, 0.0006794852670282125, 0.0006715105846524239, 0.0006636213511228561, 0.0006591714918613434, 0.0006598980398848653, 0.0006657439516857266, 0.0006745167775079608, 0.0006823154399171472, 0.00068449362879619, 0.0006767332670278847, 0.0006562270573340356, 0.0006218845956027508], [-0.0003463466127868742, -0.0003459598228801042, -0.00033759436337277293, -0.00032150617334991693, -0.0002992204681504518, -0.00027315423358231783, -0.00024628761457279325, -0.00022115361934993416, -0.00020077759108971804, -0.00018605271179694682, -0.00017614720854908228, -0.0001691051002126187, -0.00016243394929915667, -0.0001531604357296601, -0.0001390385441482067, -0.0001185052387882024], [0.0007289162604138255, 0.0007590658497065306, 0.0007792593678459525, 0.000790140766184777, 0.0007926294929347932, 0.0007883119396865368, 0.0007788950460962951, 0.0007661029230803251, 0.000751462415792048, 0.000736233894713223, 0.000721124408300966, 0.000706596183590591, 0.0006928989896550775, 0.0006798957474529743, 0.000667948042973876, 0.0006569428369402885], [0.0004620517138391733, 0.000487168988911435, 0.0005100448033772409, 0.0005306944949552417, 0.0005494252545759082, 0.0005666122306138277, 0.0005829593865200877, 0.0005992457154206932, 0.0006160542834550142, 0.0006335520884022117, 0.0006516093271784484, 0.0006697358330711722, 0.000686919258441776, 0.0007018742035143077, 0.0007132312166504562, 0.0007200412801466882], [0.00017937882512342185, 0.00017751511768437922, 0.00017414063040632755, 0.00017070877947844565, 0.00016837164002936333, 0.00016817076539155096, 0.00017096337978728116, 0.00017689347441773862, 0.00018549796368461102, 0.0001956121705006808, 0.00020556888193823397, 0.00021340821695048362, 0.00021751888561993837, 0.00021659188496414572, 0.00021077223937027156, 0.00020036299247294664], [-0.014555688016116619, -0.01235957071185112, -0.0093836085870862, -0.005542319733649492, -0.0009363266872242093, 0.004254178609699011, 0.009706933982670307, 0.015070285648107529, 0.02010272443294525, 0.02451443113386631, 0.02811046876013279, 0.03067180886864662, 0.03208740055561066, 0.032193489372730255, 0.030951960012316704, 0.028447629883885384], [0.014505339786410332, 0.012529493309557438, 0.009558307006955147, 0.005835308227688074, 0.0015109460800886154, -0.0031344632152467966, -0.007958286441862583, -0.012552645988762379, -0.016632266342639923, -0.02002241648733616, -0.022596146911382675, -0.02418828196823597, -0.024895668029785156, -0.024863889440894127, -0.024396229535341263, -0.023740176111459732], [0.016992487013339996, 0.01926334761083126, 0.021433867514133453, 0.02345298044383526, 0.025257626548409462, 0.026769261807203293, 0.0279017873108387, 0.02857857197523117, 0.028749216347932816, 0.028392616659402847, 0.027518630027770996, 0.026206912472844124, 0.024585915729403496, 0.02280953712761402, 0.021006209775805473, 0.01929672434926033], [0.00025967013789340854, 0.00025449294480495155, 0.0002470740000717342, 0.00023718574084341526, 0.00022488983813673258, 0.00021030500647611916, 0.00019392346439417452, 0.00017636659322306514, 0.0001581337710376829, 0.00013952537847217172, 0.00012077551218681037, 0.00010193589696427807, 8.29967757454142e-05, 6.406847387552261e-05, 4.535315383691341e-05, 2.722806493693497e-05], [-4.2343937820987776e-05, -5.634154149447568e-05, -7.194538920884952e-05, -8.819855429464951e-05, -0.000103034995845519, -0.00011400131916161627, -0.00011857190838782117, -0.00011480136163299903, -0.0001017638569464907, -7.987137360032648e-05, -5.062091804575175e-05, -1.5986035577952862e-05, 2.1803018171340227e-05, 6.116331496741623e-05, 0.00010111252777278423, 0.00014143333828542382], [0.008045240305364132, 0.006720544304698706, 0.004720543045550585, 0.0022511701099574566, -0.0005226453067734838, -0.003400348126888275, -0.006193547509610653, -0.00870197918266058, -0.010742179118096828, -0.012302751652896404, -0.01344261784106493, -0.01420651376247406, -0.014769336208701134, -0.015240136533975601, -0.01584215648472309, -0.01667082868516445], [0.00017451209714636207, 0.00017477120854891837, 0.00017129650223068893, 0.00016402604524046183, 0.00015308387810364366, 0.00013871799455955625, 0.00012152070848969743, 0.00010219843534287065, 8.14379018265754e-05, 6.0049176681786776e-05, 3.873230889439583e-05, 1.806577893148642e-05, -1.6202702681766823e-06, -2.0008406863780692e-05, -3.71046808140818e-05, -5.3059808124089614e-05], [0.0008014414343051612, 0.0007830241229385138, 0.0007430760888382792, 0.0006852861260995269, 0.00061483692843467, 0.0005380160291679204, 0.00046060961904004216, 0.0003872347006108612, 0.00032114743953570724, 0.00026372208958491683, 0.0002152404049411416, 0.00017516846128273755, 0.00014241428289096802, 0.00011548738984856755, 9.369042527396232e-05, 7.645954610779881e-05], [-0.03561615198850632, -0.035990163683891296, -0.03664248809218407, -0.03742552548646927, -0.038248348981142044, -0.03903382644057274, -0.039764054119586945, -0.04046882316470146, -0.04113786667585373, -0.041803888976573944, -0.042451318353414536, -0.043049830943346024, -0.043519169092178345, -0.0437772274017334, -0.04373139515519142, -0.043336670845746994], [-0.00020691519603133202, -0.0001760542654665187, -0.00016204058192670345, -0.00016277050599455833, -0.00017323123756796122, -0.00018710529548116028, -0.0001973373000510037, -0.000198017674847506, -0.0001853828434832394, -0.00015749291924294084, -0.00011506362352520227, -6.0438833315856755e-05, 2.537461114116013e-06, 6.974821735639125e-05, 0.00013733119703829288, 0.00020217790734022856], [-0.0004952521994709969, -0.0004942116211168468, -0.0004914914024993777, -0.000485247524920851, -0.0004741749435197562, -0.00045795305049978197, -0.00043680734233930707, -0.00041185872396454215, -0.0003849053173325956, -0.00035773575655184686, -0.0003320187679491937, -0.00030869455076754093, -0.0002879541425500065, -0.00026949704624712467, -0.0002519979316275567, -0.0002341532672289759], [-0.0001940301590366289, -0.00019540720677468926, -0.0001951819285750389, -0.00019176435307599604, -0.0001834122376749292, -0.00016874595894478261, -0.00014713317796122283, -0.00011842482490465045, -8.364237146452069e-05, -4.4694192183669657e-05, -4.18984200223349e-06, 3.490452581900172e-05, 6.959702295716852e-05, 9.748997399583459e-05, 0.00011723570787580684, 0.00012880819849669933], [0.00041173718636855483, 0.0004744325124192983, 0.0005433248588815331, 0.0006166906678117812, 0.0006923556793481112, 0.0007679498521611094, 0.000841926725115627, 0.0009132507839240134, 0.000981063349172473, 0.0010448511457070708, 0.0011041245888918638, 0.0011579180136322975, 0.0012054326944053173, 0.0012457699049264193, 0.001278659445233643, 0.0013039963087067008], [0.0031988071277737617, 0.005059802904725075, 0.007121381815522909, 0.00930740311741829, 0.011539491824805737, 0.01373989973217249, 0.01584470458328724, 0.017815783619880676, 0.019648918882012367, 0.02134784869849682, 0.022943731397390366, 0.024471087381243706, 0.02597644180059433, 0.027500668540596962, 0.029053905978798866, 0.030659418553113937], [-0.006433935835957527, -0.007712393067777157, -0.008307723328471184, -0.008215600624680519, -0.007583919446915388, -0.006636942736804485, -0.005547413136810064, -0.0045892926864326, -0.004036311991512775, -0.004129345994442701, -0.005017724819481373, -0.006858492270112038, -0.00972571037709713, -0.01352115347981453, -0.017940038815140724, -0.022499464452266693], [0.011961674317717552, 0.016593405976891518, 0.021553885191679, 0.026926469057798386, 0.03277549520134926, 0.039164744317531586, 0.04616095870733261, 0.05379961431026459, 0.062012046575546265, 0.0706365555524826, 0.07938054949045181, 0.08794181793928146, 0.09598438441753387, 0.10318956524133682, 0.10935154557228088, 0.11438266932964325], [0.0007316804840229452, 0.0007186975562945008, 0.0007036278257146478, 0.0006892365636304021, 0.0006788101745769382, 0.0006748767918907106, 0.0006794147193431854, 0.000694180722348392, 0.0007196380756795406, 0.0007561008678749204, 0.0008022955153137445, 0.0008570901118218899, 0.0009192571160383523, 0.0009867099579423666, 0.0010579866357147694, 0.0011307697277516127], [0.008007306605577469, 0.012818819843232632, 0.018117310479283333, 0.023417547345161438, 0.028172336518764496, 0.03188343718647957, 0.03424368053674698, 0.03527148440480232, 0.03530906140804291, 0.03502028062939644, 0.034806497395038605, 0.03546915948390961, 0.03747273236513138, 0.041072946041822433, 0.04643189162015915, 0.053250011056661606], [-0.003669059369713068, -0.004409816116094589, -0.005229152739048004, -0.006194963585585356, -0.007402692921459675, -0.008942604064941406, -0.010829448699951172, -0.013042163103818893, -0.015454867854714394, -0.01790275052189827, -0.020194867625832558, -0.02214832231402397, -0.02361919917166233, -0.024524299427866936, -0.024883734062314034, -0.024776751175522804], [0.0006997589371167123, 0.000712365610525012, 0.000723245379049331, 0.0007323141908273101, 0.0007395952707156539, 0.0007443766808137298, 0.0007469173287972808, 0.0007469832780770957, 0.0007443770882673562, 0.000738952774554491, 0.0007309878710657358, 0.0007212052005343139, 0.0007090260041877627, 0.0006946059293113649, 0.0006785673322156072, 0.0006611271528527141], [0.0002088557812385261, 0.0002048525057034567, 0.00020094087813049555, 0.00019698152027558535, 0.00019285603775642812, 0.00018831300258170813, 0.00018319232913199812, 0.00017737627786118537, 0.000170759332831949, 0.0001632956846151501, 0.0001549817097838968, 0.00014578439004253596, 0.00013566866982728243, 0.00012469167995732278, 0.00011281389015493914, 0.00010012868733610958], [-0.0003148685209453106, -0.00028400542214512825, -0.00023939656966831535, -0.00018545432249084115, -0.0001279016287298873, -7.236520468723029e-05, -2.3002110538072884e-05, 1.7976955859921873e-05, 5.030578904552385e-05, 7.499948696931824e-05, 9.387337922817096e-05, 0.00010854021093109623, 0.00012012730439892039, 0.00012935017002746463, 0.00013694095832761377, 0.000143179451697506], [0.0003557907184585929, 0.000359190977178514, 0.00036371240275911987, 0.0003692540340125561, 0.0003749860916286707, 0.00037976729799993336, 0.0003823537554126233, 0.00038139024400152266, 0.00037562730722129345, 0.0003642733208835125, 0.0003464608162175864, 0.0003218787314835936, 0.0002907552116084844, 0.00025371083756908774, 0.0002129611384589225, 0.00017040017701219767], [-0.006263676565140486, -0.006322515197098255, -0.00591826718300581, -0.005052375141531229, -0.0038294882979243994, -0.0024358953814953566, -0.0010884871007874608, 4.253761744621443e-06, 0.0006881523295305669, 0.0008717442397028208, 0.0005564102903008461, -0.00016889398102648556, -0.0011719849426299334, -0.0022831931710243225, -0.0033060091082006693, -0.004065332468599081], [-0.006281416863203049, -0.0060611264780163765, -0.00568140484392643, -0.005150669254362583, -0.004509455524384975, -0.003806541208177805, -0.0031023938208818436, -0.002444777637720108, -0.0018610949628055096, -0.0013573432806879282, -0.0009162693750113249, -0.000505993259139359, -8.679450547788292e-05, 0.0003720470704138279, 0.0008827979909256101, 0.0014494353672489524], [-0.003721898188814521, -0.0029916642233729362, -0.0022772063966840506, -0.0015880146529525518, -0.0009237139602191746, -0.00029847101541236043, 0.000277622661087662, 0.0007929368293844163, 0.0012375651858747005, 0.0016033020801842213, 0.0018820803379639983, 0.002071920083835721, 0.002177179791033268, 0.0022129658609628677, 0.002190845552831888, 0.002142528537660837], [-0.0018768217414617538, -0.009021655656397343, -0.013033299706876278, -0.013378494419157505, -0.010139355435967445, -0.004095771815627813, 0.0039882780984044075, 0.012852558866143227, 0.020902182906866074, 0.027162590995430946, 0.030794847756624222, 0.031412702053785324, 0.029331929981708527, 0.025319905951619148, 0.02049749717116356, 0.016141461208462715], [0.16468854248523712, 0.18310385942459106, 0.18820720911026, 0.1787227839231491, 0.15586166083812714, 0.12454096227884293, 0.09117425233125687, 0.06294704228639603, 0.046051595360040665, 0.04401855543255806, 0.05706438794732094, 0.08179807662963867, 0.11229348182678223, 0.1404968500137329, 0.1589917093515396, 0.1617249995470047], [0.010043672285974026, 0.009597002528607845, 0.008674977347254753, 0.007342726923525333, 0.0057596308179199696, 0.004131244961172342, 0.0026698987931013107, 0.0015715374611318111, 0.0009574966970831156, 0.0008871175232343376, 0.0013246148591861129, 0.0021625724621117115, 0.0032498727086931467, 0.0043942928314208984, 0.005387984216213226, 0.006045753601938486], [0.00730491429567337, 0.006821077316999435, 0.006127867382019758, 0.005260555073618889, 0.0043205698020756245, 0.0034033136907964945, 0.0026084806304425, 0.0020330578554421663, 0.0017346832901239395, 0.001730503630824387, 0.002008200855925679, 0.002512419130653143, 0.003161750501021743, 0.003854175563901663, 0.004483862314373255, 0.004966494627296925], [-0.006011418532580137, -0.005423398222774267, -0.004816602915525436, -0.004199604503810406, -0.0035958068910986185, -0.003022291697561741, -0.002493874169886112, -0.0020346210803836584, -0.0016589004080742598, -0.0013762847520411015, -0.0012056765845045447, -0.001148737850598991, -0.0011997076217085123, -0.0013385224156081676, -0.0015371253248304129, -0.0017666623461991549], [-0.00013137534551788121, -0.00017315393779426813, -0.00022937777976039797, -0.0003063147305510938, -0.0004006917297374457, -0.0004979283548891544, -0.000582924229092896, -0.0006346774171106517, -0.000635107746347785, -0.0005739394691772759, -0.0004418148018885404, -0.00024254190793726593, 1.2676508049480617e-05, 0.0003029941290151328, 0.0006056042620912194, 0.0008970880880951881], [0.25512585043907166, 0.3685359060764313, 0.4708997905254364, 0.5517683029174805, 0.6027266979217529, 0.6220165491104126, 0.6105103492736816, 0.5727252960205078, 0.5159584283828735, 0.4488215446472168, 0.38199689984321594, 0.3238559067249298, 0.2811272144317627, 0.25794878602027893, 0.2550830543041229, 0.26857519149780273], [-0.0033843745477497578, -0.0026372645515948534, -0.0017855382757261395, -0.000896120851393789, -3.561912672012113e-05, 0.0007238987600430846, 0.001332856947556138, 0.0017669576918706298, 0.0020287134684622288, 0.0021378742530941963, 0.0021336600184440613, 0.0020582713186740875, 0.0019513810984790325, 0.0018455823883414268, 0.001765324384905398, 0.0017402981175109744], [0.007585563696920872, 0.007069792598485947, 0.006372283212840557, 0.005458930507302284, 0.0043318080715835094, 0.003051116829738021, 0.0017073934432119131, 0.0004201342526357621, -0.0006905731279402971, -0.0015283157117664814, -0.0020214649848639965, -0.0021514552645385265, -0.0019456872250884771, -0.0014787076506763697, -0.0008413792820647359, -0.00015252389130182564], [-0.004248777404427528, -0.0032406917307525873, -0.0020728353410959244, -0.000873932964168489, 0.000234069288126193, 0.0011404923861846328, 0.00177357520442456, 0.002119351178407669, 0.0022107306867837906, 0.002107248641550541, 0.001907064113765955, 0.0016999965300783515, 0.0015588337555527687, 0.0015265343245118856, 0.0016221406403928995, 0.001852234243415296], [-0.004796647001057863, -0.005035201087594032, -0.005131144542247057, -0.005000682082027197, -0.0045844498090445995, -0.0038723358884453773, -0.0029219351708889008, -0.0018210632260888815, -0.0006948895752429962, 0.00032177550019696355, 0.0011184182949364185, 0.0015999991446733475, 0.0017145390156656504, 0.0014391246950253844, 0.0007911021821200848, -0.00015529931988567114], [0.008267421275377274, 0.008224551565945148, 0.007752578239887953, 0.006869037169963121, 0.00569642661139369, 0.004397567827254534, 0.0031613963656127453, 0.0021709490101784468, 0.0015526787610724568, 0.0013763231690973043, 0.0016354471445083618, 0.00225053820759058, 0.0031038238666951656, 0.004049057140946388, 0.004921806510537863, 0.005581642966717482], [-0.14298273622989655, -0.1291416734457016, -0.11269048601388931, -0.09440886974334717, -0.07566823810338974, -0.05902020260691643, -0.046875450760126114, -0.04211742803454399, -0.04671495407819748, -0.06151866912841797, -0.08563614636659622, -0.11635757982730865, -0.14957913756370544, -0.17977282404899597, -0.2016831934452057, -0.21103514730930328], [0.07329688221216202, -0.1063891351222992, -0.2763907015323639, -0.4168481230735779, -0.5106056332588196, -0.5512421727180481, -0.5390818119049072, -0.4846186637878418, -0.40388238430023193, -0.3150159418582916, -0.23477621376514435, -0.17292039096355438, -0.13380573689937592, -0.1134326234459877, -0.10232793539762497, -0.08979521691799164], [0.00429582828655839, 0.0039273593574762344, 0.0035925591364502907, 0.003301931545138359, 0.003070532577112317, 0.002882871776819229, 0.0027177201118320227, 0.002559304004535079, 0.002394080860540271, 0.00222611497156322, 0.002083094557747245, 0.001995918806642294, 0.002000329317525029, 0.002130930544808507, 0.002395181218162179, 0.0027990860398858786], [-0.007704934570938349, -0.007386971730738878, -0.006685024127364159, -0.00564484391361475, -0.004400455858558416, -0.0031109903939068317, -0.0019491200800985098, -0.0010653685312718153, -0.0005509017501026392, -0.0004465079982765019, -0.0007195787620730698, -0.0012821874115616083, -0.0020199627615511417, -0.002804359421133995, -0.0034960652701556683, -0.003977388609200716], [0.006803921889513731, 0.006446882616728544, 0.00588583666831255, 0.005063082557171583, 0.003982469905167818, 0.0027045973110944033, 0.001337856287136674, 3.1450566893909127e-05, -0.0010618895757943392, -0.0018117876024916768, -0.00211699097417295, -0.0019437146838754416, -0.0013218019157648087, -0.0003470742958597839, 0.0008424593834206462, 0.0020816700998693705], [0.008184537291526794, 0.00804342981427908, 0.0074656507931649685, 0.006479424424469471, 0.005208410322666168, 0.003826721338555217, 0.00252927397377789, 0.0015004536835476756, 0.0008674062555655837, 0.0007046851678751409, 0.0010050444398075342, 0.001687284093350172, 0.0026320242322981358, 0.00368494656868279, 0.0046656494960188866, 0.005411228630691767], [-0.193402498960495, -0.17273668944835663, -0.15273292362689972, -0.1368737518787384, -0.12749715149402618, -0.12630833685398102, -0.1338413804769516, -0.14908258616924286, -0.16926850378513336, -0.1916758269071579, -0.21282464265823364, -0.22824282944202423, -0.23567812144756317, -0.2325061559677124, -0.21741856634616852, -0.19066475331783295], [0.002168473321944475, 0.0017967406893149018, 0.0016992680029943585, 0.0018981937319040298, 0.0023198649287223816, 0.0028784540481865406, 0.0034434343688189983, 0.003923473879694939, 0.0042684138752520084, 0.004466685466468334, 0.004560552537441254, 0.004604279529303312, 0.0046685426495969296, 0.004793043248355389, 0.004976863041520119, 0.005191274452954531], [-0.005824834108352661, -0.006019627209752798, -0.005978825502097607, -0.005598773248493671, -0.0048341527581214905, -0.003720812499523163, -0.002369383815675974, -0.0009446716867387295, 0.00036734508466906846, 0.0013909912668168545, 0.0019867492374032736, 0.0020796828903257847, 0.0016645904397591949, 0.0008004560950212181, -0.0004006096860393882, -0.0017791646532714367], [0.890603244304657, 0.8959285616874695, 0.878143846988678, 0.8302287459373474, 0.7482292056083679, 0.624996542930603, 0.45767489075660706, 0.24633225798606873, -0.006763420067727566, -0.29587888717651367, -0.6132776737213135, -0.9489364624023438, -1.2909265756607056, -1.6261975765228271, -1.940482258796692, -2.2171473503112793], [0.01869935169816017, 0.005150007549673319, -0.0005340202478691936, 0.0018215994350612164, 0.011572957038879395, 0.027086343616247177, 0.0463835634291172, 0.06604112684726715, 0.08260983973741531, 0.09233169257640839, 0.09201906621456146, 0.07930462807416916, 0.0542222261428833, 0.01821788214147091, -0.026125766336917877, -0.07446146756410599], [0.0028986847028136253, 0.0030838975217193365, 0.0030468995682895184, 0.002778778551146388, 0.0023526574950665236, 0.0018373725470155478, 0.0013196475338190794, 0.0009141641203314066, 0.0007070739520713687, 0.0007576548377983272, 0.0011056583607569337, 0.0017403477104380727, 0.0026128848548978567, 0.003631734987720847, 0.004685211926698685, 0.005675633437931538], [0.004876112565398216, 0.005417809821665287, 0.005601873621344566, 0.005363656673580408, 0.004753198008984327, 0.003861665492877364, 0.0028380940202623606, 0.0018866262398660183, 0.001190286478959024, 0.0008906965376809239, 0.0010850606486201286, 0.0017810821300372481, 0.002908760216087103, 0.0043221390806138515, 0.005832630209624767, 0.007254750467836857], [-0.08625663816928864, -0.08159185945987701, -0.07592650502920151, -0.07095344364643097, -0.06780775636434555, -0.06801053881645203, -0.07224614173173904, -0.08060520887374878, -0.0921863317489624, -0.10511533915996552, -0.11688943207263947, -0.12427179515361786, -0.12420646101236343, -0.11371798068284988, -0.09133218228816986, -0.05682636424899101], [0.2386421114206314, 0.23847061395645142, 0.2295776754617691, 0.21389064192771912, 0.19296646118164062, 0.17184992134571075, 0.15491336584091187, 0.1457614153623581, 0.14740806818008423, 0.1600172519683838, 0.18044620752334595, 0.2027127742767334, 0.21976910531520844, 0.2234339416027069, 0.20646817982196808, 0.163411945104599], [-0.0023910438176244497, -0.002025050576776266, -0.0015179114416241646, -0.0008838140056468546, -0.00017285678768530488, 0.0005339165218174458, 0.0011541146086528897, 0.001611023209989071, 0.0018468982307240367, 0.0018481699516996741, 0.0016274653607979417, 0.0012350390898063779, 0.0007419122848659754, 0.00023578280524816364, -0.0002032549527939409, -0.0005033459747210145], [-0.0032931403256952763, -0.0034850086085498333, -0.003576164599508047, -0.0034868596121668816, -0.0031856088899075985, -0.0026844246312975883, -0.0020416274201124907, -0.0013624840648844838, -0.0007718266570009291, -0.0003826462780125439, -0.00029590557096526027, -0.0005577587289735675, -0.0011632038513198495, -0.0020482114050537348, -0.003109741024672985, -0.00423022685572505], [-0.006998713128268719, -0.007046245038509369, -0.006835908629000187, -0.006314319558441639, -0.0054885828867554665, -0.004420350771397352, -0.0032322367187589407, -0.0020701396279037, -0.001081155496649444, -0.0003945977077819407, -8.899191743694246e-05, -0.00018907894263975322, -0.0006642367225140333, -0.0014427017886191607, -0.0024146579671651125, -0.003442030167207122], [0.3180219829082489, 0.3190579116344452, 0.3450041711330414, 0.39880141615867615, 0.47426217794418335, 0.564617931842804, 0.65618497133255, 0.7314272522926331, 0.7695274353027344, 0.7445225715637207, 0.6329665780067444, 0.40895044803619385, 0.05943109467625618, -0.42360809445381165, -1.0263270139694214, -1.7226979732513428], [-0.0033818904776126146, -0.0038455307949334383, -0.003980882000178099, -0.00372800650075078, -0.003136057173833251, -0.0022983839735388756, -0.0013613072223961353, -0.000507470453158021, 0.0001021426432998851, 0.0003427570918574929, 0.00013537760241888463, -0.0005165759357623756, -0.0015472472878172994, -0.0028306343592703342, -0.004192945081740618, -0.005464237183332443], [0.25842124223709106, 0.23101311922073364, 0.17579415440559387, 0.09272497892379761, -0.012980489991605282, -0.13554996252059937, -0.2652238607406616, -0.3909960389137268, -0.5003913044929504, -0.579908013343811, -0.6158640384674072, -0.5945234894752502, -0.5060996413230896, -0.3428936302661896, -0.1051584929227829, 0.20041756331920624], [-0.004794480744749308, -0.004643069114536047, -0.004418348427861929, -0.004110592417418957, -0.0037078475579619408, -0.0032160927075892687, -0.0026654533576220274, -0.0020812770817428827, -0.0015008606715127826, -0.0009697869536466897, -0.0005152684170752764, -0.00017118960386142135, 3.992803976871073e-05, 8.93737596925348e-05, -4.097915370948613e-05, -0.00033715777681209147], [0.01669110544025898, 0.016966018825769424, 0.01624872535467148, 0.01470023114234209, 0.012615778483450413, 0.010427966713905334, 0.008578673005104065, 0.007391784340143204, 0.007001187652349472, 0.007315424270927906, 0.008036965504288673, 0.008715936914086342, 0.008859770372509956, 0.007994296960532665, 0.005870637483894825, 0.002412926172837615], [-0.006987984757870436, -0.006706640589982271, -0.0060439277440309525, -0.005035265814512968, -0.0038022692315280437, -0.0025088677648454905, -0.0013284512097015977, -0.00042614401900209486, 9.060512820724398e-05, 0.0001587256701895967, -0.00021245641983114183, -0.0009456545230932534, -0.0019324534805491567, -0.0030262302607297897, -0.00405320106074214, -0.004855271894484758], [0.00263839028775692, 0.0025903203058987856, 0.0024495343677699566, 0.002258517313748598, 0.002091607777401805, 0.0020065102726221085, 0.002039487473666668, 0.002212936757132411, 0.0025181351229548454, 0.002916625002399087, 0.003368559991940856, 0.00381332915276289, 0.004198679234832525, 0.004475781228393316, 0.004608594346791506, 0.004601174499839544], [0.0075960662215948105, 0.007236592937260866, 0.006512678228318691, 0.00547520536929369, 0.0042385198175907135, 0.0029534571804106236, 0.0017778284382075071, 0.0008541487623006105, 0.0002787259581964463, 0.00010565751290414482, 0.00032147442107088864, 0.0008617484709247947, 0.0016344509785994887, 0.0025285170413553715, 0.0034101686906069517, 0.004158954601734877], [0.10050792992115021, 0.09965485334396362, 0.1052699014544487, 0.11967391520738602, 0.143065944314003, 0.1779109388589859, 0.2250097393989563, 0.2834791839122772, 0.35087552666664124, 0.4221687614917755, 0.4894768297672272, 0.5419935584068298, 0.5693097710609436, 0.5602787733078003, 0.5074524879455566, 0.4070708751678467], [-0.7517231106758118, -0.35406824946403503, 0.05824296921491623, 0.45500990748405457, 0.8077076077461243, 1.1000449657440186, 1.3204938173294067, 1.4682577848434448, 1.5515731573104858, 1.584949016571045, 1.5898737907409668, 1.5887539386749268, 1.603095293045044, 1.6513776779174805, 1.7448208332061768, 1.8840787410736084], [-0.35727494955062866, -0.37047237157821655, -0.3565261662006378, -0.31690654158592224, -0.25592243671417236, -0.18385820090770721, -0.1121114119887352, -0.05266992002725601, -0.014678539708256721, -0.0020658394787460566, -0.013463741168379784, -0.04203765466809273, -0.0770483985543251, -0.10439863801002502, -0.11252683401107788, -0.0917055755853653], [0.0042336913757026196, 0.004119924269616604, 0.0038336878642439842, 0.003383680945262313, 0.002820906462147832, 0.002200863091275096, 0.0015937419375404716, 0.0010513972956687212, 0.000600981991738081, 0.0002444857673253864, -4.571801400743425e-05, -0.00031143607338890433, -0.0006024983013048768, -0.0009563992498442531, -0.0013879322214052081, -0.0018977666040882468], [0.0026774341240525246, 0.0029839295893907547, 0.0031697037629783154, 0.00315722543746233, 0.0029415851458907127, 0.0025281000416725874, 0.0019736201502382755, 0.0013811346143484116, 0.0008613729733042419, 0.0005217860452830791, 0.0004625562287401408, 0.0007364184129983187, 0.001347409444861114, 0.002251085825264454, 0.0033567738719284534, 0.00456127617508173], [-0.5948643088340759, -0.7551724910736084, -0.8532949090003967, -0.8835271596908569, -0.8484981656074524, -0.7597172856330872, -0.6332745552062988, -0.48922082781791687, -0.3473934829235077, -0.22402283549308777, -0.13124516606330872, -0.07392207533121109, -0.052758701145648956, -0.06326809525489807, -0.09826835244894028, -0.14932310581207275], [-0.0007784066256135702, -0.0005557562690228224, -0.0003287075087428093, -8.961504499893636e-05, 0.00016167390276677907, 0.00041513872565701604, 0.0006572330603376031, 0.0008634031401015818, 0.001010100357234478, 0.0010788303334265947, 0.0010509405983611941, 0.000923886604141444, 0.0007045987294986844, 0.0004191556363366544, 9.467329073231667e-05, -0.00023327594681177288], [-0.006744244135916233, -0.006566738709807396, -0.005933631211519241, -0.004858322907239199, -0.0034602510277181864, -0.001931099803186953, -0.0004815119318664074, 0.0006841972353868186, 0.0014313111314550042, 0.0016796831041574478, 0.0014383725356310606, 0.0008035514038056135, -9.556241275276989e-05, -0.0010851933620870113, -0.001964875729754567, -0.0025600537192076445], [0.2546885907649994, 0.23408246040344238, 0.2016879916191101, 0.16038815677165985, 0.11431954056024551, 0.07061438262462616, 0.03582368791103363, 0.01602328009903431, 0.01501521933823824, 0.03354819864034653, 0.06813326478004456, 0.111502505838871, 0.15487734973430634, 0.18760119378566742, 0.20090451836585999, 0.1886526197195053], [-0.0018314463086426258, -0.0014223000034689903, -0.0009973453124985099, -0.0005545759340748191, -9.783075074665248e-05, 0.00034616488846950233, 0.0007493558223359287, 0.0010842620395123959, 0.001328352140262723, 0.0014728446258231997, 0.0015167149249464273, 0.0014772863360121846, 0.0013805916532874107, 0.00126233184710145, 0.0011517773382365704, 0.0010838034795597196], [-0.001656981185078621, -0.0008474374189972878, -2.994027454406023e-05, 0.0006980585167184472, 0.0012601643102243543, 0.001609535189345479, 0.0017406092956662178, 0.001687720650807023, 0.0015136675210669637, 0.0012876790715381503, 0.0010890115518122911, 0.0009733705082908273, 0.0009768082527443767, 0.0011098749237135053, 0.0013593947514891624, 0.0017088290769606829], [-0.0008280004840344191, -0.0012635844759643078, -0.0015223470982164145, -0.0015238579362630844, -0.0012658966006711125, -0.0007854540599510074, -0.00016902372590266168, 0.0004423194332048297, 0.0009051464730873704, 0.0010952034499496222, 0.000904859509319067, 0.0002976030809804797, -0.0007042941870167851, -0.0020071796607226133, -0.003472334938123822, -0.004955288488417864], [0.007293050177395344, 0.006737540476024151, 0.005963664967566729, 0.004990729037672281, 0.0038926906418055296, 0.0027581986505538225, 0.0016912370920181274, 0.0007914482266642153, 0.00013160883099772036, -0.00024129067605827004, -0.000317519559757784, -0.00012545991921797395, 0.0002797631605062634, 0.0008254314889200032, 0.001417831750586629, 0.0019642398692667484], [-0.08705688267946243, -0.06452260911464691, -0.041422709822654724, -0.025172943249344826, -0.021819308400154114, -0.03746518865227699, -0.07399600744247437, -0.12951935827732086, -0.19765879213809967, -0.26774460077285767, -0.3261602520942688, -0.3575718104839325, -0.3485983908176422, -0.288446843624115, -0.17315642535686493, -0.005196516867727041], [0.03490373119711876, 0.021552814170718193, 0.009299201890826225, -0.00020691961981356144, -0.005844272673130035, -0.006764266639947891, -0.0026565450243651867, 0.006140001118183136, 0.019403629004955292, 0.035954274237155914, 0.054571911692619324, 0.07283295691013336, 0.08874676376581192, 0.10136578977108002, 0.1103430911898613, 0.11674442142248154], [0.014103299006819725, 0.00785115547478199, 0.003787698457017541, -1.0662450222298503e-05, -0.004594352096319199, -0.013045774772763252, -0.026770995929837227, -0.04664000868797302, -0.07142753899097443, -0.09782282263040543, -0.12061743438243866, -0.13210026919841766, -0.125152125954628, -0.09214466065168381, -0.028696443885564804, 0.06640616804361343], [-0.002154533052816987, -0.0017564627341926098, -0.001333940657787025, -0.0008727009990252554, -0.0003536414005793631, 0.00021410742192529142, 0.0008114949450828135, 0.0014085187576711178, 0.0019678748212754726, 0.0024486395996063948, 0.0028177364729344845, 0.003054045606404543, 0.003148825606331229, 0.0031127084512263536, 0.0029620849527418613, 0.0027365279383957386], [-0.15816056728363037, -0.12235374748706818, -0.08905937522649765, -0.0623069666326046, -0.04603167250752449, -0.041751228272914886, -0.04983988776803017, -0.06918513029813766, -0.09733109176158905, -0.13084359467029572, -0.16596615314483643, -0.19905222952365875, -0.22716541588306427, -0.2484530806541443, -0.26155930757522583, -0.2660319209098816], [-0.4712561368942261, -0.3535735309123993, -0.22304575145244598, -0.09726378321647644, 0.007604528218507767, 0.07745842635631561, 0.10572560131549835, 0.09307650476694107, 0.047608841210603714, -0.016452500596642494, -0.08102163672447205, -0.12677140533924103, -0.13797307014465332, -0.10333959013223648, -0.019261816516518593, 0.11010095477104187], [-0.010344726964831352, -0.00934711191803217, -0.008229073137044907, -0.007019083481281996, -0.0057780253700912, -0.00457586208358407, -0.0034823701716959476, -0.002570295939221978, -0.0018881859723478556, -0.0014521186240017414, -0.0012635497841984034, -0.0012862945441156626, -0.001459343358874321, -0.0017004221444949508, -0.0019281094428151846, -0.0020657533314079046], [0.000964180682785809, 0.0010592839680612087, 0.0009434492094442248, 0.0006300222594290972, 0.00019244529539719224, -0.00029049222939647734, -0.0007229915354400873, -0.001045607845298946, -0.0012395060621201992, -0.001326284371316433, -0.0013700824929401278, -0.00144790334161371, -0.0016420901520177722, -0.0020080243702977896, -0.00255399476736784, -0.003257671371102333], [-0.012008694931864738, -0.011612721718847752, -0.01089470461010933, -0.009891496039927006, -0.008706210181117058, -0.007462647743523121, -0.006291130091995001, -0.005322904791682959, -0.004645715467631817, -0.004299802239984274, -0.004280520603060722, -0.004519948270171881, -0.00491977296769619, -0.005359858740121126, -0.005712981801480055, -0.005878831725567579], [-0.009164281189441681, -0.008363460190594196, -0.007183473091572523, -0.005757249891757965, -0.004265883471816778, -0.0029081644024699926, -0.0018522506579756737, -0.0012154566356912255, -0.0010357246501371264, -0.0012843586737290025, -0.0018529631197452545, -0.0025924916844815016, -0.003346693702042103, -0.003959267400205135, -0.004298183601349592, -0.004268993623554707], [-0.0002989530039485544, -0.0002856172504834831, -0.00027954275719821453, -0.00027838998357765377, -0.00027844891883432865, -0.00027518148999661207, -0.00026455509942024946, -0.00024359149392694235, -0.00021162073244340718, -0.00016981926455628127, -0.00012118143058614805, -7.005601219134405e-05, -2.0551684428937733e-05, 2.3876316845417023e-05, 6.172400753712282e-05, 9.262628736905754e-05], [3.265449413447641e-05, 4.816689033759758e-05, 5.980631249258295e-05, 6.742858386132866e-05, 7.179805834311992e-05, 7.38270755391568e-05, 7.4908253736794e-05, 7.645633013453335e-05, 7.88860852480866e-05, 8.171156514436007e-05, 8.326377428602427e-05, 8.109841292025521e-05, 7.208395982161164e-05, 5.319016054272652e-05, 2.230938116554171e-05, -2.098426193697378e-05], [0.0008886539726518095, 0.0008464590646326542, 0.0007881654310040176, 0.0007126990240067244, 0.0006212492589838803, 0.0005153915262781084, 0.0003985785006079823, 0.00027485325699672103, 0.00014610675862058997, 1.4187913620844483e-05, -0.0001205956214107573, -0.00025809375802055, -0.0004001917550340295, -0.0005487699527293444, -0.0007039575139060616, -0.0008666899520903826], [-0.1203826442360878, -0.12880724668502808, -0.1325254738330841, -0.13111229240894318, -0.1247614175081253, -0.11441756784915924, -0.10143452137708664, -0.08777077496051788, -0.07551419734954834, -0.06658584624528885, -0.06206570938229561, -0.06251908838748932, -0.06776955723762512, -0.07690685242414474, -0.08879827708005905, -0.10193302482366562], [-0.018778568133711815, -0.021027809008955956, -0.023092854768037796, -0.024929646402597427, -0.026573294773697853, -0.028098806738853455, -0.0296308770775795, -0.03127197548747063, -0.03307060897350311, -0.03499901667237282, -0.03695077821612358, -0.03877447172999382, -0.04030339792370796, -0.04138638451695442, -0.04191504791378975, -0.04186556860804558], [-1.6578123904764652e-06, -5.4730786359868944e-05, -0.00011178807471878827, -0.00016732493531890213, -0.0002170176012441516, -0.00025710457703098655, -0.0002857753133866936, -0.0003026460763067007, -0.0003101105394307524, -0.0003107775410171598, -0.0003083775518462062, -0.00030640338081866503, -0.0003078094159718603, -0.0003144202346447855, -0.000326633540680632, -0.00034464598866179585], [-0.00021529824880417436, -0.00017156871035695076, -0.00012225820682942867, -7.02867764630355e-05, -1.8675382307264954e-05, 3.0441842682193965e-05, 7.594414637424052e-05, 0.0001179035534732975, 0.0001568113948451355, 0.00019384539336897433, 0.00023032809258438647, 0.0002674531133379787, 0.0003057735739275813, 0.0003453524550423026, 0.000385481835110113, 0.0004248183686286211], [-0.000193271494936198, -0.00019027908274438232, -0.00018729534349404275, -0.00018456259567756206, -0.000182135816430673, -0.00018047451158054173, -0.00017930306785274297, -0.00017829841817729175, -0.00017749506514519453, -0.00017663350445218384, -0.00017534698417875916, -0.000173018139321357, -0.00017019404913298786, -0.00016708372277207673, -0.0001638228422962129, -0.00016107552801258862], [8.569020428694785e-05, 7.312405796255916e-05, 5.955094820819795e-05, 4.534615436568856e-05, 3.0946430342737585e-05, 1.665512172621675e-05, 2.8155127438367344e-06, -1.037888341670623e-05, -2.2889813408255577e-05, -3.4808486816473305e-05, -4.62809948658105e-05, -5.7427412684774026e-05, -6.852910155430436e-05, -7.975766493473202e-05, -9.120393224293366e-05, -0.00010296520486008376], [-0.012578827328979969, -0.012844075448811054, -0.012973540462553501, -0.01277204416692257, -0.01231109257787466, -0.011494382284581661, -0.01072547398507595, -0.010440889745950699, -0.010819406248629093, -0.012307564727962017, -0.014942259527742863, -0.018817007541656494, -0.02381908893585205, -0.029516715556383133, -0.03556953743100166, -0.04162827506661415], [0.00032989398459903896, 0.0003397646069061011, 0.00034657056676223874, 0.0003530977410264313, 0.0003619891940616071, 0.00037473163683898747, 0.00039175021811388433, 0.00041228713234886527, 0.00043408310739323497, 0.0004547266580630094, 0.0004718016425613314, 0.0004835615982301533, 0.0004893491277471185, 0.0004894730518572032, 0.00048557936679571867, 0.0004796700377482921], [0.0003950296377297491, 0.00041504495311528444, 0.0004201980191282928, 0.00041002914076671004, 0.0003862736339215189, 0.00035129510797560215, 0.0003085710050072521, 0.00026228424394503236, 0.0002140720607712865, 0.00016569875879213214, 0.000117426214274019, 6.929348455742002e-05, 1.9261002307757735e-05, -3.495771670714021e-05, -9.460808360017836e-05, -0.00016024272190406919], [4.54857072327286e-05, -1.4562960132025182e-05, -7.69106118241325e-05, -0.0001342139148619026, -0.00017977680545300245, -0.0002089866902679205, -0.00022016257571522146, -0.0002147729101125151, -0.00019722123397514224, -0.00017344272055197507, -0.00014980787818785757, -0.00013151344319339842, -0.00012182384671177715, -0.00012134131975471973, -0.00012781750410795212, -0.0001376140135107562], [0.0015235637547448277, 0.0015896189725026488, 0.001638798858039081, 0.0016673142090439796, 0.001676197280175984, 0.0016711917705833912, 0.0016612878534942865, 0.0016576750203967094, 0.0016693470533937216, 0.0017008597496896982, 0.0017513162456452847, 0.0018135138088837266, 0.001875431276857853, 0.0019234345527365804, 0.0019444070057943463, 0.0019295068923383951], [1.9348102796357125e-05, 5.30503093614243e-05, 7.210262992884964e-05, 7.544873369624838e-05, 6.397046672645956e-05, 4.054718010593206e-05, 8.797258487902582e-06, -2.7715228497982025e-05, -6.60893419990316e-05, -0.00010443963401485234, -0.00014154030941426754, -0.0001763787295203656, -0.00020819737983401865, -0.00023616130056325346, -0.00025897775776684284, -0.0002757172333076596], [0.04009538143873215, 0.0382232628762722, 0.03583361953496933, 0.03309313952922821, 0.030179746448993683, 0.027280054986476898, 0.024584373459219933, 0.022212378680706024, 0.020287228748202324, 0.018826201558113098, 0.01780833676457405, 0.017145004123449326, 0.01675490289926529, 0.016501953825354576, 0.016217468306422234, 0.015774410218000412], [-0.02187180705368519, -0.021996522322297096, -0.02095436304807663, -0.018854262307286263, -0.015935122966766357, -0.012519449926912785, -0.009003935381770134, -0.005721289198845625, -0.002886019181460142, -0.000566549482755363, 0.0012972325785085559, 0.002840942470356822, 0.004227836150676012, 0.005603444296866655, 0.007017944473773241, 0.008486960083246231], [6.20339487795718e-05, 6.792270869482309e-05, 7.515426113968715e-05, 8.34362581372261e-05, 9.225978283211589e-05, 0.00010105511319125071, 0.00010936760372715071, 0.00011654895206447691, 0.0001221183774759993, 0.00012589929974637926, 0.00012772323680110276, 0.00012773353955708444, 0.00012606685049831867, 0.00012309540761634707, 0.00011893793271156028, 0.00011388595885364339], [0.0001737707934807986, 0.0002454189525451511, 0.00031275663059204817, 0.0003713357145898044, 0.00041755696292966604, 0.00045017979573458433, 0.0004701011930592358, 0.00047976302448660135, 0.0004817782319150865, 0.000478563568321988, 0.0004715201794169843, 0.00046158587792888284, 0.00044944346882402897, 0.0004361141473054886, 0.0004236324457451701, 0.0004140354576520622], [-4.863571666646749e-05, -9.832770592765883e-05, -0.00014495267532765865, -0.0001887640100903809, -0.0002292322024004534, -0.00026474002515897155, -0.0002932086063083261, -0.00031250048778019845, -0.0003216368204448372, -0.00032051163725554943, -0.00030991813400760293, -0.0002915887162089348, -0.0002688333624973893, -0.00024479208514094353, -0.00022229214664548635, -0.00020415126346051693], [-0.00018061266746371984, -0.00020995820523239672, -0.00025057612219825387, -0.0002996841794811189, -0.00035259482683613896, -0.00040367775363847613, -0.0004483218945097178, -0.0004834720166400075, -0.000508356373757124, -0.00052357412641868, -0.0005308350082486868, -0.0005324463709257543, -0.0005305045051500201, -0.000526783405803144, -0.0005220574676059186, -0.0005166869377717376], [0.031644031405448914, 0.02712659165263176, 0.02493380941450596, 0.025422343984246254, 0.028712674975395203, 0.0344524122774601, 0.041844941675662994, 0.04955202713608742, 0.05616859346628189, 0.0602627731859684, 0.06091192737221718, 0.05742862448096275, 0.04965531453490257, 0.03808528929948807, 0.023426664993166924, 0.0067481365986168385], [-0.0004945686087012291, -0.0005130735225975513, -0.0005280037876218557, -0.0005396749475039542, -0.0005489338655024767, -0.0005570474313572049, -0.0005652586696669459, -0.0005746102542616427, -0.0005853914190083742, -0.000597276957705617, -0.0006091599352657795, -0.0006196244503371418, -0.0006274651386775076, -0.0006318379892036319, -0.0006324739661067724, -0.000629899965133518], [-0.0011085275327786803, -0.001041565672494471, -0.0009806882590055466, -0.0009299346129409969, -0.000890574767254293, -0.0008596014231443405, -0.0008309538243338466, -0.000796191394329071, -0.0007477517938241363, -0.0006803375435993075, -0.000591884832829237, -0.00048420188250020146, -0.0003628818958532065, -0.000235915242228657, -0.00011139333946630359, 3.8669968489557505e-06], [0.07168476283550262, 0.06898575276136398, 0.06345971673727036, 0.05500367656350136, 0.043649688363075256, 0.02958896942436695, 0.01339065283536911, -0.0041567180305719376, -0.02198990434408188, -0.038807615637779236, -0.05320031940937042, -0.06390658020973206, -0.06984681636095047, -0.07051007449626923, -0.06599601358175278, -0.05699542909860611], [-0.02682187594473362, -0.025547955185174942, -0.024016721174120903, -0.022381359711289406, -0.02070871740579605, -0.01904429867863655, -0.017252426594495773, -0.015202028676867485, -0.012784997001290321, -0.00990451779216528, -0.0065748849883675575, -0.0028719105757772923, 0.0009618401527404785, 0.004576083272695541, 0.007545961067080498, 0.009567619301378727], [0.00077529635746032, 0.0007526403642259538, 0.0007202724227681756, 0.0006842787843197584, 0.0006507999496534467, 0.0006255035405047238, 0.0006124529172666371, 0.0006141788326203823, 0.0006300843670032918, 0.0006571044796146452, 0.0006902141612954438, 0.0007237893878482282, 0.0007514755707234144, 0.0007683496223762631, 0.0007711165817454457, 0.0007582813850603998], [0.000393224268918857, 0.0004479451454244554, 0.0004992486210539937, 0.0005517180543392897, 0.00060822325758636, 0.0006702441023662686, 0.0007371588726527989, 0.0008068684255704284, 0.0008758245967328548, 0.0009405026212334633, 0.0009981266921386123, 0.0010475284652784467, 0.001088591874577105, 0.0011226639617234468, 0.0011522345012053847, 0.0011797036277130246], [0.0056362031027674675, 0.005795730743557215, 0.005990839097648859, 0.006236683577299118, 0.0065494622103869915, 0.006916487589478493, 0.007324427831918001, 0.0077397143468260765, 0.00813144352287054, 0.00845104269683361, 0.008669473230838776, 0.008744417689740658, 0.008671524003148079, 0.008455805480480194, 0.008103466592729092, 0.007659022696316242], [0.06901059299707413, 0.07099346071481705, 0.07306981086730957, 0.07525752484798431, 0.07746142894029617, 0.07952389866113663, 0.08122971653938293, 0.08236505091190338, 0.0828186497092247, 0.082523413002491, 0.08152525871992111, 0.07994970679283142, 0.07800659537315369, 0.07596113532781601, 0.07405048608779907, 0.07251082360744476], [0.00012146035442128778, 0.00010899131302721798, 9.835779201239347e-05, 8.95500706974417e-05, 8.226732461480424e-05, 7.604823622386903e-05, 7.037528121145442e-05, 6.475948612205684e-05, 5.867379513802007e-05, 5.187657370697707e-05, 4.418192838784307e-05, 3.562923666322604e-05, 2.61603418039158e-05, 1.5912803064566106e-05, 5.074318323750049e-06, -6.512847903650254e-06], [-0.00011865588749060407, -0.0001197859673993662, -0.00011839802755275741, -0.00011303935752948746, -0.00010325820767320693, -8.941037231124938e-05, -7.255149830598384e-05, -5.488566239364445e-05, -3.884500983986072e-05, -2.670831418072339e-05, -1.9664003048092127e-05, -1.822763260861393e-05, -2.1967680368106812e-05, -2.9651400836883113e-05, -3.916339483112097e-05, -4.8602982133161277e-05], [-7.499284402001649e-05, 2.4813109121168964e-05, 0.00010636258957674727, 0.00016400353342760354, 0.0001974520564544946, 0.00021276253391988575, 0.0002196406712755561, 0.00022924243239685893, 0.0002503479481674731, 0.0002880148240365088, 0.00034262629924342036, 0.00041010123095475137, 0.00048289477126672864, 0.0005526295863091946, 0.0006121990154497325, 0.0006569731631316245], [0.0018016018439084291, 0.0026639827992767096, 0.0035324632190167904, 0.0042516267858445644, 0.004617431201040745, 0.004445367958396673, 0.003588181221857667, 0.001988898264244199, -0.00022421493486035615, -0.002854872029274702, -0.005557432770729065, -0.007970859296619892, -0.009752370417118073, -0.01063116081058979, -0.010452496819198132, -0.009208526462316513], [5.108042387291789e-06, -5.728943506255746e-06, -3.131417906843126e-05, -6.853236118331552e-05, -0.00011392940359655768, -0.00016376249550376087, -0.0002146564656868577, -0.00026440067449584603, -0.0003113044367637485, -0.0003545014187693596, -0.000393293215893209, -0.00042710741399787366, -0.0004562430258374661, -0.0004809902748093009, -0.0005017273942939937, -0.0005190166993997991], [0.004845684394240379, -0.0002253152197226882, -0.005831665825098753, -0.011796251870691776, -0.017934754490852356, -0.024136686697602272, -0.030400477349758148, -0.03664042428135872, -0.04277610778808594, -0.04857618361711502, -0.053838979452848434, -0.05822638422250748, -0.06145738437771797, -0.06327978521585464, -0.06354648619890213, -0.062255002558231354], [-0.00017502362607046962, -0.00015615257143508643, -0.0001452066353522241, -0.00013946258695796132, -0.00013494158338289708, -0.00012613000581040978, -0.00010760287113953382, -7.532265590270981e-05, -2.804979885695502e-05, 3.241371450712904e-05, 0.00010172572365263477, 0.00017379672499373555, 0.00024162876070477068, 0.00029911287128925323, 0.0003426196926739067, 0.0003707038995344192], [-0.00042536482214927673, -0.000451738596893847, -0.0004684149462264031, -0.00047943307436071336, -0.0004895186284556985, -0.0005039680399931967, -0.0005269215907901525, -0.0005601554876193404, -0.0006037059938535094, -0.0006546013755723834, -0.0007066908292472363, -0.0007545475382357836, -0.0007930965512059629, -0.0008183837053366005, -0.0008291589329019189, -0.0008254392887465656], [-0.0001953975879587233, -0.00025526119861751795, -0.0003120206529274583, -0.0003622756921686232, -0.00040351581992581487, -0.0004338342696428299, -0.0004527979181148112, -0.00046101384214125574, -0.00046074006240814924, -0.0004542493843473494, -0.0004442190402187407, -0.0004330288211349398, -0.000422123062890023, -0.0004121290985494852, -0.000402384641347453, -0.000392070971429348], [-0.0002449154853820801, -0.0003439676947891712, -0.0004425167862791568, -0.0005364934913814068, -0.0006226358236745, -0.0006984517676755786, -0.0007621620316058397, -0.0008134504314512014, -0.0008527804748155177, -0.0008811678271740675, -0.000900428683962673, -0.0009127534576691687, -0.0009207957191392779, -0.0009273138712160289, -0.0009346552542410791, -0.0009448162745684385], [-1.5038571291370317e-05, -3.974750870838761e-05, -7.146877760533243e-05, -0.0001065210672095418, -0.00014099135296419263, -0.00017066867440007627, -0.0001923106610774994, -0.00020436769409570843, -0.00020731643598992378, -0.00020295496506150812, -0.0001943064562510699, -0.00018488604109734297, -0.00017763432697393, -0.0001745140616549179, -0.0001755852863425389, -0.0001804267812985927], [-0.02637077309191227, -0.029451893642544746, -0.032175395637750626, -0.03436010330915451, -0.03588847070932388, -0.03665279969573021, -0.03665241226553917, -0.035890642553567886, -0.03441574051976204, -0.03234253451228142, -0.029795337468385696, -0.026924336329102516, -0.023840369656682014, -0.020801352337002754, -0.017970550805330276, -0.015472736209630966], [-0.032746702432632446, -0.034404460340738297, -0.036777399480342865, -0.039429672062397, -0.04115591570734978, -0.041397999972105026, -0.038970112800598145, -0.03269709274172783, -0.022251512855291367, -0.0071406494826078415, 0.01231757365167141, 0.03576122596859932, 0.06298510730266571, 0.09326697140932083, 0.1263023316860199, 0.16179464757442474], [0.00588878383859992, 0.007942760363221169, 0.009996520355343819, 0.011816386133432388, 0.013170733116567135, 0.013885339722037315, 0.013865440152585506, 0.013097253628075123, 0.011683658696711063, 0.00975749921053648, 0.00752412062138319, 0.00522881792858243, 0.003124125301837921, 0.0014160263817757368, 0.0002193697728216648, -0.0004116332274861634], [9.691172454040498e-05, 0.0001096623091143556, 0.00012056351988576353, 0.00012947266804985702, 0.00013672008935827762, 0.00014276147703640163, 0.00014828890562057495, 0.00015404300938826054, 0.0001603965793037787, 0.00016726032481528819, 0.00017409547581337392, 0.00018003718287218362, 0.0001839978649513796, 0.00018527636711951345, 0.0001834901049733162, 0.0001789706147974357], [7.817096775397658e-05, 0.00011856375203933567, 0.00015255190373864025, 0.00018187140813097358, 0.00020846689585596323, 0.00023441450321115553, 0.0002608184004202485, 0.00028801284497603774, 0.00031516095623373985, 0.00034103431971743703, 0.00036448531318455935, 0.000384952814783901, 0.0004021555359940976, 0.0004167983424849808, 0.0004302905290387571, 0.00044473406160250306], [-0.016819387674331665, -0.005149101838469505, 0.007794821169227362, 0.02005510777235031, 0.029819270595908165, 0.035409919917583466, 0.03595995903015137, 0.03152211755514145, 0.023205187171697617, 0.012950899079442024, 0.0031074658036231995, -0.0038837671745568514, -0.006162240169942379, -0.0027000955305993557, 0.006218766327947378, 0.019732952117919922], [2.0604129531420767e-06, -2.151361695723608e-05, -4.4425250962376595e-05, -6.653753371210769e-05, -8.755607268540189e-05, -0.0001074931860785, -0.00012617866741493344, -0.0001433657598681748, -0.00015905284089967608, -0.00017309625400230289, -0.00018562325567472726, -0.00019671019981615245, -0.0002068582980427891, -0.0002164393081329763, -0.00022589010768570006, -0.00023560968111269176], [-1.206907836603932e-05, -3.4454169508535415e-05, -6.049898365745321e-05, -8.811025327304378e-05, -0.00011437457578722388, -0.00013566452253144234, -0.00014916191867087036, -0.0001532651949673891, -0.00014881034439895302, -0.0001375701103825122, -0.0001223980652866885, -0.00010651974298525602, -9.274740295950323e-05, -8.292461279779673e-05, -7.757244020467624e-05, -7.620058750035241e-05], [-0.06727010756731033, -0.06837769597768784, -0.06953366100788116, -0.07069530338048935, -0.07186438143253326, -0.07304470986127853, -0.0743233934044838, -0.07580529898405075, -0.07748102396726608, -0.07931946963071823, -0.08119326084852219, -0.08296060562133789, -0.08443360030651093, -0.08542125672101974, -0.08578882366418839, -0.08545263856649399], [0.00012338488886598498, 5.037774099037051e-05, -3.39104954036884e-05, -0.00012667171540670097, -0.00022485699446406215, -0.00032603906583972275, -0.0004277743282727897, -0.0005280777695588768, -0.0006259003421291709, -0.0007200395339168608, -0.0008098207181319594, -0.0008945896988734603, -0.0009744667331688106, -0.0010497909970581532, -0.0011207470670342445, -0.0011881723767146468], [0.00010118204954778776, 2.001610118895769e-05, -5.767478432971984e-05, -0.0001263300800928846, -0.00018193757568951696, -0.00022294135123956949, -0.0002505721349734813, -0.00026776595041155815, -0.0002786466502584517, -0.00028713225037790835, -0.0002960443962365389, -0.00030680379131808877, -0.0003189222188666463, -0.00033046805765479803, -0.0003383604343980551, -0.00033927056938409805], [-0.0004237538669258356, -0.0004222239076625556, -0.0004176994552835822, -0.0004070269060321152, -0.0003878427669405937, -0.0003591623390093446, -0.0003216653421986848, -0.0002773731539491564, -0.00022937054745852947, -0.00018143649504054338, -0.00013717482215724885, -9.974247950594872e-05, -7.125856063794345e-05, -5.252937990007922e-05, -4.276313120499253e-05, -4.011701821582392e-05], [0.0003182684595230967, 0.0003012761881109327, 0.0002723830402828753, 0.00023721938487142324, 0.00020149326883256435, 0.00017010606825351715, 0.0001462624641135335, 0.0001316260313615203, 0.0001262154837604612, 0.00012879580026492476, 0.0001373528502881527, 0.00014938670210540295, 0.0001626383455004543, 0.00017530136392451823, 0.00018665635434444994, 0.0001964688126463443], [-0.0027083896566182375, -0.002171336207538843, -0.0016130802687257528, -0.0011082031996920705, -0.0007374328561127186, -0.000543562404345721, -0.0005323805380612612, -0.0006400239653885365, -0.0007616612128913403, -0.0007949091959744692, -0.0006094340933486819, -0.00012861762661486864, 0.0007164282724261284, 0.0019305828027427197, 0.003472997574135661, 0.005295749753713608], [-0.07793989777565002, -0.07578121870756149, -0.07207764685153961, -0.06725719571113586, -0.062024299055337906, -0.05703806132078171, -0.05306117609143257, -0.0509936660528183, -0.05155770480632782, -0.055695466697216034, -0.06392096728086472, -0.07662498950958252, -0.09388988465070724, -0.11555936187505722, -0.140850231051445, -0.16876192390918732], [0.0028012648690491915, 0.007971375249326229, 0.013100090436637402, 0.01833292655646801, 0.023920295760035515, 0.030111150816082954, 0.037121765315532684, 0.0451543815433979, 0.05416308343410492, 0.06390950828790665, 0.07404248416423798, 0.08402211219072342, 0.09337373822927475, 0.10167275369167328, 0.10856260359287262, 0.11400580406188965], [-0.00024042167933657765, -0.00036735073081217706, -0.0004978714277967811, -0.0006315751816146076, -0.000767656194511801, -0.0009045741171576083, -0.0010404379572719336, -0.0011734027648344636, -0.0013025084044784307, -0.0014267114456743002, -0.0015457350527867675, -0.0016592368483543396, -0.0017676486168056726, -0.0018715310143306851, -0.0019711414352059364, -0.0020667999051511288], [0.0779896080493927, 0.08960644155740738, 0.09705164283514023, 0.09935986995697021, 0.09641683846712112, 0.08917416632175446, 0.07944545149803162, 0.07006854563951492, 0.06392171233892441, 0.06390583515167236, 0.07149533927440643, 0.08744467049837112, 0.11125525832176208, 0.1412290632724762, 0.17505063116550446, 0.21013453602790833], [-0.02559005282819271, -0.026644937694072723, -0.027768589556217194, -0.029046040028333664, -0.030499937012791634, -0.03210015967488289, -0.03375575318932533, -0.03536901995539665, -0.0367782860994339, -0.03786351904273033, -0.038504574447870255, -0.03869481012225151, -0.03844871371984482, -0.03783915191888809, -0.036997757852077484, -0.03606599196791649], [-0.0004949778085574508, -0.0004814141138922423, -0.00047022689250297844, -0.00046176050091162324, -0.000456371926702559, -0.0004548670840449631, -0.00045654780115000904, -0.00046042853500694036, -0.00046656845370307565, -0.0004741322190966457, -0.0004824654315598309, -0.0004906136309728026, -0.0004996552597731352, -0.0005102588911540806, -0.0005224386695772409, -0.0005375497275963426], [0.0001109301156247966, 0.00010491754801478237, 9.975473221857101e-05, 9.539000893710181e-05, 9.180040069622919e-05, 8.873391197994351e-05, 8.595349208917469e-05, 8.319611515616998e-05, 8.032847836147994e-05, 7.724110764684156e-05, 7.391218969132751e-05, 7.025508966762573e-05, 6.602534995181486e-05, 6.114238203736022e-05, 5.536624667001888e-05, 4.872362478636205e-05], [-0.0005135571118444204, -0.00044702450395561755, -0.0003762823180295527, -0.00030287308618426323, -0.00022888623061589897, -0.00015580988838337362, -8.489037281833589e-05, -1.689846976660192e-05, 4.720131983049214e-05, 0.00010677553655114025, 0.00016131227312143892, 0.00021018138795625418, 0.0002528884506318718, 0.0002891776675824076, 0.00031941267661750317, 0.00034387368941679597], [-4.32035158155486e-05, -0.00011654183617793024, -0.00019413149857427925, -0.0002696882002055645, -0.0003373368817847222, -0.0003917691938113421, -0.000429735635407269, -0.00045078768744133413, -0.00045738351764157414, -0.0004532418097369373, -0.00044364528730511665, -0.00043349398765712976, -0.00042672979179769754, -0.0004252463113516569, -0.0004282087320461869, -0.00043409172212705016]], "lstm.weight_hh_l0": [[5.046873411629349e-05, -5.75395388295874e-05, 2.4140235836966895e-06, 6.86666026012972e-05, -0.0008083407301455736, 8.294034341815859e-05, -1.0711228242143989e-06, -6.685416883556172e-05, 1.5544415873591788e-05, 0.00044891724246554077, 3.4565098758321255e-05, 0.00010885518713621423, -0.00010032729915110394, 8.704615174792707e-05, 0.00011131424980703741, 0.0008575625251978636, 0.000230856952839531, -1.1660893505904824e-05, -9.014089300762862e-06, -1.8326816643821076e-05, 0.00015882743173278868, -0.000925142434425652, 9.70796918409178e-06, -0.00015537702711299062, 0.0004982748068869114, -4.992407775716856e-05, -2.835244231391698e-06, 4.284425449441187e-05, -0.00014109761104919016, 0.00016748161579016596, -5.4192860261537135e-05, 8.30006229080027e-06, 9.443587623536587e-05, 0.00012431250070221722, -3.597480827011168e-05, 0.00033533346140757203, 0.00011469083256088197, -4.409616667544469e-05, 2.5129838832071982e-06, 5.203543332754634e-05, 2.8305325031396933e-05, -0.00021705092513002455, -7.617572555318475e-05, 0.0003243789542466402, 5.689141107723117e-05, 9.63734564720653e-05, -0.0008309900294989347, -3.738680970855057e-05, -0.00012117624282836914, -0.0005968443001620471, -3.194390592398122e-05, -1.638083631405607e-05, -1.0684678272809833e-05, -4.955147596774623e-05, 0.0005143771995790303, -0.0012394030345603824, -0.00010244012082694098, 8.514645742252469e-06, -0.00023781569325365126, 0.0004606699221767485, -0.00012471858644858003, 1.7447842765250243e-05, 3.879745236190502e-06, -6.158477845019661e-06], [-3.4386712286504917e-06, 1.8852406356018037e-05, 2.8271831979509443e-05, -0.000794867635704577, -2.7247078833170235e-06, -3.585433660191484e-05, -1.8812219423125498e-05, 3.1224717531586066e-05, -4.505960077949567e-06, 0.00020914278866257519, 9.687812507763738e-07, -1.3471925740304869e-05, 2.079883051919751e-05, -2.564819806138985e-05, -1.4563877812179271e-05, 0.0011129622580483556, -0.00031273916829377413, -2.1179339455557056e-05, -2.6699622139858548e-06, -8.87763308128342e-05, -7.463321253453614e-06, -8.142650767695159e-05, -1.3125491022947244e-05, 0.00011886701395269483, -0.00042765677790157497, 0.00023464446712750942, 3.0611818147008307e-07, -2.2601434466196224e-06, -1.6168205547728576e-05, -0.0008699855534359813, 1.3403090633801185e-05, 1.2500250704761129e-05, -1.6656274965498596e-05, -0.0011449155863374472, -3.230503716622479e-05, 0.00019822598551400006, 4.595312930177897e-05, 1.3885708540328778e-05, 2.3882985260570422e-05, 2.9940678359707817e-05, -2.8235286663402803e-05, 0.00012842254363931715, -0.00010685296001611277, -3.695629129651934e-05, 4.448517756827641e-06, -1.709996649879031e-05, 0.0002627939102239907, 2.9125767468940467e-05, 1.333295222138986e-05, -0.000578800798393786, 2.0153687728452496e-05, 4.892770448350348e-06, -3.186421236023307e-05, 1.543211874377448e-05, 0.000683535065036267, -0.0006095411954447627, -0.0002086303138639778, -5.4349106903828215e-06, -0.001485347980633378, 6.453428068198264e-05, 9.575080184731632e-05, -7.13621102477191e-06, 1.1423154319345485e-05, 4.6162840590113774e-05], [-3.3616641303524375e-05, 0.0001222762803081423, 7.150223245844245e-05, -0.0012918723514303565, 0.0010658506071195006, -0.00016068604600150138, -7.103613461367786e-05, 0.0002241885376861319, 1.6815615708765108e-06, -0.0006248261779546738, 0.00011682166223181412, -0.00020169393974356353, 5.981621870887466e-05, 1.7142270735348575e-05, 3.663794632302597e-05, -0.0016882390482351184, 0.0002243146882392466, -6.945616041775793e-05, 4.336912388680503e-05, -0.00023226489429362118, 5.717629392165691e-06, -0.00015379584510810673, 2.2721535060554743e-05, 0.0002720545744523406, -0.0016543454257771373, -0.00018584317876957357, 4.0261453250423074e-05, -8.02722861408256e-05, -1.0155112249776721e-05, -0.0009046415216289461, 0.00013112308806739748, -2.1068713977001607e-05, 0.00011794915917562321, 0.0007104342803359032, -7.25126446923241e-05, 0.00012461475853342563, 0.0002761947107501328, 1.6746529581723735e-05, 1.2329623132245615e-05, 8.157484262483194e-05, -5.545153180719353e-05, -0.00020956594380550086, 0.0009525420027785003, -0.0011399141512811184, -5.190306910662912e-05, -7.83104551373981e-05, -0.0014998167753219604, 0.00012012950173811987, 0.00019268620235379785, 0.00034734554355964065, 0.00018381347763352096, 0.00011377812916180119, -7.3320379669894464e-06, 1.5294735931092873e-06, -0.0012808585306629539, -0.0029409693088382483, -0.0025230746250599623, 0.0002516882377676666, -0.003392014419659972, -0.0019991055596619844, 0.00032643499434925616, -5.171685552340932e-05, 0.00010842403571587056, 0.00015971592802088708], [-0.005572893191128969, 0.0012200145283713937, -0.003540128469467163, -0.058903489261865616, -0.0020683647599071264, 0.010032481513917446, 0.0016917253378778696, -0.0008682524785399437, 0.0007112727616913617, 0.02011973410844803, -0.004120680503547192, 0.0037564998492598534, -0.0033871857449412346, 0.0008735924493521452, 0.005507103633135557, -0.006230819039046764, 0.02448134869337082, -0.001994621939957142, -0.005149589851498604, 0.00411403551697731, 0.007241352926939726, 0.08254166692495346, 0.0017337838653475046, -0.0003121092158835381, 