{"lstm.weight_ih_l0": [[0.028056859970092773], [0.08000604063272476], [0.8345547318458557], [-0.22660256922245026], [0.11989220976829529], [-0.7323387265205383], [0.0030205072835087776], [0.22127068042755127], [0.30730536580085754], [0.5781095027923584], [0.17320986092090607], [-1.3852641582489014], [0.2638395428657532], [-4.377194881439209], [1.3200114965438843], [-0.47096988558769226], [-1.883395791053772], [0.7632548809051514], [-0.3653019368648529], [0.7621997594833374], [0.3112817108631134], [0.5377300977706909], [-0.2425612360239029], [-1.3208106756210327]], "lstm.weight_hh_l0": [[0.38981592655181885, -0.014593827538192272, -0.2843940854072571, -0.08304288983345032, 0.2739679515361786, -0.5457600951194763], [-0.2585771679878235, -0.2138824462890625, 0.358804851770401, -0.04712669551372528, -0.3411208987236023, -0.16765066981315613], [-0.08230461180210114, -0.32527023553848267, 0.0050156498327851295, -0.17956112325191498, -0.6539472937583923, -0.4191664159297943], [-0.087033212184906, 0.4588400721549988, -0.03150061145424843, -0.5195500254631042, -0.6892006397247314, -0.28323042392730713], [-1.6570489406585693, 0.6781349182128906, 1.3822624683380127, 0.2346336543560028, 1.426846981048584, -0.41611844301223755], [-0.013777519576251507, -0.010768953710794449, 0.021829407662153244, 0.5268785357475281, -0.34748104214668274, 0.17600369453430176], [-0.35382533073425293, -0.39939165115356445, 0.18325479328632355, -0.0015206479001790285, 0.3390766680240631, -0.6399990916252136], [0.5480645298957825, 0.07936877012252808, -0.007653022184967995, -0.43730324506759644, 0.12036529928445816, -0.26178810000419617], [-0.631083071231842, 0.17479145526885986, 0.534132719039917, -0.4237379729747772, -0.11980597674846649, -0.9416956901550293], [-0.46922361850738525, -0.44635990262031555, 0.5293629169464111, -0.8323045372962952, 0.2350023239850998, -1.1043593883514404], [0.9922834038734436, 0.46449339389801025, 0.0053654504008591175, 0.2508646249771118, 0.04946292191743851, 0.21109429001808167], [-0.20391704142093658, 0.233584925532341, -0.15729005634784698, 0.6524588465690613, -0.1689920574426651, -0.5336839556694031], [-0.06010766327381134, -0.3482488989830017, 0.3665747344493866, -0.6773030161857605, -0.23446303606033325, 0.2100932002067566], [-0.5902533531188965, 0.515089750289917, 0.0559811033308506, 0.5152941346168518, -0.029517050832509995, -0.12291774898767471], [-0.646026611328125, 0.1170315071940422, 0.12092547118663788, 0.5103654861450195, 0.3907124400138855, -0.3278076648712158], [-0.4541834890842438, 0.09657929837703705, 0.0613267682492733, 0.30324292182922363, -0.1043715551495552, 0.06289472430944443], [0.4969984292984009, 0.6878575682640076, -0.6962652206420898, -0.8648914694786072, 1.0752232074737549, -0.002049088943749666], [0.4227762222290039, -0.433877557516098, -0.1297447383403778, -0.3219928741455078, 0.11702337861061096, -0.0596960224211216], [-0.2640460431575775, -0.6637033224105835, 0.4130258560180664, -0.6784909963607788, 0.36082085967063904, -0.912930965423584], [0.6241945028305054, -0.18910427391529083, 0.31535235047340393, -0.21891845762729645, -0.9990516901016235, 0.37417736649513245], [-0.37448635697364807, -0.3450351059436798, 0.2277275025844574, -0.0737193301320076, 0.02397064119577408, -0.8910606503486633], [0.010449862107634544, -0.7562642693519592, 0.010544586926698685, -0.8949365019798279, -0.15210795402526855, -0.6987119913101196], [0.49693554639816284, -0.34848693013191223, -0.17266514897346497, -0.3227038085460663, -0.31628623604774475, -0.6863414645195007], [-0.5041161775588989, 0.02838144637644291, 0.207683727145195, 0.701038658618927, 0.21812592446804047, -0.29517123103141785]], "lstm.bias_ih_l0": [0.27817976474761963, 0.5532797574996948, 0.04090337082743645, -0.5319774746894836, 0.9918023347854614, -0.060638677328825, 0.5566267371177673, -0.07863516360521317, 0.12911918759346008, 0.25871598720550537, -0.0012308055302128196, -0.1775636523962021, -0.04759499803185463, -0.037750955671072006, 0.20849297940731049, -0.09298428893089294, 0.14744508266448975, -0.20403069257736206, 0.413347452878952, 0.40216538310050964, 0.4169715940952301, -0.04030222073197365, 0.2757979929447174, 0.19949102401733398], "lstm.bias_hh_l0": [-0.1955440491437912, 0.7293526530265808, -0.19509023427963257, -0.3104996383190155, 1.19475519657135, -0.26833564043045044, 0.2374020516872406, -0.05852926895022392, 0.5663661360740662, 0.7414952516555786, 0.19939106702804565, -0.20184101164340973, -0.10898412764072418, -0.09953116625547409, -0.1451181322336197, 0.09239082038402557, 0.10566909611225128, 0.23052215576171875, -0.09538035839796066, 0.026045355945825577, 0.18739193677902222, 0.5593090653419495, 0.13691043853759766, -0.08431439846754074], "dense.weight": [[0.18839994072914124, 0.08002745360136032, 0.12111067026853561, -0.49698105454444885, -0.48684027791023254, 0.21661171317100525]], "dense.bias": [0.021391239017248154]}